svm_type c_svc
kernel_type linear
nr_class 2
total_sv 102
rho 0.0578119
label 1 -1
nr_sv 51 51
SV
1.141121906698071 3:0.017373189 5:0.034925841 42:0.044644874 67:0.069313291 119:0.030873048 142:-0.0011529687 154:0.030873048 217:0.045193055 234:0.03814923 246:0.052848667 277:0.026852645 282:0.032072626 288:0.032072626 331:0.045193055 355:0.018340412 360:0.058925271 363:0.036384043 434:0.014028994 448:0.018848486 455:0.032072626 483:0.04853725 629:0.03814923 745:0.015197383 809:0.069313291 834:0.052848667 849:0.032072626 868:0.010097006 871:0.069313291 878:0.036384043 907:0.069313291 910:0.032072626 935:0.028728431 957:0.052848667 969:0.069313291 983:0.0088193839 1014:0.069313291 1051:0.052848667 1062:0.069313291 1066:0.04246065 1081:0.012945142 1089:0.045193055 1096:0.058925271 1099:0.0095314014 1143:0.033376645 1151:0.012600604 1178:0.069313291 1188:0.04246065 1247:0.032072626 1248:0.04853725 1250:0.014797713 1258:0.030873048 1261:0.097074497 1297:0.11785054 1314:0.033824043 1320:0.045193055 1335:0.069313291 1408:0.040150429 1465:0.032072626 1474:0.017442219 1503:0.023685807 1507:0.053705286 1513:0.045977248 1532:0.052848667 1545:0.01098757 1551:0.04853725 1559:0.04246065 1585:0.069313291 1611:0.028728431 1614:0.069313291 1643:0.04246065 1690:0.016912021 1710:0.058925271 1714:0.04246065 1716:0.020485026 1734:0.069313291 1760:0.029762409 1829:0.025996025 1836:0.045193055 1844:0.069313291 1896:0.021072817 1907:0.058925271 1912:0.052848667 1919:0.03814923 1933:-0.076467923 1964:0.069313291 1966:0.058925271 2062:0.040150429 2085:0.045193055 2112:0.033376645 2139:0.052848667 2150:0.03814923 2167:0.0098115359 2174:0.069313291 2199:0.04853725 2215:0.069313291 2284:0.058925271 2382:0.158546 2512:0.0095314014 2547:0.069313291 2559:0.057456862 2607:0.012945142 2756:0.058925271 2787:0.03814923 2797:0.069313291 2817:0.12045128 2822:0.026852645 2855:0.024417014 2887:0.052848667 2891:0.058925271 2895:0.058925271 3036:0.064145252 3111:0.01692652 3173:0.058925271 3186:-0.0036352095 3264:-0.0037500509 3269:0.069313291 3300:0.019919422 3345:0.036384043 3391:0.040150429 3416:0.04246065 3443:0.033376645 3492:0.013658932 3493:0.069313291 3508:0.045193055 3510:0.017848999 3537:0.04246065 3585:0.023685807 3658:0.052848667 3724:0.04853725 3749:0.052848667 3763:0.058925271 3796:0.04853725 3807:0.04853725 3811:0.0018171315 3833:0.069313291 3850:0.058925271 3883:0.069313291 3907:0.069313291 3912:0.04853725 3982:0.019919422 3985:0.034805031 4063:0.04853725 4097:0.058925271 4135:0.032072626 4144:0.040150429 4156:0.040150429 4168:0.069313291 4235:0.058925271 4252:0.052848667 4296:0.032072626 4299:0.069313291 4321:0.040150429 4331:0.069313291 4348:0.052848667 4371:0.069313291 4436:0.021072817 4439:0.01937439 4442:0.10569733 4465:0.020485026 4525:0.030873048 4539:0.069313291 4573:0.069313291 4584:0.052848667 4602:0.052848667 4614:0.0095314014 4635:0.04246065 4649:0.017442219 4662:0.069313291 4700:0.034805031 4747:0.012600604 4827:0.069313291 4832:0.058925271 4844:0.058925271 4965:0.036680824 4974:0.069313291 5010:0.069313291 5039:0.080300858 5049:0.058925271 5064:0.036384043 5072:0.13557916 5108:0.018848486 5119:0.040150429 5137:0.04853725 5155:0.03814923 5177:0.0038294875 5179:0.058925271 5211:0.040150429 5287:0.045193055 5296:0.052848667 5314:0.058925271 5343:0.058925271 5365:0.033376645 5374:0.045193055 5408:0.058925271 5545:0.069313291 5617:0.069313291 5624:0.058925271 5631:0.015608004 5642:0.069313291 5680:0.04853725 5685:0.069313291 5687:0.029762409 5736:0.058925271 5814:0.04853725 5836:0.025996025 5861:0.052848667 6002:0.045193055 6012:0.058925271 6023:0.069313291 6043:0.04246065 6055:0.045193055 6093:0.069313291 6143:0.04853725 6195:0.04246065 6251:0.066753289 6274:0.014797713 6333:0.069313291 6468:0.052848667 6486:0.069313291 6491:0.058925271 6554:0.069313291 6592:0.069313291 6624:0.097074497 6687:0.04853725 6688:0.04246065 6690:0.021684607 6698:0.011934416 6767:0.090386107 6810:0.058925271 6886:0.04246065 6962:0.11785054 7005:0.069313291 7006:0.040150429 7086:0.069313291 7116:0.069313291 7158:0.090386107 7241:0.069313291 7258:0.024417014 7306:0.058925271 7319:0.04246065 7322:0.033376645 7358:0.026852645 7365:0.052848667 7371:-0.045805425 7373:0.021684607 7398:0.069313291 7507:0.027761209 7528:0.058925271 7556:0.0046081946 7567:0.069313291 7603:0.052848667 7605:0.069313291 7620:0.029762409 7649:0.053705286 7664:0.069313291 7713:0.04853725 7795:0.01937439 7835:0.04853725 7837:0.069313291 7843:0.069313291 7848:0.052848667 7858:0.069313291 7954:0.058925271 7976:-0.049003357 8022:0.069313291 8091:0.069610062 8101:0.058925271 8113:0.022988624 8142:0.025185734 8185:0.069313291 8191:0.04853725 8197:0.069313291 8213:0.069313291 8224:0.036384043 8281:0.018340412 8291:-0.10711526 8324:0.069313291 8344:0.032072626 8379:0.069313291 8453:0.034805031 8474:0.069313291 8489:0.069313291 8518:0.025996025 8535:0.058925271 8616:0.010388021 8625:0.11161218 8656:0.069313291 8720:0.069313291 8754:0.069313291 8823:0.069313291 8879:0.033376645 8899:0.058925271 8934:0.024417014 8985:0.052848667 9006:0.025185734 9064:0.04246065 9086:0.086185289 9108:0.04853725 9114:0.03814923 9152:0.026852645 9155:0.069313291 9255:0.069313291 9279:0.036384043 9280:0.047737663 9292:0.069313291 9296:0.0058578138 9338:0.064145252 9358:0.0054648138 9364:0.052848667 9399:0.069313291 9405:0.052848667 9419:0.045193055 9424:0.028728431 9431:0.069313291 9455:0.0058578138 9493:0.069313291 9520:0.069313291 9530:0.069313291 9545:0.052848667 9584:0.158546 9585:0.069313291 9595:0.045193055 9628:0.052848667 9648:0.069313291 9665:0.058925271 9683:0.11785054 9716:0.00075326131 9886:0.090386107 9898:0.069313291 9899:0.027761209 9900:0.058925271 
0.9920125337429143 61:0.011808645 85:0.015849087 105:0.11937589 142:-0.00054025186 194:0.064956894 274:0.064956894 275:0.064956894 288:0.030056835 378:0.065235013 394:0.064956894 413:0.022882385 449:0.032617506 469:0.022197134 567:0.045486644 641:0.064956894 660:0.049527085 697:0.064956894 729:0.011184328 745:0.028484429 752:0.049527085 796:0.055221769 868:0.018924802 1021:0.064956894 1048:0.028932651 1070:0.068194555 1088:0.083675453 1127:0.064956894 1143:0.031278895 1175:0.0045070895 1202:0.037626942 1314:0.015849087 1347:0.015849087 1406:0.064956894 1427:0.064956894 1547:0.064956894 1626:0.080768473 1627:0.064956894 1770:0.027891817 1782:-0.0010805037 1799:0.03733494 1867:0.064956894 1868:0.035751519 1876:0.064956894 1879:0.035751519 1912:0.049527085 1942:0.013867665 1956:0.042352634 1980:0.11044354 2031:0.064956894 2050:0.032617506 2101:0.035751519 2156:0.031714869 2201:0.032617506 2212:0.045486644 2260:0.01866747 2290:0.12511558 2300:0.0054896454 2316:0.17048638 2375:0.049527085 2418:0.064956894 2423:0.011808645 2450:0.048724305 2500:0.0052875582 2512:0.0089323449 2580:0.064956894 2625:0.039791963 2629:0.02360279 2690:0.042352634 2693:0.045486644 2754:0.039791963 2770:0.064956894 2778:0.09905417 2787:0.035751519 2809:0.11044354 2817:0.037626942 2822:0.025164934 2966:0.042352634 3111:0.0052875582 3112:0.027891817 3120:0.11801395 3168:0.025164934 3172:0.055221769 3193:0.1787576 3210:0.032562539 3250:0.064956894 3272:0.057865303 3337:0.055221769 3448:0.090973285 3510:0.016727175 3565:0.055221769 3642:0.016727175 3692:0.064956894 4027:0.055783633 4101:0.031278895 4151:0.02360279 4210:0.017187702 4211:0.026016394 4219:0.09905417 4233:0.11044354 4259:0.064956894 4260:0.14300608 4322:0.042352634 4356:0.042352634 4387:0.049527085 4463:0.055221769 4469:0.06529367 4490:0.11044354 4502:0.075253883 4503:0.026016394 4516:0.064956894 4519:0.055221769 4534:0.055221769 4606:0.042352634 4614:0.01786469 4663:0.022882385 4697:0.055221769 4698:0.020321711 4720:0.11044354 4746:0.042352634 4748:0.064956894 4763:0.064956894 4844:0.055221769 4845:0.23875178 4848:0.049527085 4866:0.042352634 4928:0.064956894 4977:0.025164934 5005:0.055221769 5012:0.032617506 5092:0.022882385 5109:0.039791963 5121:0.11044354 5140:0.064956894 5177:0.0035888011 5305:0.1270579 5342:0.064956894 5423:0.079583926 5439:0.068194555 5462:0.064956894 5498:0.065235013 5536:0.064956894 5551:0.012800456 5563:0.031278895 5606:0.13645994 5649:0.064956894 5691:0.045486644 5700:0.079583926 5709:0.049527085 5731:0.026922825 5877:0.06011367 5905:0.02629452 5912:0.01314726 5936:0.045486644 5963:-0.0010604896 5985:0.034097276 6094:0.019748373 6106:0.01866747 6180:0.064956894 6188:0.055221769 6219:0.09905417 6294:0.035751519 6386:0.11044354 6454:0.064956894 6459:0.045486644 6543:0.034097276 6578:0.039791963 6588:0.032617506 6614:0.055221769 6690:0.020321711 6698:0.011184328 6706:0.3068755 6763:0.064956894 6826:0.039791963 6865:0.09905417 6873:0.0043185658 7060:0.034097276 7172:0.028932651 7188:0.055221769 7210:0.042352634 7220:0.042352634 7244:0.0051213458 7322:0.031278895 7371:-0.042926516 7447:0.084705266 7456:0.1787576 7470:0.055221769 7581:0.02360279 7585:0.022882385 7620:0.027891817 7637:0.049527085 7661:0.064956894 7683:0.10725456 7734:0.055221769 7736:0.084705266 7746:0.064956894 7748:0.035751519 7849:0.018156693 7910:0.028932651 7976:-0.022961727 8008:0.11044354 8081:0.010882277 8179:0.064956894 8187:0.035327686 8279:0.079583926 8291:-0.10038298 8343:0.13645994 8357:0.025164934 8373:0.049527085 8453:0.032617506 8467:0.026797036 8561:0.064956894 8597:0.11937589 8603:0.11044354 8722:0.032617506 8733:0.045486644 8766:-0.029544141 8776:0.049527085 8932:0.034097276 8969:0.055221769 9040:0.022197134 9093:0.037626942 9222:0.026922825 9271:0.032617506 9296:0.0054896454 9327:0.039791963 9366:0.022882385 9383:0.11044354 9483:0.064956894 9657:0.045486644 9676:0.0081729806 9693:-0.00067212899 9716:0.0014118364 9748:0.055221769 9841:0.032617506 9892:0.049527085 
0.9038220719573888 73:0.021904594 142:-0.00090011134 234:0.059565455 238:0.044856006 258:0.066297222 262:0.043345805 276:0.04058968 282:0.050077566 288:0.050077566 355:0.028636357 370:0.070563545 403:0.10822441 468:0.056809327 470:0.066297222 506:0.056809327 511:0.060501581 577:0.082516867 613:0.070563545 726:0.048204568 729:0.018634162 785:0.082516867 873:0.10822441 914:0.04058968 933:0.18400951 938:0.043345805 941:0.050077566 983:0.0068852063 1080:0.054343889 1088:0.046470438 1231:0.010906504 1247:0.050077566 1250:0.046209716 1261:0.15157021 1347:0.052812194 1507:0.04192719 1545:0.017155775 1555:0.12538018 1574:0.037268323 1737:0.046470438 1779:0.082516867 1809:0.10822441 1850:0.12538018 1942:0.023104858 2004:0.039324508 2151:0.16303166 2161:0.10822441 2196:0.16503373 2219:0.035893985 2286:0.092004756 2335:0.052113635 2384:0.043345805 2406:0.075785106 2407:0.10822441 2481:0.092004756 2500:0.0088095784 2534:0.059565455 2607:0.02021229 2819:0.070563545 2822:0.04192719 2865:0.031984916 3111:0.0088095784 3124:0.070563545 3186:-0.0056759444 3243:0.082516867 3258:0.035893985 3343:0.052113635 3492:0.021326786 3602:0.092004756 3627:0.075785106 3772:0.054343889 3806:0.038124244 3811:0.0014186167 3824:0.066297222 4077:0.059565455 4115:0.021326786 4123:0.092004756 4211:0.043345805 4284:0.21169063 4427:0.096409138 4439:0.03025079 4449:0.082516867 4464:0.035893985 4465:0.031984916 4506:0.059565455 4563:0.044856006 4608:0.16503373 4636:0.033857918 4744:0.028905544 4747:0.019674334 4773:0.009146275 4887:0.082516867 5075:0.043345805 5139:0.16503373 5177:0.011958573 5214:0.10822441 5246:0.070563545 5275:0.032902681 5280:0.082516867 5287:0.070563545 5315:0.038124244 5432:0.075785106 5439:0.056809327 5620:0.036982552 5631:0.024370029 5672:0.054343889 5735:0.17042799 5747:0.10822441 5816:0.10822441 5859:0.092004756 5890:0.082516867 5931:0.092004756 6078:0.075785106 6087:0.10822441 6137:0.10822441 6143:0.075785106 6288:0.10822441 6294:0.059565455 6392:0.075785106 6420:0.032902681 6527:0.02405984 6662:0.092004756 6771:0.059565455 6826:0.066297222 6947:0.092004756 7040:0.056809327 7129:0.059565455 7215:0.082516867 7243:0.066297222 7266:0.082516867 7298:0.025029229 7371:-0.017879921 7373:0.033857918 7486:0.092940876 7546:0.10822441 7936:0.10822441 7976:-0.076512875 7981:0.056809327 7982:0.10822441 8171:0.059565455 8274:0.059565455 8291:-0.03344953 8308:0.073965103 8351:0.10822441 8390:0.10822441 8463:0.16503373 8517:0.056809327 8574:0.070563545 8669:0.062690088 8746:0.10822441 8766:-0.049223368 8856:0.054343889 8877:0.10822441 9040:0.036982552 9086:0.089712011 9104:0.070563545 9136:0.026406097 9216:0.10822441 9526:0.062690088 9537:0.059565455 9600:0.070563545 9632:0.18400951 9676:0.013616968 9679:0.062690088 9693:-0.0011198313 9716:0.0011761274 9821:0.062690088 9848:0.075785106 9868:0.023104858 
0.958267880649409 19:0.024431509 40:0.025424853 58:0.024431509 102:0.040257779 120:0.050849706 123:0.030584823 146:0.052799802 217:0.034426072 218:0.043768098 221:0.080515558 309:0.022671688 325:0.019802623 340:0.12077333 365:0.052799802 378:0.026512935 384:0.022671688 400:0.040257779 408:0.047035448 427:0.044886667 475:0.030584823 485:0.068852142 526:0.044886667 551:0.052799802 556:0.040257779 568:0.040257779 602:0.052799802 610:0.017511718 624:0.044886667 630:0.079538801 633:0.061169645 661:0.040257779 719:0.023517724 729:0.036364442 750:0.019185379 752:0.040257779 759:0.044886667 764:0.040257779 779:0.021884049 792:0.027715756 829:0.030584823 868:0.0076914531 904:0.021147262 983:0.0033591086 1007:0.032344647 1009:0.052799802 1012:0.052799802 1074:0.052799802 1081:0.0098610371 1099:0.0072606003 1151:0.009598583 1175:0.0073271193 1181:0.052799802 1192:0.034426072 1208:0.052799802 1232:0.044886667 1260:0.052799802 1264:0.044886667 1281:0.044886667 1290:0.044886667 1314:0.012882831 1382:0.022671688 1418:0.044886667 1422:0.052799802 1438:0.024431509 1473:0.044886667 1504:0.044886667 1513:0.017511718 1557:0.31720894 1564:0.040257779 1574:0.018182221 1580:0.036973532 1599:0.044886667 1608:0.036973532 1616:0.024431509 1643:0.032344647 1687:0.021884049 1690:0.012882831 1716:0.015604588 1776:0.030584823 1829:0.019802623 1858:0.052799802 1905:0.044886667 1911:0.052799802 1918:0.034426072 1933:-0.046599908 1974:0.025424853 2060:0.12077333 2082:0.044886667 2093:0.052799802 2099:0.034426072 2102:0.036973532 2115:0.044886667 2117:0.052799802 2164:0.034426072 2199:0.036973532 2216:0.036973532 2264:0.025424853 2270:0.059407868 2273:0.044886667 2288:0.052799802 2386:0.052799802 2423:0.009598583 2425:0.052799802 2450:0.019802623 2489:0.1109206 2500:0.0085959166 2516:-0.013803645 2570:0.052799802 2589:0.040257779 2607:0.0098610371 2629:0.019185379 2687:0.029060397 2728:0.080515558 2731:0.0090911106 2791:0.052799802 2812:0.019185379 2830:0.0081392062 2833:0.052799802 2837:0.036973532 2855:0.018599802 2863:0.052799802 2865:0.031209175 2877:0.052799802 2909:0.027715756 2940:0.052799802 3001:0.052799802 3051:0.016518375 3111:0.017191833 3118:0.019185379 3124:0.034426072 3129:0.052799802 3151:0.022671688 3152:0.052799802 3186:-0.011076567 3210:0.013234127 3214:0.044886667 3233:0.026512935 3235:0.052799802 3236:0.052799802 3264:-0.0057132461 3290:0.036973532 3305:0.034426072 3345:0.027715756 3348:0.044886667 3371:0.052799802 3407:0.036973532 3459:0.026512935 3465:0.052799802 3483:0.052799802 3492:0.01040477 3510:0.013596579 3539:0.052799802 3552:0.052799802 3573:0.044886667 3576:0.0047980198 3640:0.044886667 3649:0.052799802 3717:0.040257779 3801:0.036973532 3811:0.0027684209 3815:0.045343375 3849:0.052799802 3884:0.052799802 3890:0.044886667 3946:0.040257779 3982:0.030347471 3986:0.044886667 3988:0.036973532 3994:0.044886667 4090:0.16172322 4093:0.044886667 4100:0.052799802 4115:0.01040477 4133:0.026512935 4136:0.036973532 4155:0.023517724 4193:0.032344647 4208:0.023517724 4210:0.013970915 4242:0.052799802 4288:0.013234127 4293:0.016052341 4307:0.052799802 4356:0.034426072 4394:0.044886667 4397:0.052799802 4402:0.052799802 4412:0.040257779 4436:0.016052341 4444:0.036973532 4488:0.027715756 4566:0.040257779 4600:0.036973532 4603:0.089773335 4607:0.044886667 4610:0.044886667 4615:0.044886667 4618:0.0072606003 4629:0.0083698451 4636:0.016518375 4649:0.0066433558 4665:0.052799802 4698:0.033036751 4715:0.052799802 4716:0.024431509 4744:0.0070511222 4754:0.052799802 4767:0.044886667 4768:0.021884049 4773:0.0044622237 4794:0.1109206 4840:0.052799802 4866:0.034426072 4907:0.044886667 4927:0.036973532 4965:0.013970915 4973:0.027715756 4975:0.040257779 4997:0.019802623 5006:0.044886667 5012:0.026512935 5020:0.034426072 5040:0.0081392062 5058:0.034426072 5061:0.14789412 5108:0.028715887 5141:0.052799802 5199:0.12077333 5201:0.040257779 5259:0.064689293 5267:0.040257779 5297:0.044886667 5344:0.052799802 5381:0.036973532 5383:0.036973532 5423:0.064689293 5507:0.089773335 5508:0.052799802 5511:0.044886667 5520:0.040257779 5557:0.044886667 5571:0.032344647 5595:0.030584823 5610:0.034426072 5659:0.024431509 5695:0.023517724 5705:0.026512935 5731:0.021884049 5734:0.052799802 5740:0.010129667 5775:0.040257779 5817:0.044886667 5836:0.039605244 5842:0.047035448 5860:0.040257779 5888:0.018042801 5935:0.026468255 5999:0.032344647 6024:0.025424853 6047:0.026512935 6101:0.036973532 6106:0.030347471 6111:0.052799802 6121:0.12077333 6128:0.0047980198 6131:0.023517724 6140:0.052799802 6145:0.052799802 6152:0.052799802 6169:0.036973532 6272:0.044886667 6274:0.011272244 6286:0.068852142 6299:0.052799802 6380:0.025424853 6387:0.073947062 6419:0.052799802 6432:0.040257779 6490:0.044886667 6499:0.032344647 6503:0.040257779 6574:0.052799802 6620:0.21210348 6664:0.036085601 6665:0.052799802 6670:0.022671688 6698:0.018182221 6718:0.036973532 6751:0.052799802 6757:0.032344647 6771:0.029060397 6814:0.044886667 6816:0.011272244 6873:0.0070206381 6881:0.052799802 6883:0.025424853 6897:0.044886667 6901:0.044886667 6931:0.040257779 6938:0.018599802 6996:0.032344647 7008:0.034426072 7029:0.036973532 7072:0.12077333 7169:0.052799802 7250:0.023517724 7279:0.050849706 7289:0.025424853 7293:0.044886667 7298:0.012211094 7300:0.036973532 7371:-0.034892548 7407:0.040257779 7414:0.044886667 7417:0.029060397 7427:0.036973532 7431:0.019722074 7497:0.036973532 7520:0.052799802 7534:0.036973532 7537:0.052799802 7607:0.012542022 7627:0.029060397 7684:0.052799802 7685:0.11335845 7691:0.040257779 7722:0.032344647 7748:0.029060397 7783:0.040257779 7796:0.021147262 7812:0.042294525 7865:0.052799802 7976:-0.027996444 8047:0.052799802 8048:0.036973532 8061:0.044886667 8081:0.017691181 8127:0.029060397 8149:0.01040477 8173:0.026512935 8246:0.09703394 8248:0.061365472 8262:0.030584823 8284:0.12077333 8291:-0.11423394 8292:0.032344647 8295:0.044886667 8309:0.052799802 8355:0.052799802 8433:0.021147262 8457:0.021884049 8466:0.018042801 8467:0.0072606003 8514:0.052799802 8589:0.044886667 8616:0.039565677 8631:0.034426072 8633:0.023517724 8636:0.044886667 8660:0.052799802 8717:0.10573631 8763:0.022671688 8766:-0.024014769 8769:0.044886667 8774:0.009598583 8812:0.025424853 8830:0.052799802 8842:0.052799802 8862:0.044886667 8911:0.052799802 8919:0.073947062 8927:0.044886667 8934:0.05579941 8960:0.044886667 8973:0.034426072 8989:0.044886667 9006:0.019185379 9041:0.040257779 9061:0.030584823 9075:0.040257779 9109:0.026512935 9122:0.052799802 9147:0.030584823 9205:0.17213036 9220:0.052799802 9293:0.014357943 9339:0.021884049 9351:0.018599802 9358:0.0041628537 9365:0.034426072 9388:0.052799802 9462:0.028715887 9471:0.036973532 9484:0.032344647 9511:0.019802623 9538:0.027715756 9543:0.052799802 9546:0.052799802 9571:0.027715756 9581:0.052799802 9588:0.025424853 9597:0.044886667 9625:0.036973532 9639:0.016052341 9670:0.044886667 9676:0.013286712 9693:-0.0010926716 9722:0.044886667 9727:0.019802623 9743:0.025424853 9802:0.030584823 9821:0.030584823 9841:0.026512935 9895:0.025424853 9901:0.068852142 
1.019983377595717 5:0.0066788651 8:0.056341368 48:0.043211317 71:0.050531227 73:0.013413815 154:0.029519249 234:0.072952737 259:0.038389813 266:0.036476367 370:0.043211317 406:0.050531227 443:0.026543866 473:0.030666225 578:0.25675142 597:0.066273869 606:0.066273869 639:0.066273869 744:0.086422631 745:0.01453097 750:0.024081327 786:0.056341368 813:0.066273869 832:0.046408868 874:0.038389813 929:0.066273869 962:0.046408868 1059:0.066273869 1081:0.012377491 1099:0.0091134447 1117:0.038389813 1175:0.0091969386 1179:0.066273869 1206:0.15159368 1217:0.043961123 1258:0.088557747 1322:0.034788584 1329:0.081197459 1332:0.066273869 1381:0.036476367 1474:0.0083386845 1483:0.066273869 1488:0.034132623 1551:0.046408868 1567:0.056341368 1572:0.066273869 1574:0.011411086 1616:0.061332451 1667:0.015742641 1690:0.016170421 1719:0.081197459 1735:0.040598729 1737:0.028457312 1760:0.028457312 1794:0.034788584 1896:0.020148763 1933:-0.029245907 1942:0.028297652 1965:0.066273869 2126:0.050531227 2149:0.018524813 2152:0.091998673 2156:0.0080894686 2167:0.01876259 2249:0.050531227 2264:0.031913062 2387:0.066273869 2477:0.056341368 2490:0.056341368 2500:0.0053947614 2512:0.018226889 2516:-0.0043315549 2574:0.050531227 2577:0.056341368 2581:0.066273869 2597:0.046408868 2659:0.038389813 2691:0.066273869 2754:0.040598729 2761:0.066273869 2837:0.046408868 2855:0.023346316 2878:0.024856086 2951:0.066273869 3063:0.050531227 3070:0.076779626 3112:0.028457312 3125:0.026119961 3255:0.22339144 3264:-0.014342438 3287:0.18563546 3295:0.040598729 3308:0.036476367 3315:0.066273869 3336:0.066273869 3352:0.066273869 3356:0.066273869 3364:0.040598729 3474:0.066273869 3593:0.027468675 3597:0.11268274 3659:0.034788584 3671:0.021343587 3739:0.066273869 3747:0.066273869 3800:0.056341368 3811:0.00086872469 3820:0.038389813 3880:0.066273869 3906:0.10106245 3959:0.050531227 3972:0.026543866 3982:0.019045945 3985:0.033278813 3995:0.056341368 3999:0.056341368 4032:0.056341368 4094:0.066273869 4213:0.069577172 4217:0.092817732 4252:0.10106245 4273:0.056341368 4293:0.020148763 4337:0.066273869 4464:0.021980562 4467:0.034788584 4484:0.066273869 4598:0.066273869 4629:0.010505759 4638:0.056341368 4712:0.017536176 4717:0.066273869 4740:0.050531227 4744:0.0088505094 4773:0.0056009458 4814:0.050531227 4817:0.031913062 4854:0.066273869 4879:0.056341368 4985:0.031913062 5011:0.043211317 5040:0.010216263 5058:0.086422631 5177:0.0036615626 5186:0.036476367 5208:0.066273869 5264:0.056341368 5336:0.043211317 5366:0.066273869 5412:0.066273869 5427:0.066273869 5534:0.066273869 5551:0.013059981 5596:0.066273869 5611:0.11268274 5668:0.066273869 5683:0.040598729 5767:0.066273869 5778:0.028457312 5812:0.066273869 5833:0.056341368 5840:0.050531227 5856:0.17284526 5859:0.056341368 5947:0.053087733 5963:-0.0010819907 5996:0.066273869 6008:0.056341368 6021:0.056341368 6068:0.050531227 6106:0.076183785 6128:0.012044868 6181:0.066273869 6190:0.038389813 6195:0.040598729 6223:0.053087733 6363:0.066557626 6429:0.036476367 6456:0.043211317 6494:0.092817732 6495:0.066273869 6502:0.01453097 6510:0.092817732 6580:0.066273869 6649:0.056341368 6670:0.028457312 6759:0.056341368 6807:0.066273869 6816:0.014148826 6824:0.066273869 6872:0.029519249 6873:0.013218369 6915:0.066273869 6931:0.050531227 6986:0.066273869 7006:0.038389813 7074:0.056341368 7096:0.031485281 7121:0.066273869 7156:0.066273869 7172:0.029519249 7184:0.066273869 7199:0.029519249 7354:0.010505759 7371:-0.098542872 7389:0.023346316 7417:0.036476367 7431:0.012377491 7464:0.050531227 7486:0.11382925 7539:0.066557626 7556:0.004406123 7565:0.066273869 7575:0.066273869 7609:0.056341368 7685:0.028457312 7700:0.027468675 7729:0.040598729 7733:0.066273869 7754:0.040598729 7792:0.030666225 8004:0.036476367 8060:0.046408868 8070:0.066273869 8093:0.056341368 8149:0.013059981 8344:0.030666225 8360:0.050531227 8371:0.056341368 8377:0.056914624 8387:0.066273869 8398:0.066273869 8414:0.086422631 8423:0.11268274 8428:0.056341368 8433:0.026543866 8467:0.018226889 8496:0.10106245 8511:0.066273869 8522:0.066273869 8581:0.056341368 8610:0.050531227 8633:0.029519249 8670:0.086422631 8708:0.066273869 8766:-0.060286273 8978:0.050531227 9002:0.043211317 9021:0.066273869 9059:0.066273869 9163:0.056341368 9174:0.066273869 9227:0.025675143 9263:0.050531227 9309:0.17284526 9327:0.040598729 9358:0.0026125895 9365:0.043211317 9394:0.066273869 9511:0.024856086 9639:0.020148763 9656:0.056341368 9671:0.050531227 9708:0.066273869 9716:0.00072023042 9727:0.024856086 9764:0.040598729 9847:0.050531227 9868:0.028297652 9885:0.056341368 9888:0.056341368 9896:0.050531227 9911:0.050531227 9913:0.056341368 9933:0.066273869 
0.6410673998765053 2:0.033085564 36:0.043549421 58:0.02642913 71:0.043549421 106:0.048556786 142:-0.0014251388 145:0.057116932 167:0.031436495 314:0.097113572 321:0.057116932 325:0.021421767 329:0.057116932 338:0.024525418 343:0.033085564 389:0.03724089 390:0.048556786 448:0.015531908 455:0.02642913 469:0.019518055 473:0.02642913 521:0.025440629 549:0.03724089 616:0.057116932 629:0.031436495 668:0.02642913 685:0.057116932 708:0.043549421 729:0.019668875 736:0.03724089 750:0.020754055 812:0.057116932 870:0.057116932 903:0.10496783 904:0.068629052 909:0.057116932 932:0.057116932 935:0.023673379 953:0.048556786 977:0.048556786 1007:0.034989278 1028:0.057116932 1089:0.03724089 1097:0.048556786 1099:0.0078542569 1121:0.057116932 1155:0.03724089 1172:0.02642913 1183:0.039996641 1231:0.0057560587 1281:0.048556786 1282:0.057116932 1341:0.057116932 1375:0.24340421 1391:0.03724089 1423:0.057116932 1446:0.087098842 1474:0.007186544 1494:0.048556786 1514:0.057116932 1597:0.048556786 1600:0.043549421 1604:0.048556786 1653:0.14896355 1654:0.043549421 1667:0.027135018 1690:0.027872368 1695:0.057116932 1707:0.031436495 1716:0.016880483 1760:0.049050836 1776:0.033085564 1794:0.089945736 1801:0.057116932 1878:0.057116932 1907:0.048556786 1933:-0.025205054 1960:0.079993278 1987:0.057116932 1993:0.048556786 1996:0.074481776 2016:0.039996641 2051:0.057116932 2065:0.033085564 2066:0.023673379 2077:0.028680741 2088:0.057116932 2157:0.043549421 2163:0.057116932 2167:0.008085099 2196:0.043549421 2200:0.057116932 2264:0.082511081 2300:0.0048270735 2329:0.017364846 2371:0.057116932 2422:0.048556786 2423:0.010383403 2434:0.03724089 2472:0.057116932 2474:0.057116932 2497:0.043549421 2500:0.0046493772 2516:-0.003733072 2535:0.057116932 2560:0.097113572 2585:0.057116932 2591:0.028680741 2609:0.034989278 2619:0.074481776 2621:0.03724089 2629:0.020754055 2635:0.019518055 2642:0.043549421 2650:0.03724089 2651:0.048556786 2698:0.048556786 2744:0.057116932 2755:0.079993278 2789:0.057116932 2815:0.043549421 2822:0.022127656 2830:0.017609402 2831:0.057116932 2841:0.048556786 2883:0.057116932 2894:0.025440629 2908:0.039996641 2925:0.033085564 2981:0.03724089 3078:0.048556786 3084:0.057116932 3112:0.024525418 3121:0.043549421 3125:0.011255507 3156:0.033085564 3186:-0.0089866755 3205:0.048556786 3212:0.043549421 3219:0.048556786 3251:0.057116932 3258:0.037887096 3264:-0.0030901923 3280:0.060361799 3295:0.034989278 3347:0.048556786 3446:0.039996641 3514:0.057116932 3518:0.034989278 3548:0.048556786 3577:0.048556786 3583:0.057116932 3671:0.018394583 3684:0.11172267 3782:0.057116932 3794:0.049050836 3801:0.039996641 3811:0.0022460839 3840:0.044255309 3902:0.057116932 3904:0.03724089 3924:0.039996641 3939:0.03724089 3964:0.057116932 3982:0.032828805 3994:0.048556786 4080:0.05088126 4106:0.057116932 4113:0.039996641 4173:0.057116932 4185:0.057116932 4210:0.015113235 4241:0.057116932 4261:0.02642913 4283:0.048556786 4288:0.014316204 4311:0.057116932 4367:0.057116932 4384:0.057116932 4403:0.031436495 4407:0.057116932 4436:0.017364846 4448:0.057116932 4473:0.033085564 4493:0.057116932 4503:0.02287635 4513:0.069978556 4563:0.023673379 4577:0.039996641 4591:0.057116932 4639:0.03724089 4649:0.021559632 4655:0.057116932 4663:0.060361799 4721:0.048556786 4747:0.010383403 4750:0.031436495 4775:0.057116932 4776:0.048556786 4786:0.048556786 4797:0.057116932 4841:0.048556786 4842:0.048556786 4933:0.18620445 4965:0.03022647 4991:0.048556786 4999:0.048556786 5023:0.048556786 5064:0.02998191 5130:0.020120599 5143:0.048556786 5181:0.057116932 5250:0.057116932 5267:0.043549421 5275:0.017364846 5276:0.057116932 5304:0.048556786 5325:0.048556786 5340:0.057116932 5375:0.031436495 5381:0.039996641 5425:0.057116932 5439:0.02998191 5447:0.097113572 5488:0.057116932 5551:0.011255507 5568:0.048556786 5577:0.057116932 5579:0.039996641 5722:0.018394583 5740:0.01095791 5778:0.024525418 5824:0.027503694 5868:0.013251897 5888:0.039036109 5935:0.028632408 5963:-0.00093249401 6031:0.043549421 6096:0.097113572 6144:0.03724089 6147:0.057116932 6166:0.057116932 6177:0.048556786 6270:0.048556786 6291:0.048556786 6300:0.039996641 6420:0.034729693 6428:0.068629052 6490:0.048556786 6500:0.043549421 6504:0.043549421 6527:0.0063489572 6564:0.057116932 6672:0.02998191 6713:0.043549421 6719:0.048556786 6737:0.087098842 6745:0.035737972 6771:0.031436495 6786:0.031436495 6822:0.048556786 6831:0.097113572 6844:0.048556786 6857:0.022127656 6868:0.097113572 6873:0.0037973372 6912:0.0095688424 6938:0.020120599 6967:0.027503694 6982:0.043549421 7023:0.021421767 7045:0.057116932 7060:0.059963823 7100:0.033085564 7132:0.048556786 7165:0.057116932 7191:0.057116932 7199:0.076321888 7242:0.034989278 7244:0.0090064514 7295:0.020754055 7348:0.039996641 7354:0.018108396 7361:0.033085564 7371:-0.0094363764 7375:0.039996641 7380:0.02998191 7437:0.018394583 7471:0.048556786 7479:0.025440629 7481:0.087098842 7498:0.057116932 7506:0.043549421 7563:0.02287635 7593:0.048556786 7595:0.057116932 7607:0.01356751 7621:0.062872993 7622:0.048556786 7625:0.17494638 7650:0.048556786 7671:0.03724089 7740:0.057116932 7756:0.03724089 7776:0.057116932 7796:0.02287635 7803:0.057116932 7819:0.039996641 7824:0.043549421 7827:0.057116932 7831:0.014708291 7839:0.057116932 7869:0.057116932 7921:0.057116932 7993:0.057116932 8031:0.048556786 8049:0.033085564 8051:0.039996641 8066:0.048556786 8074:0.019518055 8111:0.057116932 8126:0.033085564 8150:0.048556786 8174:0.057116932 8194:0.02998191 8195:0.057116932 8196:0.048556786 8275:0.039996641 8291:-0.017653454 8302:0.034989278 8306:0.057116932 8308:0.039036109 8314:0.079993278 8329:0.097113572 8335:0.03724089 8352:0.024525418 8370:0.048556786 8403:0.007186544 8428:0.048556786 8459:0.043549421 8487:0.057116932 8499:0.057116932 8506:0.057116932 8525:0.087098842 8610:0.043549421 8616:0.0085601455 8633:0.025440629 8682:0.057116932 8737:0.057116932 8763:0.024525418 8774:0.010383403 8812:0.027503694 8839:0.048556786 8847:0.043549421 8881:0.057116932 8914:0.057116932 8934:0.020120599 8996:0.057116932 9004:0.048556786 9072:0.057116932 9121:0.066171127 9136:0.013936184 9139:0.039996641 9157:0.048556786 9172:0.043549421 9199:0.033085564 9218:0.057116932 9279:0.02998191 9296:0.0048270735 9339:0.023673379 9461:0.097113572 9462:0.015531908 9478:0.048556786 9498:0.057116932 9499:0.027503694 9509:0.057116932 9517:0.043549421 9623:0.022127656 9665:0.048556786 9687:0.039996641 9693:-0.0041370455 9773:0.03724089 9780:0.057116932 9788:0.033085564 9828:0.057116932 9863:0.057116932 9868:0.012193909 9897:0.03724089 9938:0.048556786 
1.012624389871009 2:0.040117213 5:0.0069793894 58:0.032046093 61:0.025180359 85:0.01689803 98:0.042425523 129:0.21812367 142:-0.0011520149 200:0.056498674 243:0.069255949 271:0.058876522 295:0.019902943 434:0.014017387 562:0.052804946 587:0.058876522 681:0.028704664 690:0.069255949 729:0.023849085 790:0.050329796 915:0.069255949 935:0.028704664 937:0.096994188 938:0.027738243 983:0.013218132 1048:0.030847507 1085:0.048497096 1099:0.0095235161 1151:0.025180359 1175:0.024026916 1197:0.058876522 1209:0.052804946 1227:0.069255949 1231:0.013958779 1272:0.048497096 1285:0.034776237 1286:0.066698065 1314:0.01689803 1347:0.01689803 1381:0.038117669 1503:0.023666212 1593:0.052804946 1608:0.048497096 1621:0.030847507 1667:0.016451002 1690:0.03379606 1716:0.020468079 1737:0.029737786 1740:0.052804946 1782:-0.00057600746 1798:0.058876522 1799:0.019902943 1873:0.069255949 1887:0.052804946 1896:0.021055383 1933:-0.030561865 1942:0.029570943 1948:0.069255949 2002:0.033349032 2011:0.069255949 2028:0.02230397 2170:0.069255949 2195:0.045155667 2221:0.042425523 2329:0.021055383 2354:0.033349032 2384:0.027738243 2423:0.012590179 2466:0.069255949 2500:0.0056375057 2512:0.0095235161 2516:-0.0090529174 2564:0.040117213 2571:0.069255949 2607:0.012934433 2611:0.069255949 2631:0.072707888 2658:0.069255949 2697:0.033349032 2779:0.036353942 2807:0.069255949 2830:0.021351914 2847:0.045155667 2855:0.024396814 2867:0.042425523 2890:0.040117213 2894:0.030847507 3057:0.069255949 3077:0.034717632 3111:0.0056375057 3120:0.050329796 3121:0.052804946 3125:0.013647632 3133:0.023849085 3164:0.033349032 3186:-0.0072644042 3191:0.036353942 3197:0.19398838 3210:0.017358816 3221:0.048497096 3234:0.069552474 3264:-0.011240846 3271:0.045155667 3278:0.058876522 3280:0.14638089 3300:0.039805885 3363:0.069255949 3435:0.045155667 3442:0.066698065 3567:0.036353942 3575:0.22432265 3576:0.0062934215 3671:0.02230397 3689:0.042425523 3815:0.029737786 3891:0.058876522 3931:0.11775304 3986:0.058876522 4080:0.061695014 4081:0.045155667 4244:0.069255949 4297:0.069255949 4308:0.22577834 4455:0.045155667 4462:0.033349032 4478:0.028704664 4499:0.058876522 4503:0.027738243 4561:0.042425523 4618:0.019047032 4713:0.058876522 4744:0.0092487497 4747:0.037770538 4773:0.011705935 4891:0.24070327 4958:0.042425523 5105:0.090311331 5131:0.01518481 5230:0.048497096 5239:0.048497096 5371:0.058876522 5424:0.058876522 5451:0.025974518 5498:0.034776237 5516:0.048497096 5551:0.040942895 5578:0.052804946 5615:0.015595091 5626:0.052804946 5627:0.069255949 5631:0.015595091 5639:0.069255949 5641:0.058876522 5679:0.069255949 5687:0.029737786 5712:0.058876522 5763:0.052804946 5766:0.058876522 5806:0.069255949 5828:0.040117213 5841:0.048497096 5842:0.030847507 5868:0.0080341561 5912:0.042052162 5935:0.052076452 5947:0.027738243 5963:-0.0033920289 5985:0.036353942 6000:0.069255949 6004:0.025164898 6067:0.034776237 6094:0.042110768 6128:0.012586843 6155:0.069255949 6187:0.069255949 6194:0.040117213 6280:0.034776237 6291:0.058876522 6301:0.045155667 6347:0.052804946 6353:0.058876522 6423:0.038117669 6428:0.027738243 6507:0.15841483 6536:0.036353942 6585:0.069255949 6588:0.034776237 6663:0.042425523 6690:0.021666667 6698:0.023849085 6733:0.048497096 6890:0.12818437 6912:0.011602501 6955:0.048497096 6980:0.042425523 6982:0.052804946 6997:0.048497096 7001:0.069255949 7023:0.025974518 7030:0.069255949 7080:0.058876522 7096:0.016451002 7100:0.040117213 7114:0.058876522 7196:0.11775304 7210:0.045155667 7227:0.052804946 7248:0.11775304 7282:0.022969606 7291:0.048497096 7354:0.01097848 7371:-0.022883765 7385:0.027738243 7389:0.024396814 7418:0.048497096 7446:0.064092185 7447:0.045155667 7547:0.033349032 7607:0.098706012 7643:0.069255949 7649:0.053660856 7736:0.045155667 7787:0.048497096 7831:0.017834233 7911:0.028704664 7929:0.036353942 7939:0.058876522 7963:0.028704664 7971:0.028704664 7976:-0.073444227 7988:0.069255949 8016:0.02683043 8060:0.048497096 8081:0.011602501 8151:0.15247068 8194:0.036353942 8281:0.018325239 8291:-0.23545861 8333:0.038117669 8378:0.069255949 8403:0.026141684 8449:0.052804946 8453:0.034776237 8457:0.028704664 8466:0.047332423 8498:0.069255949 8616:0.010379427 8722:0.034776237 8766:-0.031499466 8774:0.025180359 8858:0.069255949 8932:0.036353942 8934:0.024396814 8982:0.048497096 9037:0.069255949 9046:0.023666212 9073:0.022969606 9223:0.048497096 9235:0.11775304 9237:0.018832893 9296:0.0058529677 9351:0.024396814 9358:0.0027301464 9372:0.032046093 9380:0.069255949 9424:0.028704664 9439:0.033349032 9675:0.029737786 9676:0.026141684 9693:-0.0014332253 9700:0.069255949 9716:0.00075263814 9718:0.069255949 9802:0.040117213 9846:0.069255949 9899:0.027738243 9915:0.16046885 9916:0.040117213 
0.9468852822924192 5:0.0067988324 19:0.031217059 61:0.024528942 85:0.016460878 142:-0.00056110612 277:0.026136326 325:0.025302557 355:0.017851164 369:0.067464295 370:0.043987489 377:0.067464295 405:0.067464295 490:0.067464295 521:0.030049481 537:0.067464295 582:0.067464295 620:0.035413465 675:0.067464295 676:0.057353385 681:0.027962073 729:0.011616054 730:0.10287776 746:0.05143888 754:0.067464295 786:0.057353385 868:0.0098276592 900:0.032486292 941:0.031217059 959:0.067464295 983:0.0085841187 1019:0.067464295 1099:0.018554285 1161:0.043987489 1203:0.05143888 1238:0.1953969 1314:0.016460878 1379:0.047242474 1503:0.023053966 1511:0.047242474 1574:0.023232109 1598:0.057353385 1611:0.027962073 1810:0.03771512 1814:0.047242474 1896:0.041021361 1900:0.067464295 1933:-0.059542458 1969:0.057353385 2077:0.06775315 2189:0.031217059 2193:0.037131564 2209:0.047242474 2300:0.0057015513 2336:0.032486292 2339:0.047242474 2351:0.047242474 2406:0.047242474 2416:0.067464295 2460:0.047242474 2482:0.041327973 2494:0.18896989 2500:0.010983326 2632:0.067464295 2639:0.043987489 2736:0.043987489 2768:0.067464295 2865:0.019938569 2943:0.057353385 2973:0.067464295 3004:0.067464295 3044:0.047242474 3120:0.024513881 3133:0.011616054 3145:0.067464295 3186:-0.0035382369 3238:0.024513881 3243:0.05143888 3295:0.041327973 3300:0.019388053 3338:0.067464295 3389:0.033876575 3492:0.039883701 3511:0.05143888 3569:0.21993744 3592:0.067464295 3636:0.067464295 3642:0.01737286 3659:0.035413465 3663:0.041327973 3710:0.067464295 3732:0.028968469 3757:0.067464295 3807:0.047242474 3808:0.047242474 3885:0.043987489 4022:0.094484945 4114:0.041327973 4128:0.067464295 4129:0.027962073 4148:0.067464295 4209:0.041327973 4261:0.031217059 4275:0.05143888 4334:0.028968469 4359:0.024513881 4439:0.01885756 4453:0.041327973 4480:0.043987489 4496:0.10287776 4582:0.025302557 4590:0.067464295 4666:0.047242474 4689:0.057353385 4691:0.067464295 4712:0.017851164 4744:0.0090094843 4747:0.012264471 4755:0.027962073 4762:0.041327973 4768:0.027962073 4818:0.067464295 4828:0.05143888 4855:0.067464295 4927:0.047242474 4968:0.057353385 5030:0.067464295 5098:0.15431664 5131:0.014791979 5145:0.025302557 5174:0.05143888 5177:0.0037273324 5182:0.21993744 5246:0.043987489 5288:0.041327973 5347:0.041327973 5360:0.057353385 5376:0.067464295 5393:0.067464295 5413:0.067464295 5414:0.057353385 5415:0.067464295 5439:0.035413465 5517:0.05143888 5532:0.067464295 5589:0.033876575 5618:0.043987489 5682:0.067464295 5740:0.012943056 5759:0.067464295 5824:0.032486292 5905:0.013654757 5912:0.013654757 5922:0.047242474 5951:0.067464295 5963:-0.0022028513 5968:0.041327973 5993:0.057353385 5999:0.041327973 6082:0.067464295 6106:0.019388053 6115:0.057353385 6120:0.057353385 6128:0.0061306105 6131:0.060098962 6195:0.041327973 6327:0.05143888 6394:0.057353385 6408:0.041327973 6420:0.041021361 6428:0.027020653 6527:0.007499141 6530:0.067464295 6600:0.067464295 6627:0.05143888 6640:0.067464295 6672:0.035413465 6741:0.067464295 6778:0.057353385 6845:0.035413465 6857:0.026136326 6873:0.0044852668 6878:0.067464295 6890:0.031217059 6957:0.057353385 6967:0.032486292 6968:0.11470677 6969:0.057353385 7011:0.15431664 7026:0.067464295 7058:0.067464295 7078:0.057353385 7127:0.062434118 7142:0.067464295 7160:0.05143888 7202:0.041327973 7244:0.0053190349 7273:0.037131564 7281:0.05143888 7289:0.032486292 7295:0.024513881 7334:0.041327973 7345:0.05143888 7371:-0.01114588 7390:0.057353385 7420:0.057353385 7447:0.043987489 7448:0.067464295 7497:0.047242474 7539:0.033876575 7559:0.035413465 7584:0.05143888 7715:0.035413465 7727:0.047242474 7737:0.041327973 7835:0.047242474 7854:0.067464295 7874:0.041327973 7969:0.057353385 7976:-0.011924037 8096:0.1953969 8109:0.067464295 8166:0.067464295 8222:0.067464295 8226:0.047242474 8246:0.041327973 8248:0.026136326 8287:0.057353385 8291:-0.10425786 8367:0.057353385 8394:0.05143888 8457:0.055924147 8570:0.11470677 8601:0.025302557 8616:0.040443642 8625:0.086907862 8716:0.027020653 8743:0.067464295 8749:0.067464295 8766:-0.015342287 8774:0.012264471 8781:0.041327973 8856:0.033876575 8879:0.032486292 8892:0.27355567 8966:0.057353385 9046:0.023053966 9048:0.039079379 9094:0.087974974 9139:0.047242474 9160:0.067464295 9199:0.078158759 9245:0.067464295 9250:0.057353385 9251:0.067464295 9280:0.011616054 9293:0.018345685 9346:0.028968469 9351:0.023765668 9358:0.0026595174 9379:0.067464295 9440:0.067464295 9455:0.0057015513 9462:0.018345685 9473:0.05143888 9503:0.041327973 9518:0.05143888 9524:0.027962073 9556:0.047242474 9693:-0.00069807385 9713:0.028968469 9866:0.067464295 9895:0.032486292 9910:0.067464295 9929:0.057353385 
0.9150322937785783 
1.069762107039154 2:0.042163491 42:0.093766556 120:0.035050082 123:0.042163491 126:0.040061955 142:-0.00060538814 165:0.07278852 265:0.061879665 290:0.12649047 347:0.07278852 355:0.019259963 428:0.07278852 441:0.05097081 511:0.020345782 538:0.07278852 578:0.028198982 598:0.07278852 607:0.055498392 610:0.024141227 681:0.030168816 706:0.07278852 719:0.064841921 729:0.012532783 747:0.042163491 750:0.026448496 768:0.042163491 800:0.07278852 836:0.055498392 947:0.044589541 962:0.05097081 988:0.055498392 1035:0.07278852 1048:0.03242096 1066:0.044589541 1094:0.07278852 1146:0.14237683 1193:0.07278852 1229:0.031254636 1231:0.0073353904 1313:0.061879665 1410:0.094917884 1411:0.047458944 1484:0.061879665 1552:0.061879665 1576:0.07278852 1667:0.017290126 1675:0.061879665 1679:0.20030978 1748:0.07278852 1758:0.055498392 1782:-0.00060538814 1885:0.28040066 1894:0.20388323 1924:0.061879665 2021:0.044589541 2047:0.07278852 2137:0.026448496 2151:0.036550085 2152:0.23576478 2173:0.031254636 2219:0.024141227 2251:0.042163491 2423:0.013232372 2451:0.07278852 2483:0.07278852 2527:0.07278852 2556:0.047458944 2567:0.07278852 2603:0.055498392 2642:0.055498392 2676:0.070100164 2731:0.012532783 2755:0.05097081 2822:0.028198982 2922:0.061879665 3002:0.05097081 3062:0.055498392 3127:0.07278852 3170:0.07278852 3255:0.035050082 3282:0.07278852 3464:0.032363868 3576:0.006614433 3593:0.15084409 3619:0.07278852 3725:0.07278852 3742:0.07278852 3840:0.056397961 3873:0.044589541 3985:0.036550085 4009:0.07278852 4086:0.061879665 4114:0.044589541 4115:0.014343763 4181:0.11099678 4281:0.05097081 4359:0.026448496 4375:0.061879665 4426:0.061879665 4469:0.012194315 4557:0.07278852 4575:0.061879665 4585:0.05097081 4618:0.010009287 4671:0.033680683 4755:0.030168816 4806:0.07278852 4861:0.07278852 4871:0.026448496 5068:0.055498392 5093:0.05097081 5099:0.07278852 5130:0.025641234 5138:0.07278852 5275:0.022129365 5373:0.05097081 5480:0.05097081 5564:0.061879665 5667:0.07278852 5686:0.038208265 5700:0.044589541 5722:0.023441639 5868:0.0042219791 5985:0.038208265 5997:0.07278852 6019:0.042163491 6024:0.035050082 6075:0.05097081 6097:0.035050082 6314:0.07310017 6316:0.061879665 6338:0.07278852 6356:0.042163491 6363:0.21930051 6588:0.036550085 6646:0.07278852 6687:0.05097081 6779:0.030168816 6857:0.028198982 6858:0.061879665 7020:0.031254636 7096:0.017290126 7100:0.042163491 7104:0.020345782 7205:0.038208265 7354:0.011538464 7371:-0.024051008 7403:0.044589541 7539:0.036550085 7552:0.055498392 7556:0.0048392402 7607:0.017290126 7627:0.040061955 7722:0.044589541 7797:0.05097081 7913:0.07278852 7955:0.07278852 7976:-0.038595215 8036:0.03242096 8129:0.12018587 8144:0.07278852 8199:0.32049565 8237:0.087459304 8291:-0.1124858 8297:0.033680683 8304:0.07278852 8372:0.11099678 8457:0.030168816 8490:0.07278852 8569:0.061879665 8601:0.054598824 8647:0.047458944 8690:0.07278852 8769:0.061879665 8835:0.07278852 8940:0.047458944 8946:0.07278852 8995:0.07278852 9009:0.03242096 9053:0.047458944 9090:0.061879665 9237:0.019793511 9352:0.11099678 9588:0.035050082 9615:0.064841921 9675:0.031254636 9693:-0.00075316523 9716:0.0015820566 9744:0.07278852 9785:0.05097081 9815:0.05097081 9890:0.055498392 9893:0.027299413 9901:0.094917884 9916:0.042163491 
1.038439495898943 3:0.014616128 59:0.058313528 73:0.011802644 85:0.014228146 105:0.035722302 110:0.058313528 113:0.032095088 157:0.032095088 166:0.088923557 259:0.033778704 262:0.023355608 284:0.040834568 355:0.015429856 380:0.044461779 422:0.049574048 435:0.058313528 436:0.058313528 437:0.058313528 443:0.023355608 449:0.029281601 566:0.058313528 681:0.024169335 693:0.044461779 708:0.044461779 714:0.058313528 721:0.033778704 729:0.010040468 739:0.058313528 744:0.038021084 748:0.025973609 758:0.049574048 776:0.044461779 779:0.024169335 805:0.044461779 815:0.040834568 821:0.058313528 832:0.040834568 936:0.023355608 995:0.049574048 1002:0.033778704 1006:0.058313528 1032:0.040834568 1043:0.024169335 1099:0.0080188032 1106:0.044461779 1151:0.010600934 1183:0.040834568 1217:0.019340414 1229:0.025039224 1279:0.049574048 1343:0.026982819 1360:0.044461779 1378:0.044461779 1379:0.040834568 1382:0.025039224 1393:0.049574048 1447:0.025039224 1474:0.0073371017 1488:0.015016429 1495:0.044461779 1498:0.053965637 1554:0.058313528 1555:0.033778704 1574:0.010040468 1602:0.099148096 1619:0.058313528 1621:0.025973609 1624:0.058313528 1683:0.058313528 1694:0.058313528 1727:0.032095088 1736:0.049574048 1742:0.049574048 1746:0.019340414 1769:0.044461779 1770:0.12519614 1799:0.016758283 1855:0.058313528 1856:0.044461779 1859:0.12250371 1872:0.044461779 1888:0.099148096 1933:-0.038599647 1936:0.045182456 1951:0.040834568 1958:0.049574048 2021:0.035722302 2074:0.049574048 2147:0.058313528 2149:0.016299745 2213:0.058313528 2216:0.040834568 2226:0.032095088 2236:0.049574048 2249:0.044461779 2260:0.033516566 2266:0.058313528 2267:0.038021084 2269:0.099148096 2270:0.021870552 2271:0.049574048 2290:0.056159789 2300:0.0098564008 2323:0.058313528 2384:0.023355608 2395:0.099148096 2424:0.01824334 2426:0.044461779 2468:0.049574048 2506:0.049574048 2511:0.035722302 2514:0.040834568 2516:-0.0038112796 2552:0.049574048 2635:0.019926957 2737:0.058313528 2782:0.044461779 2785:0.026982819 2830:0.0089891592 2884:0.058313528 2896:0.044461779 2932:0.049574048 2972:0.058313528 3017:0.049574048 3020:0.058313528 3037:0.099148096 3038:0.049574048 3052:0.058313528 3067:0.049574048 3082:0.049574048 3111:0.014240344 3131:0.058313528 3133:0.010040468 3137:0.049574048 3142:0.058313528 3186:-0.0030583152 3221:0.040834568 3234:0.029281601 3239:0.049574048 3264:-0.0063098634 3344:0.044461779 3362:0.058313528 3380:0.058313528 3419:0.058313528 3435:0.038021084 3453:0.049574048 3455:0.058313528 3459:0.058563203 3512:0.058313528 3546:0.049574048 3608:0.058313528 3628:0.099148096 3641:0.049574048 3650:0.058313528 3793:0.032095088 3794:0.025039224 3800:0.049574048 3811:0.0022931392 3813:0.058313528 3816:0.058313528 3904:0.038021084 3922:0.058313528 3933:0.024169335 3974:0.049574048 3982:0.016758283 4036:0.058313528 4037:0.032095088 4046:0.044461779 4058:0.099148096 4060:0.038680829 4077:0.032095088 4099:0.058313528 4101:0.028079894 4133:0.029281601 4175:0.058313528 4188:0.058313528 4305:0.058313528 4324:0.038021084 4344:0.058313528 4359:0.021188851 4390:0.058313528 4392:0.058313528 4400:0.029281601 4401:0.099148096 4436:0.017728639 4438:0.025039224 4443:0.071444603 4467:0.03061003 4469:0.02930793 4478:0.024169335 4506:0.032095088 4565:0.040834568 4618:0.0080188032 4629:0.009243883 4671:0.026982819 4692:0.032095088 4698:0.01824334 4712:0.015429856 4714:0.058313528 4729:0.058313528 4816:0.049574048 4817:0.11231958 4843:0.040834568 4863:0.044461779 4872:0.049574048 4875:0.044461779 4919:0.049574048 4925:0.03061003 4982:0.049574048 5009:0.025039224 5012:0.029281601 5038:0.058313528 5084:0.040834568 5149:0.058313528 5155:0.032095088 5160:0.058313528 5163:0.058313528 5165:0.038021084 5171:0.044461779 5186:0.032095088 5195:0.049574048 5280:0.044461779 5283:0.12250371 5299:0.058313528 5315:0.020542124 5348:0.015016429 5399:0.035722302 5471:0.058313528 5615:0.013131071 5620:0.019926957 5630:0.058313528 5631:0.013131071 5687:0.025039224 5688:0.099148096 5692:0.058313528 5712:0.049574048 5723:0.049574048 5740:0.011187477 5787:0.049574048 5790:0.018779948 5798:0.049574048 5814:0.040834568 5820:0.049574048 5842:0.025973609 5868:0.010147143 5889:0.040834568 5905:0.023605288 5912:0.011802644 5932:0.044461779 5957:0.058313528 6013:0.040834568 6019:0.033778704 6043:0.035722302 6094:0.035457278 6106:0.033516566 6149:0.049574048 6151:0.023355608 6173:0.038021084 6223:0.023355608 6261:0.035722302 6361:0.058313528 6390:0.035722302 6408:0.035722302 6415:0.058313528 6420:0.035457278 6455:0.11406325 6467:0.040834568 6470:0.058313528 6502:0.012785614 6510:0.040834568 6517:0.040834568 6524:0.058313528 6527:0.0064819675 6566:0.058313528 6603:0.049574048 6611:0.058313528 6627:0.044461779 6634:0.099148096 6664:0.019926957 6668:0.058313528 6678:0.049574048 6682:0.03061003 6779:0.024169335 6819:0.025039224 6889:0.058313528 6904:0.099148096 6959:0.058313528 6963:0.040834568 6969:0.049574048 6997:0.12250371 7002:0.049574048 7006:0.033778704 7010:0.044461779 7015:0.044461779 7041:0.088923557 7053:0.058313528 7115:0.058313528 7123:0.044461779 7125:0.058313528 7126:0.058313528 7152:0.058313528 7154:0.058313528 7164:0.058313528 7185:0.058313528 7199:0.051947219 7244:0.002298784 7257:0.099148096 7277:0.049574048 7287:0.049574048 7295:0.021188851 7298:0.013486262 7319:0.035722302 7363:0.13338533 7371:-0.009634068 7386:0.049574048 7407:0.044461779 7437:0.018779948 7455:0.049574048 7473:0.035722302 7510:0.058313528 7518:0.058313528 7528:0.049574048 7539:0.029281601 7541:0.044461779 7557:0.040834568 7563:0.023355608 7574:0.058313528 7727:0.040834568 7738:0.058313528 7741:0.058313528 7795:0.016299745 7824:0.044461779 7863:0.058313528 7899:0.049574048 7901:0.058313528 7926:0.058313528 7930:0.044461779 7938:0.049574048 7949:0.044461779 8016:0.022591229 8045:0.058313528 8049:0.033778704 8074:0.019926957 8081:0.019538618 8088:0.049574048 8171:0.032095088 8187:0.015857301 8210:0.058313528 8242:0.049574048 8246:0.035722302 8283:0.058313528 8291:-0.018023292 8297:0.026982819 8313:0.058313528 8326:0.058313528 8414:0.038021084 8467:0.0080188032 8553:0.071444603 8597:0.071444603 8604:0.040834568 8618:0.035722302 8646:0.13338533 8648:0.058313528 8672:0.044461779 8679:0.058313528 8766:-0.053045119 8777:0.058313528 8780:0.044461779 8798:0.038021084 8817:0.049574048 8846:0.040834568 8901:0.058313528 8950:0.058313528 8970:0.058313528 9006:0.021188851 9013:0.040834568 9018:0.026982819 9064:0.035722302 9089:0.058313528 9110:0.049574048 9114:0.032095088 9136:0.028456292 9150:0.040834568 9153:0.058313528 9190:0.058313528 9222:0.024169335 9230:0.040834568 9299:0.025039224 9329:0.026982819 9336:0.058313528 9358:0.004597568 9441:0.040834568 9450:0.044461779 9455:0.0049282004 9462:0.031714601 9507:0.040834568 9533:0.058313528 9556:0.040834568 9564:0.044461779 9587:0.025039224 9588:0.028079894 9619:0.058313528 9625:0.040834568 9694:0.044461779 9697:0.040834568 9769:0.03061003 9787:0.038021084 9820:0.061220062 9833:0.049574048 9851:0.049574048 9855:0.040834568 9884:0.058313528 9895:0.028079894 9925:0.032095088 9928:0.040834568 
1.011845868760688 2:0.042346534 16:0.055739327 58:0.0338269 61:0.013289818 162:0.073104516 171:0.055739327 205:0.073104516 264:0.073104516 413:0.02575255 434:0.014796337 527:0.073104516 569:0.042346534 624:0.062148302 683:0.073104516 692:0.047664977 747:0.042346534 750:0.026563316 790:0.053126632 849:0.0338269 914:0.027417927 927:0.073104516 931:0.062148302 964:0.055739327 983:0.0093017771 1082:0.040235876 1117:0.042346534 1151:0.013289818 1172:0.0338269 1200:0.055739327 1247:0.0338269 1250:0.015607103 1301:0.062148302 1314:0.035674114 1380:0.038374138 1391:0.047664977 1403:0.032561709 1438:0.0338269 1465:0.067653801 1510:0.051192089 1553:0.073104516 1606:0.047664977 1666:0.032561709 1668:0.062148302 1690:0.017837057 1716:0.021605494 1737:0.031390321 1754:0.038374138 1782:-0.0006080163 1783:0.051192089 1802:0.028321402 1866:0.073104516 1898:0.089566235 1919:0.040235876 1933:-0.14517088 1989:0.073104516 2004:0.026563316 2024:0.073104516 2107:0.062148302 2112:0.035202245 2149:0.020434109 2201:0.03670876 2206:0.044783117 2234:0.044783117 2336:0.035202245 2349:0.073104516 2391:0.055739327 2423:0.026579636 2424:0.022870688 2482:0.044783117 2500:0.011901566 2516:-0.014333985 2565:0.051192089 2604:0.019343576 2607:0.013653202 2640:0.073104516 2690:0.047664977 2712:0.062148302 2745:0.073104516 2782:0.11147865 2821:0.073104516 2822:0.028321402 2829:0.073104516 2897:0.055739327 2960:0.073104516 3005:0.055739327 3021:0.073104516 3063:0.055739327 3075:0.038374138 3103:0.073104516 3111:0.0059507831 3185:0.073104516 3186:-0.0038340443 3277:0.073104516 3283:0.073104516 3308:0.040235876 3342:0.062148302 3343:0.035202245 3396:0.062148302 3399:0.042346534 3487:0.040235876 3589:0.10238417 3602:0.062148302 3609:0.073104516 3617:0.073104516 3626:0.02575255 3671:0.023543406 3768:0.055739327 3769:0.073104516 3770:0.062148302 3806:0.0515051 3809:0.055739327 3846:0.042346534 3879:0.062148302 3918:0.073104516 3947:0.051192089 4011:0.073104516 4014:0.0338269 4060:0.12123016 4064:0.073104516 4114:0.089566235 4125:0.044783117 4159:0.073104516 4205:0.026563316 4281:0.051192089 4310:0.047664977 4345:0.073104516 4380:0.062148302 4408:0.051192089 4436:0.022225435 4503:0.058559325 4534:0.062148302 4581:0.062148302 4637:0.055739327 4656:0.073104516 4663:0.02575255 4744:0.0097627046 4771:0.0338269 4836:0.073104516 4892:0.073104516 4945:0.0338269 5015:0.062148302 5053:0.062148302 5086:0.044783117 5102:0.073104516 5117:0.062148302 5130:0.02575255 5157:0.038374138 5172:0.073104516 5177:0.0080778975 5260:0.062148302 5275:0.066676309 5300:0.073104516 5317:0.060599576 5467:0.044783117 5551:0.014406033 5566:0.29367008 5597:0.07040449 5615:0.016461714 5659:0.0338269 5735:0.11512242 5737:0.062148302 5778:0.031390321 5788:0.073104516 5790:0.023543406 5905:0.014796337 5931:0.062148302 5942:0.1242966 5947:0.029279662 6032:0.073104516 6034:0.055739327 6037:0.040235876 6060:0.047664977 6094:0.022225435 6101:0.051192089 6151:0.029279662 6210:0.040235876 6293:0.073104516 6408:0.044783117 6423:0.040235876 6451:0.051192089 6476:0.073104516 6480:0.073104516 6502:0.016028633 6514:0.055739327 6745:0.022870688 6819:0.031390321 6912:0.012247254 6913:0.073104516 7008:0.047664977 7020:0.031390321 7095:0.073104516 7096:0.017365187 7194:0.073104516 7206:0.073104516 7244:0.0028818612 7250:0.065123419 7371:-0.036233129 7373:0.045741377 7431:0.027306403 7437:0.047086812 7464:0.055739327 7474:0.073104516 7698:0.031390321 7701:0.040235876 7753:0.073104516 7825:0.073104516 7829:0.042346534 7893:0.051192089 7897:0.044783117 7932:0.07040449 7939:0.062148302 7976:-0.05168369 8000:0.062148302 8011:0.062148302 8052:0.029279662 8062:0.073104516 8074:0.024981348 8075:0.055739327 8086:0.062148302 8102:0.031390321 8105:0.073104516 8188:0.073104516 8291:-0.067784479 8328:0.02575255 8335:0.047664977 8357:0.028321402 8366:0.051192089 8394:0.055739327 8403:0.0091981275 8436:0.11147865 8518:0.027417927 8528:0.051192089 8577:0.047664977 8580:0.073104516 8616:0.010956213 8766:-0.083124747 8776:0.055739327 8859:0.07674828 8878:0.062148302 8937:0.023543406 8944:0.11147865 8954:0.20476835 8956:0.040235876 8977:0.073104516 8989:0.062148302 9013:0.051192089 9060:0.073104516 9114:0.040235876 9188:0.073104516 9191:0.073104516 9208:0.047664977 9259:0.084693069 9274:0.073104516 9279:0.038374138 9280:0.012587192 9296:0.0061782183 9305:0.073104516 9338:0.0338269 9358:0.0028818612 9384:0.044783117 9411:0.038374138 9413:0.055739327 9414:0.051192089 9417:0.047664977 9453:0.080471755 9521:0.051192089 9539:0.1242966 9587:0.031390321 9615:0.032561709 9616:0.062148302 9652:0.073104516 9668:0.062148302 9701:0.055739327 9716:0.0015889248 9741:0.031390321 9892:0.055739327 9917:0.062148302 
1.041159059559317 12:0.22902856 142:-0.0016655278 282:0.046330702 357:0.037552711 375:0.085120849 391:0.061336783 392:0.1102174 497:0.041499825 621:0.02649375 649:0.10012693 719:0.044597844 725:0.1702417 865:0.085120849 911:0.14464329 964:0.076342855 1026:0.10012693 1100:0.065283895 1203:0.076342855 1231:0.010090466 1258:0.044597844 1286:0.04821443 1305:0.085120849 1379:0.070114772 1392:0.10012693 1412:0.10012693 1726:0.05799954 1780:0.10012693 1823:0.15268571 1933:-0.044184877 1974:0.096428859 2156:0.012221614 2193:0.055108696 2373:0.10012693 2424:0.031324627 2564:0.05799954 2731:0.017239931 2773:0.050277814 2819:0.065283895 2958:0.085120849 3077:0.025096543 3186:-0.0052512634 3258:0.066416706 3559:0.070543485 3696:0.10012693 3705:0.076342855 3840:0.038790147 3882:0.10012693 3904:0.065283895 4023:0.10012693 4210:0.02649375 4306:0.05799954 4532:0.10012693 4537:0.10012693 4564:0.10012693 4649:0.01259813 4817:0.04821443 4871:0.036382201 5096:0.055108696 5190:0.10012693 5246:0.065283895 5493:0.061336783 5576:0.052558784 5637:0.10012693 5700:0.061336783 5730:0.10012693 5733:0.076342855 5746:0.10012693 5847:0.076342855 5868:0.0058076986 5912:0.020265666 5963:-0.0032693549 5964:0.1702417 5987:0.10012693 6019:0.05799954 6112:0.065283895 6239:0.10012693 6245:0.10012693 6459:0.070114772 6479:0.10012693 6527:0.011129827 6664:0.034215473 6723:0.10012693 6725:0.061336783 6746:0.10012693 6749:0.089195689 6905:0.092661403 6987:0.1702417 7006:0.05799954 7160:0.076342855 7216:0.085120849 7349:0.070114772 7371:-0.016542124 7403:0.18401035 7431:0.018699982 7466:0.085120849 7507:0.040102619 7538:0.10012693 7657:0.10012693 7723:0.1702417 7730:0.092661403 7812:0.080205238 7849:0.027987389 7961:0.10012693 8004:0.055108696 8036:0.044597844 8054:0.10012693 8081:0.016774339 8153:0.10012693 8201:0.10012693 8211:0.04821443 8226:0.070114772 8250:0.31535273 8291:-0.061893593 8317:0.085120849 8346:0.076342855 8357:0.038790147 8384:0.070114772 8467:0.013768642 8529:0.065283895 8632:0.061336783 8763:0.042993464 8766:-0.022770208 8828:0.076342855 8997:0.052558784 9046:0.034215473 9078:0.10012693 9106:0.070114772 9236:0.055108696 9293:0.027227692 9334:0.085120849 9425:0.10012693 9524:0.041499825 9582:0.061336783 9605:0.085120849 9623:0.038790147 9743:0.04821443 9746:0.070114772 9758:0.10012693 9775:0.04821443 
1.042130255589164 5:0.010177749 68:0.040449509 126:0.055585389 142:-0.00083996737 238:0.041858801 392:0.11117078 412:0.044983618 434:0.020440965 449:0.05071272 604:0.10099303 612:0.070721269 732:0.10099303 790:0.036696909 884:0.085857149 900:0.048631487 911:0.048631487 1015:0.085857149 1081:0.037723474 1284:0.070721269 1285:0.05071272 1573:0.085857149 1580:0.070721269 1595:0.10099303 1690:0.024641685 1754:0.053013421 1758:0.077003225 1816:0.1717143 1868:0.055585389 1933:-0.044567079 1971:0.055585389 2035:0.048631487 2085:0.065848605 2167:0.014295912 2363:0.065848605 2383:0.28288507 2539:0.10099303 2594:0.10099303 2767:0.085857149 2830:0.015568299 2859:0.065848605 3046:0.041858801 3111:0.0082209368 3186:-0.0052966871 3208:0.1717143 3225:0.15400645 3262:0.05071272 3350:0.1717143 3420:0.046731465 3459:0.05071272 3548:0.085857149 3559:0.035576845 3659:0.053013421 3732:0.086730719 3758:0.23100967 3861:0.085857149 3905:0.044983618 3925:0.06186735 3933:0.041858801 3972:0.080899018 3985:0.05071272 4113:0.14144253 4115:0.059705297 4155:0.044983618 4210:0.026722923 4288:0.025313629 4455:0.065848605 4571:0.10099303 4577:0.070721269 4607:0.085857149 4723:0.10099303 5130:0.035576845 5131:0.044286736 5312:0.070721269 5456:0.085857149 5546:0.10099303 5584:0.077003225 5672:0.05071272 5865:0.1717143 5868:0.0058579355 5935:0.050627258 6094:0.030704177 6135:0.048631487 6158:0.2474694 6274:0.021561029 6307:0.077003225 6527:0.011226101 6704:0.10099303 6764:0.10099303 6875:0.10099303 6883:0.048631487 6971:0.085857149 7015:0.077003225 7020:0.043365359 7106:0.085857149 7244:0.011943771 7259:0.077003225 7273:0.11117078 7298:0.023356817 7334:0.06186735 7371:-0.016685214 7446:0.046731465 7461:0.10099303 7501:0.10099303 7614:0.085857149 7683:0.055585389 7685:0.086730719 7705:0.10099303 7729:0.06186735 7759:0.10099303 7796:0.040449509 8016:0.039125684 8127:0.055585389 8380:0.14144253 8403:0.012707105 8448:0.05071272 8455:0.10099303 8554:0.10099303 8601:0.037877544 8617:0.070721269 8712:0.10099303 8766:-0.045934343 8818:0.06186735 8828:0.077003225 8933:0.10099303 8938:0.085857149 8972:0.1717143 9064:0.06186735 9100:0.10099303 9199:0.11700248 9296:0.0085351359 9329:0.046731465 9372:0.046731465 9434:0.10099303 9455:0.0085351359 9471:0.070721269 9583:0.077003225 9693:-0.002090012 9735:0.10099303 9923:0.077003225 
0.9295044754559522 2:0.031935745 5:0.0055560191 29:0.046869298 61:0.030067648 68:0.044162661 91:0.024556494 94:0.035946661 100:0.051021283 103:0.049112989 137:0.046869298 142:-0.0022926851 157:0.030343986 191:0.07189332 204:0.055131953 218:0.022850661 235:0.030343986 253:0.055131953 287:0.0337733 309:0.023673089 356:0.049112989 363:0.086819862 434:0.022317388 443:0.02208133 462:0.020032791 468:0.028939952 524:0.055131953 536:0.055131953 542:0.035946661 554:0.15442656 578:0.021358656 588:0.055131953 668:0.025510641 670:0.055131953 681:0.022850661 731:0.026547861 745:0.012088034 749:0.046869298 753:0.055131953 756:0.055131953 784:0.042035953 790:0.020032791 796:0.046869298 853:0.055131953 868:0.0080311822 914:0.020677299 923:0.046869298 953:0.046869298 970:0.055131953 978:0.046869298 985:0.046869298 996:0.046869298 1002:0.031935745 1048:0.024556494 1082:0.030343986 1143:0.026547861 1151:0.010022549 1175:0.011476133 1202:0.031935745 1231:0.0055560191 1320:0.14378664 1321:0.031935745 1347:0.013451861 1377:0.055131953 1402:0.042035953 1419:0.046869298 1438:0.025510641 1474:0.013873582 1513:0.018285205 1518:0.042035953 1533:0.046869298 1650:0.055131953 1667:0.026191998 1677:0.11581993 1678:0.0337733 1726:0.031935745 1730:0.046869298 1754:0.028939952 1760:0.023673089 1802:0.04271731 1824:0.046869298 1830:0.042035953 1840:0.046869298 1892:0.055131953 1896:0.016761368 1917:0.046869298 1933:-0.036493658 1954:0.051021283 1986:0.055131953 2002:0.026547861 2012:0.035946661 2021:0.0337733 2028:0.017755318 2035:0.053095722 2062:0.031935745 2071:0.057879907 2094:0.025510641 2188:0.046869298 2201:0.027684003 2219:0.03657041 2234:0.0337733 2270:0.020677299 2300:0.0093186375 2409:0.055131953 2424:0.017247987 2432:0.055131953 2454:0.055131953 2511:0.0337733 2516:-0.01081001 2558:0.025510641 2591:0.027684003 2607:0.010296596 2613:0.046869298 2625:0.0337733 2636:0.055131953 2652:0.07101927 2664:0.035946661 2731:0.018985324 2773:0.027684003 2798:0.093738595 2812:0.020032791 2822:0.021358656 2842:0.093738595 2894:0.024556494 2915:0.010864346 2924:0.055131953 2957:0.0337733 2966:0.035946661 2975:0.055131953 2979:0.042035953 3008:0.0337733 3068:0.046869298 3077:0.013818675 3093:0.027684003 3111:0.0044877979 3118:0.020032791 3133:0.0094926622 3137:0.046869298 3184:0.042035953 3186:-0.0057829082 3220:0.027684003 3234:0.055368006 3264:-0.017896795 3291:0.093738595 3294:0.055131953 3297:0.046869298 3298:0.055131953 3299:0.042035953 3384:0.046869298 3421:0.042035953 3437:0.035946661 3462:0.046869298 3464:0.0061283126 3492:0.021728692 3510:0.014197135 3526:0.073669482 3540:0.042035953 3555:0.035946661 3576:0.020039787 3585:0.018839746 3629:0.0337733 3642:0.014197135 3666:0.046869298 3772:0.027684003 3806:0.01942135 3811:0.00072267531 3817:0.23151962 3820:0.031935745 3827:0.055131953 3840:0.021358656 3867:0.042035953 3889:0.046869298 3932:0.055131953 3933:0.022850661 3958:0.042035953 3981:0.031935745 4052:0.014992129 4082:0.055131953 4127:0.046869298 4147:0.093738595 4210:0.014588006 4211:0.02208133 4212:0.046869298 4222:0.042035953 4243:0.023673089 4293:0.016761368 4338:0.046869298 4339:0.055131953 4403:0.030343986 4416:0.038606642 4421:0.055131953 4429:0.030343986 4436:0.016761368 4438:0.023673089 4444:0.038606642 4464:0.018285205 4469:0.0092362975 4488:0.028939952 4511:0.055131953 4613:0.055131953 4629:0.0087395385 4644:0.031935745 4700:0.055368006 4744:0.0073625681 4747:0.020045099 4750:0.030343986 4773:0.0046593188 4788:0.055131953 4849:0.055131953 4899:0.020677299 4977:0.04271731 5007:0.055131953 5009:0.047346178 5027:0.093738595 5040:0.025496137 5075:0.02208133 5090:0.084071906 5108:0.13492916 5130:0.01942135 5133:0.035946661 5177:0.0030459833 5222:0.022850661 5275:0.016761368 5284:0.038606642 5285:0.042035953 5362:0.023673089 5370:0.055131953 5375:0.12137595 5402:0.055131953 5403:0.093738595 5423:0.0337733 5445:0.055131953 5453:0.046869298 5458:0.093738595 5489:0.055131953 5513:0.055368006 5535:0.031935745 5581:0.055131953 5584:0.042035953 5600:0.1013199 5624:0.046869298 5647:0.028939952 5660:0.055131953 5683:0.0337733 5731:0.022850661 5824:0.026547861 5841:0.038606642 5868:0.0063956776 5882:0.07189332 5910:0.055131953 5912:0.022317388 5935:0.02763735 5963:-0.0036003487 6004:0.020032791 6047:0.055368006 6094:0.033522736 6099:0.055131953 6104:0.038606642 6128:0.0050099468 6146:0.046869298 6148:0.11581993 6197:0.055131953 6251:0.026547861 6280:0.027684003 6420:0.016761368 6445:0.027684003 6525:0.046869298 6536:0.057879907 6619:0.055131953 6671:0.046869298 6673:0.027684003 6682:0.028939952 6725:0.0675466 6749:0.024556494 6768:0.055131953 6873:0.0036653687 6886:0.0337733 6905:0.025510641 6912:0.055417791 6941:0.046869298 6949:0.030343986 6950:0.055131953 7022:0.055131953 7025:0.035946661 7036:0.042035953 7038:0.055131953 7098:0.055131953 7104:0.03082087 7127:0.15306385 7138:0.055131953 7282:0.018285205 7295:0.020032791 7354:0.0087395385 7371:-0.0091084351 7373:0.017247987 7380:0.028939952 7400:0.055131953 7404:0.12610786 7416:0.093738595 7441:0.038606642 7497:0.038606642 7533:0.038606642 7555:0.046869298 7556:0.010996106 7620:0.023673089 7649:0.021358656 7652:0.046869298 7671:0.035946661 7698:0.047346178 7720:0.042035953 7722:0.0337733 7743:0.046869298 7760:0.046869298 7769:0.031935745 7772:0.035946661 7777:0.055131953 7831:0.014197135 7849:0.015410435 7875:0.055131953 7877:0.027684003 7892:0.055131953 7918:0.035946661 7937:0.018285205 7976:-0.019488692 7987:0.055131953 8028:0.055131953 8051:0.038606642 8074:0.037679491 8089:0.055131953 8126:0.031935745 8135:0.095807232 8139:0.042035953 8149:0.032593038 8151:0.030343986 8167:0.046869298 8187:0.014992129 8196:0.046869298 8198:0.055131953 8256:0.042035953 8291:-0.11927961 8320:0.035946661 8322:0.01942135 8394:0.042035953 8414:0.035946661 8437:0.055131953 8448:0.055368006 8454:0.055131953 8464:0.025510641 8467:0.0075812988 8483:0.27684003 8527:0.12610786 8600:0.042035953 8601:0.020677299 8625:0.017755318 8638:0.055131953 8675:0.055131953 8688:0.055131953 8766:-0.012537747 8816:0.057879907 8817:0.046869298 8903:0.042035953 8982:0.038606642 8983:0.046869298 9018:0.025510641 9034:0.030343986 9040:0.018839746 9053:0.035946661 9062:0.15171993 9087:0.055131953 9136:0.026903722 9145:0.055131953 9167:0.031935745 9169:0.055131953 9202:0.028939952 9232:0.046869298 9237:0.014992129 9259:0.031935745 9264:0.0337733 9286:0.031935745 9300:0.046869298 9339:0.022850661 9358:0.0021733628 9408:0.055131953 9409:0.046869298 9462:0.014992129 9478:0.046869298 9538:0.057879907 9556:0.038606642 9560:0.031935745 9568:0.038606642 9572:0.046869298 9588:0.026547861 9635:0.035946661 9639:0.033522736 9675:0.023673089 9703:0.025510641 9727:0.020677299 9760:0.046869298 9787:0.035946661 9816:0.028939952 9908:0.018839746 9919:0.055131953 
0.9039759914071499 5:0.008232923 23:0.05004536 43:0.081694666 48:0.053265853 51:0.12864989 53:0.041022225 65:0.069451042 85:0.019933002 142:-0.0006794613 200:0.066646121 222:0.041022225 238:0.033860166 284:0.057207419 287:0.05004536 448:0.022215375 455:0.037801732 475:0.047322467 512:0.037801732 516:0.081694666 668:0.037801732 681:0.033860166 751:0.057207419 806:0.081694666 826:0.069451042 837:0.047322467 868:0.011900626 869:0.081694666 1043:0.20316099 1049:0.016982189 1143:0.039338687 1144:0.081694666 1175:0.0056684542 1202:0.047322467 1203:0.06228898 1231:0.016465846 1250:0.034882033 1277:0.081694666 1352:0.053265853 1447:0.035078843 1512:0.081694666 1543:0.18928987 1545:0.01295027 1586:0.081694666 1611:0.10158049 1666:0.036387874 1757:0.06228898 1782:-0.0020383839 1799:0.023477611 1852:0.081694666 1879:0.044963795 1933:-0.090127323 2050:0.041022225 2108:0.057207419 2149:0.02283522 2156:0.0099717498 2219:0.027095063 2233:0.081694666 2260:0.046955223 2300:0.01380838 2304:0.06228898 2335:0.039338687 2374:0.05004536 2384:0.032720171 2433:0.081694666 2512:0.011233988 2532:0.081694666 2556:0.053265853 2583:0.081694666 2600:0.081694666 2604:0.043233089 2700:0.081694666 2785:0.075603464 2830:0.03778024 2915:0.016098815 2986:0.081694666 3015:0.081694666 3104:0.081694666 3111:0.0066500302 3113:0.057207419 3186:-0.0085691278 3264:-0.0044199193 3386:0.069451042 3425:0.081694666 3431:0.081694666 3467:0.044963795 3487:0.044963795 3585:0.027916783 3610:0.06228898 3615:0.053265853 3626:0.028778605 3781:0.069451042 3811:0.0010708621 3860:0.053265853 4060:0.027095063 4072:0.081694666 4115:0.048296445 4135:0.037801732 4163:0.081694666 4182:0.081694666 4208:0.036387874 4289:0.05004536 4395:0.11441483 4409:0.044963795 4464:0.027095063 4465:0.048288498 4469:0.013686369 4542:0.13890208 4601:0.069451042 4633:0.081694666 4636:0.02555811 4663:0.028778605 4686:0.069451042 4712:0.021616544 4773:0.0069041902 4814:0.06228898 4871:0.02968464 4874:0.053265853 4905:0.057207419 4912:0.06228898 4965:0.021616544 4966:0.057207419 4973:0.042883294 4975:0.06228898 4997:0.030639673 5014:0.069451042 5040:0.012593413 5054:0.081694666 5064:0.042883294 5133:0.053265853 5136:0.081694666 5177:0.0045135457 5198:0.039338687 5235:0.1419674 5268:0.047322467 5272:0.06228898 5275:0.024837036 5310:0.081694666 5372:0.081694666 5468:0.069451042 5598:0.069451042 5631:0.018396048 5681:0.042883294 5687:0.035078843 5778:0.035078843 5834:0.069451042 5868:0.014215697 5912:0.016534981 5917:0.044963795 5963:-0.0013337514 5972:0.081694666 6038:0.039338687 6069:0.069451042 6094:0.049674074 6098:0.057207419 6128:0.014847503 6250:0.042883294 6269:0.057207419 6274:0.1046461 6334:0.081694666 6346:0.047322467 6502:0.017912078 6527:0.009080949 6572:0.05004536 6684:0.057207419 6698:0.014066251 6752:0.081694666 6795:0.030639673 6834:0.06228898 6861:0.081694666 6905:0.037801732 6912:0.013686369 6999:0.28393479 7029:0.057207419 7033:0.047322467 7080:0.069451042 7088:0.081694666 7104:0.02283522 7190:0.081694666 7202:0.05004536 7244:0.0032204944 7275:0.081694666 7298:0.018893654 7354:0.01295027 7365:0.06228898 7371:-0.053987609 7385:0.032720171 7431:0.030515043 7447:0.053265853 7467:0.081694666 7556:0.0054313526 7585:0.05755721 7658:0.081694666 7679:0.081694666 7680:0.05004536 7695:0.037801732 7831:0.021037351 7963:0.033860166 7971:0.033860166 7976:-0.028878392 8102:0.035078843 8127:0.044963795 8149:0.016098815 8235:0.18928987 8241:0.081694666 8291:-0.2272485 8308:0.027916783 8357:0.03164931 8384:0.057207419 8409:0.047322467 8467:0.011233988 8484:0.042883294 8577:0.053265853 8616:0.012243624 8766:-0.055735394 8771:0.06228898 8850:0.069451042 8941:0.081694666 8951:0.081694666 8962:0.069451042 8997:0.042883294 8998:0.053265853 9018:0.037801732 9026:0.053265853 9137:0.081694666 9151:0.06228898 9152:0.03164931 9280:0.014066251 9323:0.069451042 9358:0.0032204944 9455:0.01380838 9463:0.081694666 9516:0.069451042 9576:0.03164931 9629:0.06228898 9715:0.081694666 9792:0.081694666 9816:0.085766591 9830:0.057207419 9841:0.041022225 
1.020170504147928 61:0.016039612 73:0.017857844 102:0.067272342 113:0.048561074 142:-0.0022014626 167:0.048561074 202:0.088230559 212:0.044304163 277:0.034181379 325:0.033090966 338:0.037885287 448:0.023992692 575:0.088230559 613:0.057527329 650:0.088230559 688:0.088230559 734:0.088230559 868:0.012852722 908:0.13454468 936:0.035337912 954:0.15001479 973:0.054049185 983:0.0056132034 1089:0.057527329 1175:0.0061219527 1231:0.008891589 1262:0.075007397 1266:0.20181702 1284:0.061784236 1301:0.075007397 1314:0.064583159 1498:0.040826019 1545:0.013986342 1555:0.051108449 1574:0.015191606 1667:0.04191643 1714:0.054049185 1795:0.088230559 1925:0.039299047 1933:-0.038935146 2005:0.10809837 2018:0.067272342 2035:0.084971871 2050:0.044304163 2090:0.062162011 2112:0.084971871 2145:0.088230559 2167:0.024978681 2173:0.037885287 2208:0.088230559 2280:0.088230559 2300:0.0074565524 2329:0.053648194 2406:0.061784236 2482:0.054049185 2495:0.054049185 2534:0.048561074 2612:0.075007397 2639:0.057527329 2687:0.048561074 2698:0.075007397 2776:0.20181702 2796:0.088230559 2878:0.099272898 3042:0.088608326 3123:0.15001479 3133:0.015191606 3164:0.042485935 3169:0.075007397 3186:-0.0092546916 3198:0.15001479 3210:0.022114751 3264:-0.0047735302 3308:0.097122152 3404:0.057527329 3456:0.088230559 3524:0.15001479 3560:0.057527329 3585:0.030150234 3654:0.088230559 3811:0.0011565352 3842:0.067272342 3872:0.088230559 3926:0.075007397 3939:0.057527329 4065:0.054049185 4133:0.044304163 4210:0.023345952 4278:0.067272342 4481:0.054049185 4544:0.061784236 4567:0.088230559 4597:0.088230559 4744:0.011782704 4773:0.014913105 4802:0.088230559 5044:0.20181702 5131:0.019345115 5164:0.088230559 5317:0.036569112 5436:0.088230559 5451:0.033090966 5512:0.075007397 5615:0.019867804 5631:0.019867804 5868:0.0051176693 5963:-0.0014404567 6072:0.057527329 6094:0.026824096 6190:0.051108449 6261:0.27024591 6380:0.042485935 6407:0.075007397 6581:0.088230559 6644:0.075007397 6685:0.20181702 6727:0.11505465 6796:0.051108449 6939:0.075007397 6949:0.097122152 7024:0.13454468 7200:0.20181702 7298:0.020405221 7317:0.075007397 7577:0.088230559 7585:0.031081006 7795:0.024662127 7831:0.022720421 7976:-0.031188776 8124:0.067272342 8187:0.023992692 8281:0.023345952 8291:-0.10907967 8322:0.031081006 8457:0.036569112 8467:0.024265501 8518:0.033090966 8594:0.057527329 8766:-0.060194443 8843:0.088230559 9046:0.030150234 9227:0.034181379 9265:0.075007397 9280:0.015191606 9366:0.031081006 9417:0.057527329 9423:0.24713693 9424:0.036569112 9433:0.15001479 9524:0.036569112 9547:0.040826019 9603:0.088230559 9676:0.01110131 9806:0.13291248 9843:0.088230559 
0.6263185147680572 61:0.02345664 73:0.026115658 126:0.035508329 142:-0.00053657693 228:0.064515041 238:0.053479379 287:0.039521288 309:0.02770209 325:0.024196436 333:0.054846137 352:0.02673969 370:0.042064541 424:0.090354463 447:0.090354463 462:0.023442238 472:0.064515041 479:0.042064541 610:0.021397224 629:0.035508329 636:0.049190189 729:0.01110825 736:0.042064541 780:0.035508329 790:0.046884476 802:0.064515041 808:0.064515041 849:0.029852381 850:0.064515041 862:0.049190189 874:0.037370994 881:0.064515041 904:0.025839425 917:0.045177233 936:0.025839425 983:0.0082088572 1027:0.054846137 1066:0.039521288 1081:0.012049008 1087:0.054846137 1151:0.01172832 1160:0.042064541 1189:0.054846137 1233:0.045177233 1343:0.029852381 1382:0.05540418 1488:0.016613392 1551:0.045177233 1560:0.02770209 1567:0.054846137 1638:0.064515041 1643:0.039521288 1654:0.049190189 1688:0.28406664 1746:0.021397224 1760:0.02770209 1782:-0.00053657693 1802:0.024993756 1811:0.045177233 1896:0.01961404 1933:-0.071174389 1961:0.049190189 2005:0.039521288 2012:0.042064541 2052:0.049190189 2077:0.032395634 2089:0.064515041 2101:0.035508329 2127:0.064515041 2167:0.009132327 2169:0.045177233 2184:0.035508329 2189:0.029852381 2237:0.064515041 2255:0.064515041 2258:0.064515041 2300:0.0054523035 2324:0.035508329 2388:0.074741988 2390:0.064515041 2419:0.054846137 2423:0.01172832 2500:0.005251591 2516:-0.0042166007 2536:0.054846137 2545:0.045177233 2589:0.049190189 2591:0.032395634 2607:0.012049008 2676:0.031066128 2687:0.071016661 2693:0.045177233 2697:0.031066128 2724:0.042064541 2746:0.064515041 2812:0.023442238 2823:0.054846137 2830:0.0099451362 2857:0.064515041 2867:0.039521288 2873:0.049190189 2909:0.033865338 2981:0.042064541 3027:0.079042577 3046:0.02673969 3077:0.01617052 3111:0.005251591 3125:0.012713385 3155:0.031066128 3186:-0.0033835602 3211:0.14757057 3258:0.042794448 3264:-0.0069809032 3300:0.037080978 3346:0.064515041 3365:0.064515041 3392:0.054846137 3463:0.064515041 3464:0.028685241 3492:0.025426769 3525:0.064515041 3535:0.14757057 3558:0.054846137 3559:0.022726733 3576:0.0058626061 3589:0.045177233 3607:0.064515041 3626:0.022726733 3642:0.016613392 3683:0.26159697 3727:0.064515041 3745:0.049190189 3811:0.0025370095 3815:0.05540418 3834:0.064515041 3835:0.064515041 3905:0.05747169 3947:0.045177233 3979:0.064515041 4052:0.017543689 4115:0.025426769 4125:0.039521288 4156:0.037370994 4210:0.017070787 4219:0.049190189 4268:0.054846137 4288:0.01617052 4293:0.01961404 4359:0.023442238 4374:0.054846137 4436:0.01961404 4462:0.062132257 4464:0.021397224 4469:0.010808253 4543:0.049190189 4562:0.042064541 4585:0.090354463 4635:0.039521288 4645:0.064515041 4649:0.008117386 4663:0.022726733 4667:0.049190189 4712:0.017070787 4744:0.017231255 4751:0.054846137 4773:0.0054523035 4889:0.064515041 4914:0.045177233 4945:0.029852381 4951:0.054846137 4961:0.023442238 4965:0.034141574 4989:0.064515041 5008:0.045177233 5033:0.039521288 5040:0.019890272 5105:0.042064541 5108:0.017543689 5119:0.037370994 5130:0.022726733 5177:0.0071287784 5178:0.045177233 5222:0.02673969 5288:0.039521288 5304:0.054846137 5334:0.033865338 5361:0.067730679 5362:0.02770209 5399:0.039521288 5466:0.064515041 5480:0.045177233 5539:0.10969227 5550:0.064515041 5597:0.031066128 5610:0.042064541 5615:0.014527531 5621:0.064515041 5647:0.033865338 5683:0.079042577 5722:0.041554309 5740:0.024754481 5778:0.02770209 5843:0.045177233 5868:0.014968358 5912:0.013057829 5918:0.064515041 5926:0.054846137 5935:0.048511564 5963:-0.0021065519 5981:0.037370994 6102:0.042064541 6135:0.031066128 6164:0.064515041 6169:0.045177233 6274:0.013773334 6289:0.064515041 6294:0.071016661 6314:0.064791268 6322:0.064515041 6445:0.032395634 6494:0.045177233 6498:0.054846137 6499:0.039521288 6520:0.054846137 6543:0.033865338 6670:0.02770209 6682:0.033865338 6700:0.064515041 6727:0.042064541 6733:0.1355317 6753:0.24931881 6757:0.039521288 6762:0.054846137 6813:0.054846137 6888:0.098380379 6912:0.010808253 6938:0.045453466 6941:0.054846137 6944:0.054846137 7172:0.028735844 7202:0.039521288 7243:0.039521288 7244:0.0050865091 7298:0.014920495 7322:0.031066128 7354:0.010226949 7355:0.064515041 7371:-0.01065863 7437:0.083108617 7459:0.045177233 7556:0.021445949 7584:0.049190189 7613:0.035508329 7680:0.079042577 7700:0.080219066 7736:0.042064541 7785:0.064515041 7816:0.064791268 7864:0.064515041 7894:0.079042577 7914:0.10969227 7971:0.053479379 8037:0.035508329 8074:0.044092288 8081:0.010808253 8126:0.037370994 8137:0.062132257 8238:0.054846137 8253:0.093198385 8291:-0.1994003 8362:0.064515041 8403:0.008117386 8433:0.025839425 8441:0.042064541 8449:0.049190189 8462:0.064515041 8519:0.064515041 8600:0.049190189 8602:0.049190189 8625:0.020777154 8633:0.05747169 8717:0.025839425 8766:-0.014671587 8774:0.01172832 8803:0.10969227 8836:0.025839425 8905:0.064515041 8937:0.020777154 9031:0.037370994 9034:0.035508329 9040:0.044092288 9187:0.054846137 9208:0.08412908 9271:0.097186899 9295:0.054846137 9313:0.049190189 9319:0.064515041 9335:0.054846137 9372:0.029852381 9373:0.049190189 9429:0.054846137 9499:0.031066128 9511:0.024196436 9540:0.049190189 9639:0.01961404 9645:0.064515041 9716:0.00070111639 9752:0.098380379 9764:0.039521288 9872:0.054846137 9897:0.042064541 
0.9485119862591487 28:0.039802107 45:0.082657051 46:0.041505477 85:0.020167818 101:0.082657051 114:0.15190472 119:0.036816533 142:-0.00068746553 171:0.06302276 200:0.044954156 233:0.082657051 325:0.031000616 338:0.035492081 352:0.034259048 357:0.031000616 432:0.070269194 446:0.082657051 511:0.023104225 681:0.034259048 729:0.014231955 731:0.039802107 750:0.030034333 832:0.057881337 941:0.038247046 948:0.070269194 983:0.0052586183 984:0.04549348 1049:0.017182244 1099:0.011366327 1231:0.024989727 1403:0.036816533 1440:0.14053839 1462:0.050634907 1488:0.021285176 1507:0.032022147 1523:0.082657051 1548:0.082657051 1782:-0.001374931 1799:0.023754184 1898:0.050634907 1919:0.04549348 1933:-0.01823781 1991:0.082657051 2002:0.039802107 2021:0.050634907 2062:0.047879937 2065:0.047879937 2066:0.034259048 2101:0.04549348 2102:0.057881337 2149:0.046208451 2156:0.01008922 2210:0.082657051 2260:0.023754184 2267:0.10778667 2329:0.025129623 2391:0.06302276 2401:0.057881337 2414:0.070269194 2423:0.015026393 2486:0.18906828 2498:0.17364401 2558:0.038247046 2574:0.06302276 2625:0.050634907 2629:0.030034333 2693:0.057881337 2830:0.025483533 2865:0.024428674 2878:0.06200123 3042:0.041505477 3077:0.020717766 3210:0.041435532 3264:-0.0089439743 3389:0.041505477 3407:0.057881337 3472:0.082657051 3562:0.082657051 3642:0.021285176 3703:0.057881337 3737:0.070269194 3783:0.082657051 3811:0.0010834771 3982:0.023754184 4014:0.038247046 4029:0.14053839 4053:0.10126981 4115:0.032576926 4121:0.082657051 4146:0.082657051 4210:0.065613581 4333:0.095759875 4429:0.04549348 4438:0.035492081 4464:0.054828499 4465:0.024428674 4475:0.18906828 4535:0.038247046 4618:0.011366327 4631:0.070269194 4871:0.030034333 4891:0.047879937 4961:0.030034333 5021:0.02824565 5031:0.082657051 5059:0.16168001 5106:0.070269194 5198:0.039802107 5275:0.025129623 5362:0.035492081 5450:0.070269194 5461:0.14053839 5480:0.057881337 5493:0.050634907 5498:0.041505477 5551:0.016288463 5592:0.11576267 5722:0.053239625 5790:0.026619812 5905:0.016729767 5966:0.082657051 6060:0.053893338 6078:0.057881337 6097:0.039802107 6106:0.023754184 6119:0.06302276 6128:0.0075112054 6169:0.057881337 6297:0.041505477 6411:0.06302276 6420:0.025129623 6439:0.16168001 6527:0.0091879249 6570:0.04338847 6586:0.04549348 6664:0.02824565 6770:0.082657051 6951:0.10778667 6964:0.070269194 7020:0.035492081 7064:0.041505477 7111:0.057881337 7250:0.036816533 7295:0.030034333 7337:0.14053839 7385:0.033105623 7420:0.070269194 7437:0.026619812 7441:0.17364401 7556:0.0054953353 7566:0.082657051 7585:0.029117624 7706:0.06302276 7734:0.070269194 7743:0.070269194 7831:0.021285176 7836:0.14053839 7849:0.023104225 7916:0.082657051 7976:-0.043827882 8016:0.032022147 8046:0.06302276 8051:0.057881337 8053:0.082657051 8074:0.02824565 8107:0.041505477 8171:0.04549348 8177:0.082657051 8180:0.082657051 8248:0.032022147 8291:-0.10218913 8538:0.082657051 8591:0.070269194 8616:0.012387857 8717:0.066211246 8766:-0.037594648 8774:0.015026393 8879:0.039802107 8985:0.12604552 9040:0.02824565 9051:0.053893338 9073:0.02741425 9136:0.020167818 9202:0.04338847 9256:0.082657051 9271:0.041505477 9281:0.082657051 9286:0.047879937 9346:0.035492081 9386:0.082657051 9438:0.047879937 9541:0.31841685 9560:0.095759875 9597:0.070269194 9639:0.025129623 9673:0.2129525 9693:-0.00085527796 9797:0.070269194 9897:0.053893338 
1.053074342476419 11:0.059110628 27:0.030970163 31:0.0037633775 103:0.030970163 120:0.033481635 229:0.059110628 250:0.059110628 257:0.048689931 277:0.026937113 282:0.032173515 289:0.048689931 296:0.090670428 335:0.11822126 494:0.048689931 511:0.019435334 513:0.069531325 610:0.023060938 666:0.05301491 719:0.030970163 729:0.011971957 750:0.050529918 760:0.069531325 762:0.069531325 842:0.069531325 946:0.045335216 961:0.31423064 983:0.0044235634 1079:0.045335216 1107:0.048689931 1117:0.040276728 1172:0.032173515 1175:0.0096489815 1188:0.042594216 1231:0.007007141 1285:0.034914515 1310:0.069531325 1329:0.042594216 1352:0.045335216 1479:0.042594216 1507:0.053874223 1508:0.059110628 1513:0.023060938 1549:0.040276728 1560:0.02985603 1577:0.059110628 1615:0.069531325 1648:0.069531325 1652:0.069531325 1660:0.05301491 1667:0.016516415 1689:0.069531325 1752:0.069531325 1771:0.069531325 1783:0.048689931 1787:0.059110628 1834:0.048689931 1903:0.042594216 1933:-0.061366772 1934:0.059110628 1942:0.029688523 1954:0.032173515 2021:0.042594216 2028:0.022392655 2113:0.069531325 2292:0.048689931 2310:0.069531325 2378:0.05301491 2423:0.012640241 2430:0.069531325 2450:0.026077799 2457:0.06982903 2512:0.0095613836 2686:0.069531325 2725:0.045335216 2735:0.059110628 2780:0.069531325 2818:0.069531325 2874:0.069531325 2941:0.059110628 3051:0.021752819 3111:0.0056599217 3133:0.011971957 3138:0.069531325 3178:0.059110628 3180:0.069531325 3186:-0.0072932891 3187:0.059110628 3210:0.017427838 3216:0.069531325 3237:0.033481635 3264:-0.0037618472 3370:0.069531325 3434:0.069531325 3537:0.042594216 3538:0.059110628 3559:0.024493821 3563:0.048689931 3626:0.024493821 3633:0.048689931 3726:0.069531325 3791:0.030970163 3811:0.00091142377 3912:0.048689931 3957:0.10602982 3965:0.069531325 3967:0.059110628 3985:0.034914515 3999:0.059110628 4024:0.069531325 4030:0.069531325 4037:0.07653847 4074:0.11822126 4091:0.069531325 4145:0.033481635 4151:0.025264959 4208:0.030970163 4211:0.027848536 4288:0.017427838 4306:0.040276728 4323:0.069531325 4422:0.090670428 4436:0.021139104 4476:0.069531325 4480:0.045335216 4525:0.061940327 4528:0.069531325 4614:0.038245535 4618:0.0095613836 4639:0.045335216 4726:0.069531325 4744:0.0092855247 4764:0.069531325 4769:0.048689931 4773:0.0058762404 4823:0.069531325 4921:0.10602982 4949:0.032173515 5012:0.06982903 5057:0.069531325 5073:0.048689931 5234:0.042594216 5285:0.05301491 5290:0.05301491 5328:0.069531325 5360:0.059110628 5678:0.069531325 5722:0.044785311 5744:0.097379858 5797:0.069531325 5923:0.069531325 5954:0.069531325 5982:0.069531325 6002:0.045335216 6104:0.048689931 6156:0.069531325 6165:0.038269233 6422:0.059110628 6527:0.015457813 6617:0.059110628 6698:0.011971957 6720:0.069531325 6729:0.26788464 6774:0.042594216 6905:0.032173515 6912:0.011648635 6961:0.059110628 6989:0.045335216 7049:0.059110628 7129:0.038269233 7197:0.069531325 7244:0.0027410021 7301:0.059110628 7312:0.059110628 7322:0.033481635 7354:0.022044265 7358:0.080811337 7371:-0.022974756 7385:0.027848536 7417:0.038269233 7431:0.012985863 7442:0.042594216 7507:0.027848536 7539:0.034914515 7563:0.027848536 7569:0.069531325 7609:0.059110628 7630:0.069531325 7687:0.13600564 7701:0.038269233 7718:0.069531325 7792:0.032173515 7849:0.038870669 7944:0.25556529 7950:0.042594216 7976:-0.012289376 8108:0.048689931 8116:0.069531325 8135:0.040276728 8137:0.033481635 8149:0.013701898 8151:0.038269233 8173:0.20948709 8204:0.05301491 8223:0.069531325 8291:-0.064471321 8293:0.040276728 8295:0.059110628 8303:0.042594216 8308:0.023760314 8322:0.048987642 8352:0.05971206 8391:0.069531325 8426:0.069531325 8512:0.059110628 8559:0.048689931 8582:0.069531325 8616:0.020841395 8618:0.042594216 8625:0.022392655 8711:0.048689931 8725:0.040276728 8734:0.069531325 8744:0.069531325 8782:0.069531325 8897:0.05301491 8973:0.090670428 9046:0.023760314 9050:0.05301491 9054:0.059110628 9073:0.023060938 9151:0.05301491 9167:0.040276728 9222:0.0288188 9227:0.026937113 9289:0.059110628 9294:0.069531325 9341:0.05301491 9351:0.024493821 9356:0.059110628 9358:0.0027410021 9373:0.05301491 9389:0.042594216 9437:0.069531325 9439:0.033481635 9456:0.059110628 9635:0.045335216 9676:0.0087485429 9727:0.026077799 9743:0.10044491 9778:0.069531325 9802:0.040276728 9893:0.026077799 9902:0.069531325 
1.104080467810215 3:0.052372905 27:0.04653467 47:0.057501994 111:0.088817535 142:-0.00086892976 153:0.10447531 166:0.079658324 167:0.057501994 212:0.052461313 276:0.11755073 309:0.044860613 402:0.088817535 409:0.10447531 443:0.041844223 497:0.043302107 509:0.041844223 642:0.10447531 703:0.079658324 726:0.04653467 745:0.022906879 758:0.088817535 935:0.043302107 944:0.088817535 1020:0.10447531 1043:0.043302107 1052:0.054841343 1135:0.17250599 1273:0.088817535 1394:0.10447531 1429:0.10447531 1432:0.060518384 1451:0.10447531 1500:0.073159764 1546:0.073159764 1703:0.079658324 1726:0.060518384 1766:0.068119089 1782:-0.00086892976 1824:0.088817535 1930:0.17763507 1936:0.040474752 2014:0.057501994 2094:0.048342783 2151:0.052461313 2156:0.025504765 2216:0.073159764 2329:0.031762869 2423:0.018992777 2607:0.019512097 2613:0.088817535 2667:0.088817535 2747:0.10447531 2759:0.10447531 2830:0.016105099 2871:0.10447531 2887:0.079658324 2896:0.079658324 3133:0.017988639 3264:-0.0056524183 3300:0.030024367 3305:0.068119089 3343:0.050308319 3449:0.23897497 3464:0.011613181 3764:0.17763507 3811:0.0013694731 3831:0.10447531 3933:0.043302107 3972:0.041844223 4077:0.057501994 4129:0.043302107 4135:0.048342783 4213:0.054841343 4217:0.073159764 4313:0.054841343 4343:0.10447531 4531:0.10447531 4637:0.079658324 4744:0.0139521 4833:0.088817535 4939:0.088817535 4997:0.039183576 5040:0.048315297 5104:0.34059544 5108:0.028410154 5177:0.0057721524 5275:0.031762869 5334:0.054841343 5362:0.044860613 5410:0.10447531 5459:0.10447531 5563:0.050308319 5615:0.023525805 5620:0.035701405 5687:0.044860613 5774:0.073159764 5934:0.10447531 5935:0.026186452 6094:0.031762869 6097:0.050308319 6106:0.030024367 6128:0.0094938723 6196:0.10447531 6588:0.052461313 6901:0.088817535 6920:0.088817535 7019:0.052461313 7242:0.064000559 7244:0.0041185325 7295:0.037962232 7371:-0.017260527 7431:0.039024194 7444:0.17763507 7486:0.044860613 7556:0.0069458907 7585:0.036803548 7590:0.10447531 7620:0.044860613 7667:0.088817535 7772:0.068119089 7773:0.10447531 7819:0.073159764 7922:0.10447531 7941:0.10447531 8036:0.04653467 8256:0.079658324 8291:-0.032290774 8321:0.17763507 8357:0.040474752 8380:0.073159764 8457:0.043302107 8466:0.035701405 8467:0.014366596 8521:0.088817535 8584:0.088817535 8616:0.031315541 8766:-0.071277264 8849:0.10447531 8903:0.079658324 8912:0.10447531 8934:0.036803548 9167:0.060518384 9296:0.0088294305 9346:0.044860613 9492:0.088817535 9547:0.048342783 9576:0.040474752 9653:0.10447531 9676:0.026290501 9831:0.10447531 9858:0.10447531 9868:0.022304461 9928:0.073159764 
0.925635947385987 5:0.0074761156 72:0.038941268 94:0.048369416 126:0.081661044 142:-0.0012340043 155:0.037251277 191:0.048369416 199:0.074184925 200:0.020173238 223:0.074184925 238:0.061495175 262:0.029712385 266:0.04083052 272:0.074184925 357:0.027823136 379:0.074184925 408:0.033042937 434:0.015015011 463:0.074184925 643:0.074184925 752:0.056563097 1002:0.042972372 1039:0.074184925 1081:0.013854982 1099:0.081610471 1100:0.048369416 1151:0.013486228 1172:0.034326827 1217:0.024604363 1250:0.01583776 1258:0.033042937 1276:0.074184925 1342:0.096738828 1344:0.074184925 1388:0.045444965 1413:0.074184925 1414:0.06306679 1433:0.06306679 1438:0.034326827 1488:0.057310508 1503:0.025350546 1507:0.028739963 1564:0.056563097 1574:0.012773218 1590:0.12613358 1666:0.033042937 1669:0.04083052 1672:0.035722497 1684:0.056563097 1698:0.056563097 1746:0.049208725 1762:0.06306679 1770:0.063708475 1804:0.24184708 1805:0.056563097 1886:0.074184925 1933:-0.032736966 1942:0.047513279 2004:0.026955895 2066:0.030747587 2091:0.074184925 2260:0.021319444 2270:0.027823136 2406:0.051948655 2424:0.023208693 2437:0.051948655 2512:0.010201309 2604:0.019629454 2607:0.013854982 2669:0.042972372 2714:0.074184925 2716:0.042972372 2722:0.051948655 2731:0.012773218 2824:0.074184925 2849:0.056563097 2865:0.021924801 2867:0.045444965 2890:0.042972372 2910:0.074184925 2928:0.031854238 2967:0.11312619 3042:0.037251277 3093:0.037251277 3186:-0.0038907075 3262:0.037251277 3280:0.026133146 3399:0.042972372 3464:0.0082461873 3510:0.019103503 3515:0.051948655 3558:0.06306679 3579:0.035722497 3672:0.048369416 3689:0.045444965 3711:0.074184925 3811:0.0029172709 3815:0.031854238 3875:0.035722497 3908:0.06306679 3988:0.051948655 4014:0.034326827 4053:0.045444965 4155:0.033042937 4183:0.11312619 4279:0.027823136 4356:0.048369416 4432:0.06306679 4436:0.022553904 4444:0.051948655 4498:0.074184925 4503:0.029712385 4548:0.045444965 4561:0.045444965 4582:0.027823136 4657:0.029712385 4692:0.04083052 4747:0.013486228 4770:0.096738828 4918:0.074184925 4977:0.028739963 4997:0.027823136 5020:0.048369416 5075:0.029712385 5117:0.06306679 5130:0.026133146 5132:0.16968929 5177:0.0040986402 5178:0.051948655 5186:0.04083052 5202:0.074184925 5211:0.042972372 5281:0.12613358 5332:0.051948655 5334:0.038941268 5361:0.038941268 5457:0.056563097 5535:0.042972372 5551:0.014618939 5556:0.031854238 5600:0.045444965 5672:0.037251277 5709:0.056563097 5721:0.051948655 5775:0.056563097 6004:0.026955895 6037:0.04083052 6151:0.059424771 6280:0.037251277 6284:0.056563097 6298:0.04083052 6380:0.035722497 6392:0.051948655 6437:0.090889931 6445:0.037251277 6451:0.051948655 6587:0.074184925 6633:0.030747587 6662:0.06306679 6749:0.033042937 6759:0.06306679 6812:0.056563097 6816:0.047513279 6819:0.063708475 6872:0.033042937 6873:0.0049320782 6955:0.051948655 7113:0.074184925 7258:0.026133146 7289:0.035722497 7335:0.06306679 7352:0.074184925 7371:-0.024512413 7408:0.045444965 7431:0.013854982 7509:0.042972372 7513:0.048369416 7517:0.074184925 7547:0.035722497 7556:0.0049320782 7639:0.074184925 7642:0.056563097 7795:0.020736104 7828:0.06306679 7834:0.32664418 7887:0.074184925 7910:0.066085875 7911:0.030747587 7940:0.074184925 7960:0.25483391 7976:-0.11800693 8019:0.051948655 8037:0.04083052 8113:0.098417451 8142:0.053911789 8149:0.014618939 8186:0.056563097 8279:0.045444965 8291:-0.22928756 8403:0.018668133 8475:0.074184925 8480:0.06306679 8555:0.074184925 8558:0.035722497 8600:0.056563097 8647:0.048369416 8678:0.14510824 8763:0.031854238 8766:-0.033741297 8774:0.013486228 8812:0.035722497 8893:0.056563097 9017:0.12613358 9064:0.045444965 9066:0.074184925 9070:0.042972372 9093:0.042972372 9102:0.074184925 9130:0.051948655 9136:0.01810067 9156:0.051948655 9189:0.074184925 9202:0.038941268 9223:0.051948655 9272:0.085944745 9280:0.025546435 9293:0.020173238 9339:0.092242758 9358:0.0029244521 9390:0.074184925 9419:0.048369416 9424:0.030747587 9455:0.012539052 9462:0.020173238 9579:0.06306679 9604:0.06306679 9623:0.028739963 9628:0.056563097 9676:0.0093340663 9785:0.051948655 9788:0.042972372 9818:0.04083052 9847:0.056563097 9913:0.06306679 
1.193858987971003 61:0.017136972 212:0.047335259 338:0.040477232 420:0.036519918 434:0.038159198 455:0.043619155 610:0.031264804 621:0.024943179 745:0.020668622 823:0.080139073 914:0.035354905 979:0.080139073 1002:0.054605064 1005:0.094266906 1081:0.017605548 1088:0.080954464 1102:0.094266906 1129:0.14374964 1143:0.045392636 1169:0.071874819 1229:0.040477232 1250:0.020125067 1294:0.094266906 1381:0.051883409 1409:0.080139073 1503:0.032212981 1582:0.061463096 1781:0.071874819 1792:0.080139073 1810:0.026349402 1914:0.094266906 1933:-0.020799458 1971:0.051883409 2154:0.080139073 2156:0.011506333 2166:0.21562445 2197:0.066011241 2206:0.057746992 2251:0.054605064 2300:0.0079666969 2339:0.066011241 2450:0.035354905 2457:0.047335259 2470:0.094266906 2500:0.0076734234 2509:0.094266906 2512:0.02592564 2516:-0.01232227 2559:0.03907101 2855:0.033207431 2861:0.057746992 2911:0.10376682 2915:0.13003417 2928:0.040477232 3051:0.029491325 3077:0.023627745 3091:0.080139073 3094:0.094266906 3102:0.071874819 3111:0.0076734234 3146:0.16027815 3159:0.034252899 3186:-0.0098878568 3193:0.051883409 3210:0.047255489 3228:0.094266906 3249:0.080139073 3264:-0.010200228 3364:0.057746992 3377:0.094266906 3404:0.061463096 3492:0.01857631 3510:0.024274852 3570:0.047335259 3576:0.0085662153 3630:0.24585237 3642:0.048549704 3732:0.040477232 3755:0.057746992 3811:0.0012356603 3877:0.080139073 4164:0.14374964 4333:0.054605064 4336:0.066011241 4346:0.057746992 4503:0.037755577 4535:0.043619155 4544:0.066011241 4663:0.033207431 4664:0.051883409 4667:0.071874819 4730:0.14374964 4744:0.012588825 4747:0.017136972 4762:0.057746992 4914:0.066011241 4962:0.094266906 5005:0.080139073 5017:0.094266906 5040:0.014531452 5145:0.035354905 5177:0.010416298 5210:0.080139073 5296:0.071874819 5362:0.040477232 5500:0.094266906 5620:0.032212981 5648:0.080139073 5665:0.071874819 5724:0.080139073 5787:0.080139073 6067:0.047335259 6131:0.041987715 6151:0.037755577 6331:0.094266906 6496:0.34895325 6502:0.06200587 6539:0.045392636 6549:0.066011241 6578:0.057746992 6613:0.094266906 6656:0.043619155 6749:0.041987715 6795:0.035354905 6847:0.13202248 6873:0.0062671998 6883:0.18157054 6891:0.094266906 7096:0.022392084 7175:0.14374964 7202:0.057746992 7244:0.0037161061 7278:0.054605064 7371:-0.046721942 7373:0.029491325 7396:0.049482733 7486:0.040477232 7550:0.094266906 7556:0.0125344 7581:0.034252899 7655:0.094266906 7688:0.040477232 7695:0.08723831 7795:0.026349402 7796:0.037755577 7911:0.03907101 7929:0.049482733 8061:0.080139073 8064:0.071874819 8068:0.094266906 8081:0.031585211 8149:0.01857631 8212:0.071874819 8281:0.024943179 8289:0.094266906 8291:-0.058271214 8357:0.036519918 8467:0.02592564 8517:0.049482733 8616:0.014127832 8625:0.030358781 8651:0.094266906 8680:0.094266906 8705:0.094266906 8740:0.094266906 8766:-0.064312682 8857:0.094266906 8937:0.030358781 9040:0.032212981 9053:0.061463096 9073:0.031264804 9075:0.071874819 9222:0.03907101 9279:0.049482733 9296:0.0079666969 9358:0.0074322122 9455:0.0079666969 9538:0.049482733 9571:0.049482733 9591:0.071874819 9623:0.073039832 9676:0.011860813 9679:0.054605064 9775:0.045392636 9802:0.054605064 9832:0.080139073 
