svm_type c_svc
kernel_type linear
nr_class 2
total_sv 102
rho 0.107062
label 1 -1
nr_sv 51 51
SV
0.8368971301363124 3:0.020448402 42:0.0059081777 67:0.082477348 119:0.0088180882 142:0.019515762 154:0.0387219 217:0.021694382 234:0.082477348 246:0.034231192 277:0.050556707 282:0.018342331 288:0.018342331 331:0.021694382 363:0.012536816 434:0.0058055191 448:0.018927057 455:0.018342331 629:0.026551773 745:0.015082145 809:0.082477348 834:0.034231192 849:0.048246149 868:0.0044907116 871:0.082477348 878:0.052573527 907:0.082477348 910:0.018342331 935:0.007679423 957:0.034231192 969:0.082477348 983:0.010548466 1014:0.082477348 1051:0.034231192 1062:0.082477348 1066:0.060782965 1081:0.0027355162 1089:0.021694382 1096:0.082477348 1099:0.049706168 1143:0.028695788 1151:0.010353457 1178:0.082477348 1188:0.034231192 1247:0.048246149 1258:0.024706941 1261:0.096223562 1297:0.096223562 1314:0.039936388 1320:0.082477348 1335:0.082477348 1408:0.064135006 1474:0.024495901 1503:0.0055354067 1507:0.058982818 1513:0.012079032 1532:0.034231192 1545:0.011561475 1551:0.082477348 1559:0.034231192 1585:0.082477348 1611:0.007679423 1614:0.082477348 1643:0.060782965 1690:0.022890268 1714:0.034231192 1716:0.017027519 1734:0.082477348 1760:0.064135006 1829:0.023877734 1836:0.021694382 1844:0.082477348 1896:0.013484941 1907:0.082477348 1912:0.034231192 1919:0.048246149 1933:0.034043778 1964:0.082477348 2062:0.015888859 2085:0.05592557 2112:0.010353457 2139:0.034231192 2150:0.026551773 2167:0.0022241757 2174:0.082477348 2199:0.048246149 2215:0.082477348 2284:0.082477348 2382:0.10996979 2512:0.0085028721 2547:0.082477348 2559:0.025310111 2607:0.02261322 2787:0.026551773 2797:0.082477348 2817:0.10996979 2822:0.050556707 2855:0.011340928 2887:0.082477348 3036:0.039936388 3111:0.025102691 3186:0.015430324 3264:0.036480585 3269:0.082477348 3300:0.027429927 3345:0.012536816 3391:0.042440627 3416:0.034231192 3443:0.010353457 3492:0.01369206 3493:0.082477348 3508:0.021694382 3510:0.010991472 3537:0.034231192 3585:0.015888859 3658:0.082477348 3749:0.034231192 3763:0.082477348 3796:0.082477348 3807:0.048246149 3811:0.021399385 3833:0.082477348 3883:0.082477348 3907:0.082477348 3982:0.027429927 3985:0.040036712 4063:0.048246149 4135:0.018342331 4144:0.042440627 4156:0.015888859 4168:0.082477348 4252:0.082477348 4296:0.018342331 4299:0.082477348 4321:0.042440627 4331:0.082477348 4348:0.034231192 4371:0.082477348 4436:0.06173109 4439:0.03633725 4442:0.096223562 4465:0.062599632 4525:0.0088180882 4539:0.082477348 4573:0.082477348 4584:0.082477348 4602:0.034231192 4614:0.020216227 4635:0.034231192 4649:0.043542339 4662:0.082477348 4747:0.019877702 4827:0.082477348 4844:0.082477348 4965:0.025310111 4974:0.082477348 5010:0.082477348 5039:0.018537002 5049:0.082477348 5064:0.052573527 5072:0.074567427 5108:0.038265123 5119:0.015888859 5177:0.025644601 5211:0.015888859 5287:0.021694382 5296:0.034231192 5314:0.082477348 5343:0.082477348 5365:0.028695788 5374:0.05592557 5545:0.082477348 5617:0.082477348 5624:0.082477348 5631:0.012536816 5642:0.082477348 5685:0.082477348 5687:0.029903816 5736:0.082477348 5836:0.034231192 5861:0.082477348 6002:0.05592557 6023:0.082477348 6043:0.060782965 6055:0.021694382 6093:0.082477348 6143:0.048246149 6195:0.060782965 6251:0.033478417 6274:0.0227336 6333:0.082477348 6468:0.034231192 6486:0.082477348 6554:0.082477348 6592:0.082477348 6624:0.096223562 6688:0.060782965 6690:0.018342331 6698:0.0099215465 6767:0.025310111 6886:0.034231192 6962:0.096223562 7005:0.082477348 7006:0.042440627 7086:0.082477348 7116:0.082477348 7158:0.025310111 7241:0.082477348 7258:0.021694382 7322:0.044584648 7358:0.059374789 7365:0.034231192 7371:0.0056157041 7373:0.018342331 7398:0.082477348 7507:0.026551773 7528:0.082477348 7556:0.0015760435 7567:0.082477348 7603:0.034231192 7605:0.082477348 7620:0.029903816 7649:0.022561087 7664:0.082477348 7713:0.048246149 7795:0.0082094341 7835:0.048246149 7837:0.082477348 7843:0.082477348 7848:0.082477348 7858:0.082477348 7976:0.016941124 8022:0.082477348 8091:0.025310111 8113:0.028695788 8142:0.017444296 8185:0.082477348 8197:0.082477348 8213:0.082477348 8224:0.052573527 8281:0.028127818 8291:0.025314168 8324:0.082477348 8344:0.060782965 8379:0.082477348 8453:0.021694382 8474:0.082477348 8489:0.082477348 8518:0.023877734 8616:0.034231192 8625:0.077515072 8656:0.082477348 8720:0.082477348 8754:0.082477348 8823:0.082477348 8879:0.044584648 8899:0.082477348 8934:0.011340928 8985:0.082477348 9006:0.027797745 9064:0.060782965 9086:0.060762822 9108:0.048246149 9114:0.048246149 9152:0.019338076 9155:0.082477348 9255:0.082477348 9279:0.012536816 9280:0.014882319 9292:0.082477348 9296:0.044152743 9338:0.039936388 9358:0.035792162 9364:0.034231192 9399:0.082477348 9405:0.034231192 9419:0.021694382 9424:0.007679423 9431:0.082477348 9455:0.044152743 9493:0.082477348 9520:0.082477348 9530:0.082477348 9545:0.034231192 9584:0.10996979 9585:0.082477348 9595:0.05592557 9628:0.034231192 9648:0.082477348 9665:0.082477348 9683:0.096223562 9716:0.0036243237 9886:0.025310111 9898:0.082477348 9899:0.048246149 
0.6754798144796781 61:0.050136288 85:0.018877182 105:0.082021929 142:0.01881073 194:0.092747357 274:0.092747357 275:0.092747357 288:0.020626304 378:0.049524254 394:0.092747357 413:0.012753091 449:0.045022051 469:0.0062246714 567:0.054253723 641:0.092747357 660:0.038493634 697:0.092747357 729:0.04830581 745:0.018656178 752:0.092747357 796:0.092747357 868:0.0055548801 1021:0.092747357 1048:0.043543524 1070:0.015507679 1088:0.021440792 1127:0.092747357 1143:0.032268963 1175:0.026191827 1202:0.072121045 1314:0.038493634 1347:0.025740546 1406:0.092747357 1427:0.092747357 1547:0.092747357 1626:0.061496062 1627:0.092747357 1770:0.047725301 1782:0.015785126 1799:0.033930025 1867:0.092747357 1868:0.02985798 1876:0.092747357 1879:0.02985798 1912:0.038493634 1942:0.0068633629 1956:0.024395749 1980:0.10202209 2031:0.092747357 2050:0.024395749 2101:0.054253723 2156:0.0058970998 2212:0.092747357 2260:0.014097891 2290:0.085665293 2300:0.0093608864 2316:0.10778216 2375:0.038493634 2418:0.092747357 2450:0.029536067 2500:0.014479643 2512:0.0095616433 2580:0.092747357 2625:0.092747357 2629:0.041969315 2690:0.024395749 2693:0.054253723 2770:0.092747357 2778:0.042342996 2787:0.02985798 2809:0.10202209 2817:0.092747357 2822:0.056851986 2966:0.024395749 3111:0.021171345 3112:0.033627414 3120:0.0096087083 3168:0.0076481536 3172:0.092747357 3193:0.10483204 3210:0.0089231414 3250:0.092747357 3272:0.03056177 3448:0.059679091 3510:0.012360122 3565:0.092747357 3642:0.040634577 3692:0.092747357 4027:0.036990151 4101:0.011642662 4151:0.051885411 4210:0.016747597 4219:0.10202209 4233:0.10202209 4259:0.092747357 4260:0.070529833 4322:0.092747357 4356:0.024395749 4387:0.092747357 4469:0.02786575 4490:0.10202209 4502:0.052497829 4503:0.015760095 4516:0.092747357 4534:0.092747357 4606:0.024395749 4614:0.025006887 4663:0.035105949 4697:0.092747357 4698:0.010710211 4720:0.10202209 4746:0.06288938 4748:0.092747357 4763:0.092747357 4844:0.092747357 4845:0.13912103 4848:0.038493634 4866:0.06288938 4928:0.092747357 4977:0.0076481536 5005:0.092747357 5092:0.012753091 5109:0.038493634 5121:0.10202209 5140:0.092747357 5177:0.028837846 5305:0.11129683 5342:0.092747357 5423:0.10202209 5439:0.065031931 5462:0.092747357 5498:0.026835324 5536:0.092747357 5551:0.0094490708 5563:0.011642662 5606:0.065104465 5649:0.092747357 5691:0.054253723 5700:0.042342996 5709:0.092747357 5731:0.038493634 5877:0.075186769 5905:0.020571103 5912:0.0065284176 5936:0.092747357 5985:0.038493634 6094:0.0694178 6106:0.022733535 6180:0.092747357 6188:0.092747357 6219:0.042342996 6294:0.054253723 6386:0.10202209 6454:0.092747357 6543:0.014097891 6578:0.038493634 6588:0.078649467 6614:0.092747357 6690:0.020626304 6698:0.011156969 6706:0.16694523 6763:0.092747357 6826:0.092747357 6865:0.10202209 6873:0.0017722912 7060:0.014097891 7172:0.027783429 7210:0.092747357 7220:0.024395749 7244:0.048282166 7322:0.050136288 7371:0.0054729719 7447:0.10202209 7456:0.12984629 7581:0.0068633629 7585:0.012753091 7620:0.033627414 7637:0.038493634 7661:0.092747357 7683:0.035829576 7734:0.092747357 7736:0.10202209 7746:0.092747357 7748:0.054253723 7849:0.0092316665 7910:0.027783429 7976:0.013970454 8008:0.10202209 8081:0.0082793089 8179:0.092747357 8187:0.047332853 8279:0.042342996 8291:0.023911666 8343:0.065104465 8357:0.021746038 8373:0.038493634 8453:0.024395749 8467:0.016917468 8561:0.092747357 8597:0.11129683 8603:0.10202209 8722:0.024395749 8766:0.026667197 8776:0.092747357 8932:0.014097891 8969:0.092747357 9040:0.038493634 9093:0.047725301 9222:0.051246721 9271:0.078649467 9296:0.049650604 9327:0.038493634 9366:0.045022051 9383:0.10202209 9483:0.092747357 9657:0.054253723 9676:0.011250841 9693:0.0012447141 9716:0.0044831841 9748:0.092747357 9841:0.024395749 9892:0.092747357 
0.5188099242906962 73:0.016749178 142:0.024704933 234:0.12180906 238:0.067304498 258:0.05055533 262:0.055962928 276:0.01851536 282:0.027089404 288:0.027089404 370:0.082595302 403:0.12180906 468:0.01851536 470:0.08976908 506:0.01851536 511:0.028159106 577:0.05055533 613:0.032039977 726:0.013023248 729:0.063442075 785:0.05055533 873:0.12180906 914:0.05055533 933:0.14617086 938:0.020698403 941:0.027089404 983:0.013353265 1088:0.023465923 1231:0.0054076049 1247:0.071253722 1261:0.14617086 1347:0.040567387 1507:0.074666134 1545:0.017074899 1555:0.11366357 1574:0.041482251 1737:0.044164315 1779:0.12180906 1809:0.12180906 1850:0.14617086 1942:0.0090139472 2004:0.055120084 2151:0.14461118 2161:0.12180906 2196:0.14617086 2219:0.015290802 2335:0.015290802 2384:0.020698403 2406:0.12180906 2407:0.12180906 2500:0.019016731 2534:0.039213755 2607:0.033396989 2819:0.032039977 2822:0.074666134 2865:0.084276964 3111:0.027805227 3124:0.032039977 3186:0.022788722 3243:0.12180906 3258:0.076499879 3343:0.042380207 3492:0.020221515 3602:0.12180906 3627:0.12180906 3772:0.082595302 3806:0.032039977 3811:0.027089404 4077:0.071253722 4115:0.060956777 4284:0.17053269 4427:0.015627898 4439:0.053665724 4449:0.12180906 4464:0.02935696 4465:0.092452089 4563:0.011341578 4608:0.14617086 4636:0.027089404 4744:0.0037997383 4747:0.02935696 4773:0.046692906 4887:0.05055533 5075:0.020698403 5139:0.14617086 5177:0.045448768 5214:0.12180906 5246:0.082595302 5275:0.082595302 5280:0.05055533 5287:0.032039977 5315:0.016749178 5432:0.071253722 5439:0.077644737 5620:0.037532089 5631:0.01851536 5672:0.032039977 5735:0.070777463 5747:0.12180906 5816:0.12180906 5859:0.12180906 5890:0.05055533 5931:0.12180906 6078:0.12180906 6087:0.12180906 6137:0.12180906 6143:0.071253722 6288:0.12180906 6294:0.071253722 6392:0.12180906 6420:0.091169351 6527:0.022908696 6662:0.12180906 6771:0.039213755 6826:0.12180906 6947:0.12180906 7040:0.01851536 7215:0.12180906 7243:0.08976908 7266:0.05055533 7298:0.0049505713 7371:0.0055291441 7373:0.027089404 7486:0.11366357 7546:0.12180906 7936:0.12180906 7976:0.026687991 7981:0.077644737 7982:0.12180906 8274:0.039213755 8291:0.022431578 8308:0.08882549 8351:0.12180906 8390:0.12180906 8463:0.060666393 8517:0.077644737 8574:0.032039977 8669:0.062679673 8746:0.12180906 8766:0.038207091 8856:0.032039977 8877:0.12180906 9040:0.05055533 9086:0.080765399 9104:0.082595302 9136:0.05055533 9216:0.12180906 9526:0.023465923 9537:0.09834313 9600:0.032039977 9632:0.14617086 9676:0.014776208 9679:0.023465923 9693:0.0016347361 9716:0.005352687 9821:0.062679673 9868:0.017587991 
0.5152396142067056 19:0.029865536 40:0.038898567 58:0.029865536 102:0.029865536 120:0.0095975993 123:0.037027987 146:0.071958641 217:0.018927603 218:0.03173213 221:0.03173213 309:0.026090049 325:0.045868592 340:0.080953476 365:0.071958641 378:0.034930652 384:0.013862483 400:0.029865536 408:0.022903201 475:0.037027987 485:0.020110576 526:0.071958641 551:0.071958641 556:0.071958641 568:0.029865536 602:0.071958641 624:0.071958641 630:0.039296984 633:0.039342234 661:0.029865536 719:0.063649062 729:0.044505569 750:0.0053249851 752:0.071958641 759:0.071958641 764:0.029865536 779:0.018927603 792:0.01093794 829:0.037027987 868:0.0039179913 904:0.050402693 983:0.0078884353 1007:0.029865536 1009:0.071958641 1012:0.071958641 1074:0.071958641 1081:0.0023866436 1099:0.043366919 1151:0.0090330342 1175:0.021591168 1181:0.071958641 1192:0.048793134 1208:0.071958641 1232:0.071958641 1260:0.071958641 1264:0.071958641 1281:0.071958641 1314:0.029865536 1382:0.013862483 1422:0.071958641 1438:0.042093105 1513:0.0090330342 1557:0.13492245 1564:0.071958641 1574:0.021697683 1580:0.071958641 1643:0.053031038 1687:0.039760103 1690:0.019970971 1716:0.014855924 1776:0.013862483 1829:0.020832501 1858:0.071958641 1905:0.071958641 1911:0.071958641 1918:0.018927603 1933:0.02116269 1974:0.0090330342 2060:0.080953476 2082:0.071958641 2093:0.071958641 2099:0.071958641 2102:0.042093105 2117:0.071958641 2164:0.048793134 2199:0.042093105 2216:0.042093105 2264:0.062064074 2270:0.023436564 2273:0.071958641 2288:0.071958641 2386:0.071958641 2425:0.071958641 2450:0.020832501 2489:0.080953476 2500:0.011936257 2516:0.0069471636 2570:0.071958641 2589:0.029865536 2607:0.019729255 2629:0.032562165 2687:0.058096163 2728:0.076456054 2731:0.020421351 2791:0.071958641 2812:0.0053249851 2830:0.028822169 2833:0.071958641 2837:0.042093105 2855:0.0098945694 2863:0.071958641 2865:0.052898231 2877:0.071958641 2909:0.045868592 2940:0.071958641 3001:0.071958641 3051:0.016003053 3111:0.019505786 3118:0.032562165 3124:0.018927603 3129:0.071958641 3151:0.071958641 3152:0.071958641 3186:0.015986631 3210:0.006293707 3233:0.034930652 3235:0.071958641 3236:0.071958641 3264:0.033817307 3290:0.042093105 3305:0.018927603 3345:0.01093794 3371:0.071958641 3407:0.042093105 3459:0.048793134 3465:0.071958641 3483:0.071958641 3492:0.011945851 3510:0.0095896804 3539:0.071958641 3552:0.071958641 3576:0.020973272 3640:0.071958641 3649:0.071958641 3717:0.071958641 3801:0.042093105 3811:0.019003623 3815:0.076456054 3849:0.071958641 3884:0.071958641 3946:0.071958641 3982:0.025427394 3986:0.071958641 3988:0.071958641 3994:0.071958641 4090:0.066288801 4093:0.071958641 4100:0.071958641 4115:0.036010188 4133:0.048793134 4136:0.042093105 4155:0.044721459 4208:0.021555956 4210:0.012993733 4242:0.071958641 4288:0.017840527 4293:0.018927603 4307:0.071958641 4356:0.018927603 4397:0.071958641 4402:0.071958641 4412:0.029865536 4436:0.053858248 4444:0.071958641 4488:0.01093794 4566:0.029865536 4603:0.076456054 4607:0.071958641 4629:0.0020973303 4636:0.016003053 4649:0.032562165 4665:0.071958641 4698:0.0088289362 4715:0.071958641 4744:0.001870578 4754:0.071958641 4768:0.029865536 4773:0.027583812 4794:0.047354741 4840:0.071958641 4866:0.048793134 4907:0.071958641 4927:0.042093105 4965:0.018927603 4973:0.045868592 4975:0.029865536 4997:0.020832501 5020:0.048793134 5040:0.022331655 5058:0.048793134 5061:0.085450885 5108:0.035471563 5141:0.071958641 5199:0.080953476 5201:0.071958641 5259:0.03173213 5267:0.029865536 5344:0.071958641 5381:0.071958641 5383:0.071958641 5423:0.076456054 5507:0.076456054 5508:0.071958641 5511:0.071958641 5520:0.029865536 5571:0.029865536 5595:0.013862483 5610:0.071958641 5695:0.0076934779 5705:0.061020703 5731:0.029865536 5734:0.071958641 5740:0.026090049 5775:0.029865536 5836:0.03173213 5842:0.0081743196 5860:0.029865536 5888:0.050021723 5935:0.01895556 5999:0.053031038 6024:0.0090330342 6047:0.018927603 6101:0.042093105 6106:0.018740335 6111:0.071958641 6121:0.080953476 6128:0.0074718888 6131:0.0076934779 6140:0.071958641 6145:0.071958641 6152:0.071958641 6169:0.042093105 6274:0.019834284 6286:0.020110576 6299:0.071958641 6380:0.038898567 6387:0.076456054 6419:0.071958641 6432:0.071958641 6490:0.071958641 6503:0.029865536 6574:0.071958641 6620:0.07014013 6664:0.03173213 6665:0.071958641 6670:0.013862483 6698:0.0091972203 6718:0.042093105 6751:0.071958641 6757:0.029865536 6771:0.023165509 6814:0.071958641 6816:0.0053249851 6873:0.0014609838 6881:0.071958641 6883:0.025036087 6897:0.071958641 6901:0.071958641 6931:0.029865536 6938:0.0098945694 6996:0.029865536 7008:0.018927603 7072:0.080953476 7169:0.071958641 7250:0.0076934779 7279:0.026600841 7289:0.025036087 7293:0.071958641 7298:0.0029245479 7371:0.0038787776 7407:0.029865536 7417:0.023165509 7431:0.025125198 7497:0.071958641 7520:0.071958641 7537:0.071958641 7607:0.035799403 7627:0.023165509 7684:0.071958641 7685:0.080331452 7691:0.029865536 7748:0.042093105 7783:0.029865536 7812:0.012991795 7865:0.071958641 7976:0.011085411 8047:0.071958641 8048:0.071958641 8061:0.071958641 8081:0.0068250275 8149:0.020602061 8173:0.061020703 8246:0.059659924 8248:0.018980781 8262:0.013862483 8284:0.080953476 8291:0.018220736 8292:0.029865536 8295:0.071958641 8309:0.071958641 8355:0.071958641 8457:0.048793134 8466:0.022172065 8467:0.01093794 8514:0.071958641 8616:0.03733192 8631:0.018927603 8633:0.044721459 8636:0.071958641 8660:0.071958641 8717:0.052616379 8763:0.037027987 8766:0.01998458 8769:0.071958641 8774:0.01327094 8812:0.0090330342 8830:0.071958641 8842:0.071958641 8862:0.071958641 8911:0.071958641 8919:0.076456054 8927:0.071958641 8934:0.01113139 8973:0.071958641 8989:0.071958641 9006:0.024252576 9041:0.029865536 9061:0.055955583 9075:0.029865536 9122:0.071958641 9147:0.055955583 9205:0.089948303 9220:0.071958641 9293:0.022447063 9339:0.048793134 9351:0.018927603 9358:0.028439267 9365:0.018927603 9388:0.071958641 9462:0.0037394303 9484:0.029865536 9511:0.020832501 9538:0.059731072 9543:0.071958641 9546:0.071958641 9571:0.029865536 9581:0.071958641 9588:0.025036087 9597:0.071958641 9639:0.0040716701 9676:0.0092746025 9693:0.001026077 9727:0.01093794 9743:0.025036087 9802:0.037027987 9821:0.037027987 9841:0.018927603 9895:0.0090330342 9901:0.051842705 
0.6566883816352876 8:0.084933033 48:0.022340314 71:0.035250396 73:0.011678594 154:0.039874812 234:0.092654228 259:0.016361935 266:0.027342331 370:0.057590708 406:0.084933033 443:0.014432246 473:0.01888846 578:0.094658155 597:0.084933033 606:0.084933033 639:0.084933033 744:0.062826226 745:0.015531204 750:0.0062850983 786:0.084933033 813:0.084933033 832:0.084933033 874:0.043704263 929:0.084933033 1059:0.084933033 1081:0.0028169637 1099:0.051186128 1117:0.016361935 1175:0.026165527 1179:0.084933033 1206:0.1003754 1217:0.050085948 1258:0.030068489 1322:0.054138856 1329:0.092654228 1332:0.084933033 1381:0.027342331 1474:0.02162164 1483:0.084933033 1488:0.0042439015 1551:0.084933033 1567:0.084933033 1572:0.084933033 1574:0.024103393 1690:0.023571808 1719:0.038454978 1735:0.035250396 1737:0.030794177 1760:0.066044567 1794:0.054138856 1896:0.013886444 1933:0.022946665 1942:0.0068564711 1965:0.084933033 2126:0.084933033 2149:0.008453863 2152:0.073973213 2156:0.0041540359 2167:0.0024986168 2249:0.035250396 2264:0.07325445 2387:0.084933033 2490:0.084933033 2500:0.013259677 2512:0.0095520416 2516:0.006905063 2574:0.035250396 2577:0.084933033 2581:0.084933033 2597:0.049682639 2659:0.016361935 2691:0.084933033 2761:0.084933033 2837:0.049682639 2855:0.011678594 2878:0.012910089 2951:0.084933033 3063:0.084933033 3070:0.017849385 3112:0.030794177 3125:0.031769991 3255:0.070955095 3264:0.047812245 3287:0.10809659 3295:0.062592721 3308:0.027342331 3315:0.084933033 3336:0.084933033 3352:0.084933033 3356:0.084933033 3474:0.084933033 3593:0.076479168 3597:0.092654228 3659:0.012910089 3671:0.015022761 3739:0.084933033 3747:0.084933033 3800:0.084933033 3811:0.01888846 3820:0.043704263 3880:0.084933033 3906:0.092654228 3959:0.035250396 3972:0.014432246 3982:0.02824663 3985:0.041228772 3995:0.084933033 3999:0.084933033 4032:0.084933033 4094:0.084933033 4213:0.014083734 4217:0.092654228 4252:0.092654228 4293:0.022340314 4337:0.084933033 4464:0.020469545 4467:0.035250396 4484:0.084933033 4598:0.084933033 4629:0.0024754864 4638:0.084933033 4717:0.084933033 4740:0.035250396 4744:0.0022078499 4773:0.032557268 4814:0.084933033 4817:0.084933033 4854:0.084933033 4879:0.084933033 4985:0.084933033 5011:0.022340314 5040:0.026358129 5058:0.062826226 5094:0.0047133677 5177:0.026408146 5186:0.084933033 5208:0.084933033 5264:0.084933033 5336:0.022340314 5366:0.084933033 5412:0.084933033 5427:0.084933033 5534:0.084933033 5551:0.0086529507 5596:0.084933033 5611:0.092654228 5668:0.084933033 5683:0.035250396 5767:0.084933033 5778:0.016361935 5812:0.084933033 5840:0.035250396 5856:0.073297264 5859:0.084933033 5947:0.015744269 5996:0.084933033 6068:0.035250396 6106:0.026495824 6128:0.0096208328 6181:0.084933033 6190:0.016361935 6195:0.062592721 6223:0.015744269 6363:0.062826226 6429:0.027342331 6456:0.022340314 6494:0.092654228 6495:0.084933033 6502:0.0032677243 6510:0.054199241 6580:0.084933033 6670:0.016361935 6759:0.084933033 6807:0.084933033 6816:0.0062850983 6824:0.084933033 6872:0.0527849 6873:0.001918054 6915:0.084933033 6931:0.035250396 6986:0.084933033 7006:0.043704263 7096:0.051552189 7121:0.084933033 7156:0.084933033 7172:0.02544257 7184:0.084933033 7199:0.064463488 7354:0.036494388 7371:0.0066591052 7389:0.011678594 7417:0.027342331 7431:0.027910928 7464:0.035250396 7486:0.084056717 7539:0.044976842 7556:0.0016229688 7565:0.084933033 7575:0.084933033 7609:0.084933033 7685:0.075852393 7700:0.0079080707 7729:0.035250396 7733:0.084933033 7754:0.035250396 7792:0.01888846 8004:0.068571103 8060:0.049682639 8070:0.084933033 8093:0.084933033 8149:0.024316685 8344:0.062592721 8360:0.035250396 8377:0.047677376 8387:0.084933033 8398:0.084933033 8414:0.062826226 8423:0.092654228 8428:0.084933033 8467:0.014083734 8496:0.092654228 8511:0.084933033 8522:0.084933033 8610:0.084933033 8633:0.0527849 8670:0.062826226 8708:0.084933033 8766:0.028254988 8978:0.035250396 9002:0.084933033 9021:0.084933033 9059:0.084933033 9174:0.084933033 9227:0.0070037679 9263:0.035250396 9309:0.10809659 9327:0.035250396 9358:0.03159244 9365:0.022340314 9394:0.084933033 9511:0.024588674 9639:0.0048058062 9671:0.035250396 9708:0.084933033 9716:0.003732235 9727:0.012910089 9764:0.035250396 9847:0.035250396 9868:0.013378329 9896:0.035250396 9911:0.035250396 9913:0.084933033 9933:0.084933033 
0.3364219603236826 2:0.052283692 36:0.027905715 58:0.027905715 71:0.027905715 106:0.067236607 142:0.015909505 145:0.067236607 314:0.072839652 321:0.067236607 325:0.042858625 329:0.067236607 338:0.02437798 343:0.067236607 389:0.017685544 390:0.067236607 448:0.015429583 455:0.014952908 469:0.0045125359 473:0.014952908 521:0.0071886205 549:0.045591254 616:0.067236607 629:0.021645353 668:0.014952908 685:0.067236607 708:0.067236607 729:0.037937236 736:0.017685544 750:0.0049755515 812:0.067236607 870:0.067236607 903:0.057809566 904:0.054944383 909:0.067236607 932:0.067236607 935:0.0062603655 953:0.067236607 977:0.067236607 1007:0.027905715 1028:0.067236607 1089:0.017685544 1099:0.040521116 1121:0.067236607 1155:0.045591254 1172:0.049551063 1183:0.039330892 1231:0.0029849097 1281:0.067236607 1282:0.067236607 1341:0.067236607 1375:0.12326711 1391:0.045591254 1423:0.067236607 1446:0.072839652 1474:0.01711661 1494:0.067236607 1514:0.067236607 1597:0.067236607 1600:0.027905715 1604:0.067236607 1653:0.084045755 1654:0.067236607 1690:0.020215482 1695:0.067236607 1707:0.021645353 1716:0.013881055 1760:0.056640664 1776:0.012952806 1794:0.050001725 1801:0.067236607 1878:0.067236607 1907:0.067236607 1933:0.018039405 1960:0.072839652 1987:0.067236607 1993:0.067236607 1996:0.072839652 2051:0.067236607 2065:0.012952806 2066:0.045591254 2077:0.057016432 2088:0.067236607 2157:0.027905715 2163:0.067236607 2167:0.0018131771 2196:0.067236607 2200:0.067236607 2264:0.067656558 2300:0.0067861157 2329:0.0038044808 2371:0.067236607 2434:0.017685544 2472:0.067236607 2474:0.067236607 2497:0.027905715 2500:0.010496924 2516:0.0054663415 2535:0.067236607 2560:0.072839652 2585:0.067236607 2591:0.045591254 2619:0.072839652 2621:0.045591254 2629:0.030425387 2635:0.012952806 2642:0.067236607 2650:0.017685544 2698:0.067236607 2744:0.067236607 2755:0.072839652 2789:0.067236607 2815:0.027905715 2822:0.041214484 2830:0.029175047 2831:0.067236607 2841:0.067236607 2883:0.067236607 2894:0.020141421 2925:0.052283692 2981:0.017685544 3084:0.067236607 3112:0.02437798 3121:0.027905715 3125:0.023054603 3156:0.012952806 3186:0.014675501 3212:0.027905715 3251:0.067236607 3258:0.045745568 3264:0.029739452 3280:0.06651917 3295:0.049551063 3347:0.067236607 3446:0.039330892 3514:0.067236607 3518:0.049551063 3548:0.067236607 3583:0.067236607 3671:0.011892657 3684:0.053189795 3782:0.067236607 3801:0.039330892 3811:0.017445058 3840:0.017078372 3902:0.067236607 3904:0.067236607 3939:0.045591254 3964:0.067236607 3982:0.024224668 3994:0.067236607 4080:0.0077876716 4106:0.067236607 4113:0.067236607 4173:0.067236607 4185:0.067236607 4210:0.012141064 4241:0.067236607 4261:0.027905715 4283:0.067236607 4288:0.016669805 4311:0.067236607 4367:0.067236607 4384:0.067236607 4403:0.039330892 4407:0.067236607 4436:0.05032399 4448:0.067236607 4473:0.012952806 4493:0.067236607 4503:0.011425181 4513:0.072839652 4563:0.0062603655 4591:0.067236607 4639:0.067236607 4649:0.035496283 4655:0.067236607 4663:0.029691468 4721:0.067236607 4747:0.016204561 4750:0.021645353 4775:0.067236607 4776:0.067236607 4797:0.067236607 4841:0.067236607 4842:0.067236607 4933:0.089648813 4965:0.019159337 4991:0.067236607 4999:0.067236607 5023:0.067236607 5064:0.042858625 5130:0.039330892 5143:0.067236607 5181:0.067236607 5250:0.067236607 5267:0.027905715 5275:0.045591254 5276:0.067236607 5304:0.067236607 5325:0.067236607 5340:0.067236607 5375:0.054283803 5381:0.067236607 5425:0.067236607 5439:0.042858625 5447:0.072839652 5488:0.067236607 5551:0.006850044 5577:0.067236607 5722:0.011892657 5740:0.02437798 5778:0.012952806 5824:0.0084402732 5868:0.030126537 5888:0.05063415 5935:0.018058953 6031:0.027905715 6096:0.072839652 6144:0.067236607 6147:0.067236607 6166:0.067236607 6177:0.067236607 6291:0.067236607 6300:0.039330892 6420:0.054517651 6428:0.025252911 6490:0.067236607 6500:0.067236607 6504:0.027905715 6527:0.010537689 6564:0.067236607 6672:0.027905715 6713:0.067236607 6737:0.072839652 6745:0.030231189 6771:0.021645353 6786:0.039330892 6822:0.067236607 6831:0.072839652 6844:0.067236607 6857:0.0055444806 6868:0.072839652 6873:0.0012848111 6912:0.01699513 6938:0.0092452725 6967:0.0084402732 6982:0.027905715 7023:0.027905715 7045:0.067236607 7060:0.011071857 7100:0.012952806 7132:0.067236607 7165:0.067236607 7191:0.067236607 7199:0.059537374 7242:0.027905715 7244:0.039774835 7295:0.022661085 7354:0.031298052 7361:0.052283692 7371:0.0030519972 7380:0.010220176 7437:0.048703878 7479:0.059472311 7481:0.072839652 7498:0.067236607 7506:0.027905715 7563:0.021645353 7595:0.067236607 7607:0.03345019 7621:0.072839652 7625:0.089648813 7671:0.045591254 7740:0.067236607 7756:0.017685544 7776:0.067236607 7803:0.067236607 7819:0.067236607 7824:0.067236607 7827:0.067236607 7831:0.0030796818 7839:0.067236607 7869:0.067236607 7921:0.067236607 7993:0.067236607 8049:0.012952806 8051:0.067236607 8074:0.027905715 8111:0.067236607 8126:0.012952806 8174:0.067236607 8194:0.010220176 8195:0.067236607 8196:0.067236607 8275:0.039330892 8291:0.012381864 8302:0.027905715 8306:0.067236607 8308:0.04426339 8314:0.042608461 8329:0.072839652 8335:0.067236607 8352:0.034598153 8403:0.0016870373 8428:0.067236607 8459:0.027905715 8487:0.067236607 8499:0.067236607 8506:0.067236607 8525:0.072839652 8610:0.067236607 8616:0.027905715 8633:0.041786771 8682:0.067236607 8737:0.067236607 8763:0.034598153 8774:0.012400081 8812:0.0084402732 8839:0.067236607 8847:0.027905715 8881:0.067236607 8914:0.067236607 8934:0.0092452725 8996:0.067236607 9004:0.067236607 9072:0.067236607 9121:0.014032204 9136:0.027905715 9139:0.039330892 9172:0.067236607 9199:0.052283692 9218:0.067236607 9279:0.010220176 9296:0.03599389 9339:0.045591254 9461:0.072839652 9462:0.0032885115 9478:0.067236607 9498:0.067236607 9499:0.036345984 9509:0.067236607 9517:0.067236607 9623:0.015764651 9665:0.067236607 9687:0.039330892 9693:0.0013535214 9773:0.017685544 9780:0.067236607 9788:0.034598153 9828:0.067236607 9863:0.067236607 9868:0.0097082836 9897:0.067236607 
0.6722173690328865 2:0.07523921 58:0.040157913 61:0.056662601 85:0.01969334 98:0.071306801 129:0.087374331 142:0.021259348 200:0.016031604 243:0.096757306 295:0.023716424 434:0.0068106754 562:0.040157913 587:0.096757306 681:0.05346238 690:0.096757306 729:0.054593843 790:0.035328138 915:0.096757306 935:0.0090090224 938:0.016441486 983:0.012374807 1048:0.045426135 1085:0.096757306 1099:0.058312193 1151:0.013158202 1175:0.036432314 1197:0.096757306 1209:0.040157913 1227:0.096757306 1231:0.0046534095 1272:0.056599393 1285:0.046968588 1286:0.056662601 1314:0.040157913 1347:0.026853443 1381:0.031148895 1503:0.0064937962 1593:0.040157913 1621:0.060133543 1690:0.02909123 1716:0.019975628 1737:0.035081301 1740:0.096757306 1782:0.014970545 1799:0.03217909 1873:0.096757306 1887:0.040157913 1896:0.015819697 1933:0.02595973 1942:0.0077567764 1948:0.096757306 2002:0.05230394 2011:0.096757306 2028:0.027459035 2170:0.096757306 2195:0.025450504 2221:0.040157913 2329:0.0054748645 2354:0.033664118 2384:0.016441486 2466:0.096757306 2500:0.015105672 2512:0.0099750428 2516:0.0085219076 2564:0.049788712 2571:0.096757306 2607:0.026528427 2611:0.096757306 2631:0.066815663 2658:0.096757306 2697:0.012146034 2779:0.096757306 2807:0.096757306 2830:0.041984554 2847:0.065608411 2855:0.013304474 2867:0.096757306 2890:0.018639825 2894:0.028984651 3057:0.096757306 3077:0.00916789 3111:0.022086691 3120:0.0077567764 3121:0.040157913 3125:0.033176887 3133:0.029747286 3164:0.012146034 3186:0.01961039 3191:0.014707415 3197:0.12094663 3210:0.0084626682 3221:0.056599393 3234:0.071075774 3264:0.049929554 3271:0.025450504 3278:0.096757306 3280:0.11623735 3300:0.034860677 3363:0.096757306 3435:0.065608411 3442:0.056662601 3567:0.040157913 3575:0.1069602 3576:0.02820116 3671:0.017114211 3689:0.040157913 3815:0.096757306 3891:0.096757306 3931:0.10482041 3986:0.096757306 4080:0.011206903 4081:0.065608411 4244:0.096757306 4297:0.096757306 4308:0.12900975 4455:0.025450504 4462:0.033664118 4478:0.025450504 4499:0.096757306 4503:0.016441486 4561:0.040157913 4744:0.0025152237 4747:0.027205832 4773:0.04018067 4891:0.13707284 5105:0.10482041 5131:0.010882745 5230:0.056599393 5239:0.056599393 5424:0.096757306 5451:0.014707415 5498:0.025450504 5516:0.056599393 5551:0.011500536 5578:0.040157913 5615:0.028011879 5626:0.040157913 5627:0.096757306 5631:0.014707415 5639:0.096757306 5679:0.096757306 5687:0.035081301 5712:0.096757306 5763:0.040157913 5806:0.096757306 5828:0.049788712 5841:0.096757306 5842:0.010344834 5868:0.037573294 5912:0.0079457875 5935:0.027986929 5947:0.016441486 5985:0.040157913 6000:0.096757306 6004:0.020464567 6094:0.078454004 6128:0.010884119 6155:0.096757306 6187:0.096757306 6194:0.018639825 6280:0.082049892 6291:0.096757306 6301:0.025450504 6347:0.040157913 6423:0.031148895 6428:0.031148895 6507:0.11288352 6536:0.061676002 6585:0.096757306 6588:0.082049892 6663:0.040157913 6690:0.021518086 6698:0.012609288 6733:0.096757306 6890:0.026897607 6912:0.02445696 6955:0.056599393 6980:0.071306801 6982:0.040157913 6997:0.096757306 7001:0.096757306 7023:0.040157913 7030:0.096757306 7080:0.096757306 7096:0.053835115 7100:0.018639825 7114:0.096757306 7196:0.10482041 7210:0.096757306 7227:0.040157913 7248:0.10482041 7282:0.023319286 7291:0.056599393 7354:0.041575087 7371:0.0047579969 7385:0.031148895 7389:0.013304474 7418:0.096757306 7447:0.096757306 7547:0.033664118 7607:0.068193695 7643:0.096757306 7649:0.02457675 7736:0.096757306 7831:0.0044318375 7911:0.025450504 7929:0.061676002 7939:0.096757306 7963:0.0090090224 7971:0.0090090224 7976:0.01877015 7988:0.096757306 8016:0.035990699 8060:0.056599393 8081:0.0086372658 8151:0.097646846 8194:0.014707415 8281:0.032997811 8291:0.032666714 8333:0.056599393 8378:0.096757306 8403:0.0028323664 8449:0.040157913 8453:0.025450504 8457:0.065608411 8466:0.032297509 8498:0.096757306 8616:0.040157913 8722:0.025450504 8766:0.027398638 8774:0.019331457 8858:0.096757306 8932:0.014707415 8934:0.013304474 8982:0.056599393 9037:0.096757306 9046:0.0064937962 9073:0.043294926 9223:0.056599393 9235:0.10482041 9237:0.0047323554 9296:0.051797258 9351:0.025450504 9358:0.035990699 9372:0.021518086 9380:0.096757306 9424:0.0090090224 9439:0.012146034 9676:0.013693484 9693:0.0014067402 9700:0.096757306 9716:0.0042518318 9718:0.096757306 9802:0.049788712 9846:0.096757306 9899:0.056599393 9915:0.12094663 9916:0.018639825 
0.7312372642651661 19:0.034679121 61:0.050814058 85:0.017006555 142:0.016946687 277:0.051218262 325:0.053261473 369:0.083556598 370:0.05665738 377:0.083556598 405:0.083556598 490:0.083556598 521:0.0089334757 537:0.083556598 582:0.083556598 620:0.012700866 675:0.083556598 676:0.083556598 681:0.046168447 729:0.043518964 730:0.03901401 746:0.083556598 754:0.083556598 786:0.083556598 868:0.0045494744 900:0.059366405 941:0.018582348 959:0.083556598 983:0.010304836 1019:0.083556598 1099:0.056651167 1161:0.083556598 1203:0.083556598 1238:0.064493974 1314:0.034679121 1379:0.048877473 1503:0.00560784 1574:0.026676863 1611:0.0077799108 1810:0.009356465 1896:0.015369071 1900:0.083556598 1933:0.028453634 2077:0.079712693 2189:0.018582348 2193:0.048877473 2300:0.0084332742 2336:0.029071283 2339:0.048877473 2351:0.048877473 2406:0.083556598 2416:0.083556598 2460:0.083556598 2494:0.11489031 2500:0.014675386 2632:0.083556598 2639:0.083556598 2736:0.021978263 2768:0.083556598 2865:0.057810939 2973:0.083556598 3004:0.083556598 3044:0.048877473 3120:0.0061832408 3133:0.023712767 3145:0.083556598 3186:0.015632236 3238:0.062840612 3243:0.083556598 3295:0.061578334 3300:0.02778886 3338:0.083556598 3492:0.017339032 3511:0.083556598 3569:0.1253349 3592:0.083556598 3636:0.083556598 3642:0.036607907 3659:0.012700866 3710:0.083556598 3757:0.083556598 3807:0.048877473 3808:0.048877473 3885:0.05665738 4022:0.09400117 4114:0.061578334 4128:0.083556598 4129:0.0077799108 4148:0.083556598 4261:0.034679121 4275:0.034679121 4334:0.074623118 4359:0.02816149 4439:0.036812739 4453:0.061578334 4480:0.021978263 4496:0.03901401 4582:0.012700866 4590:0.083556598 4666:0.048877473 4691:0.083556598 4744:0.0021720689 4747:0.02013781 4755:0.034679121 4768:0.034679121 4818:0.083556598 4828:0.034679121 4855:0.083556598 4927:0.048877473 4968:0.083556598 5030:0.083556598 5094:0.0052166044 5098:0.10444575 5131:0.0093979992 5145:0.069358241 5174:0.083556598 5177:0.025980173 5182:0.1253349 5246:0.05665738 5288:0.034679121 5347:0.083556598 5360:0.083556598 5376:0.083556598 5393:0.083556598 5413:0.083556598 5415:0.083556598 5439:0.053261473 5517:0.034679121 5532:0.083556598 5589:0.021978263 5618:0.021978263 5682:0.083556598 5740:0.030295118 5759:0.083556598 5824:0.010488936 5905:0.016847836 5912:0.0058814868 5922:0.048877473 5951:0.083556598 5968:0.061578334 5993:0.083556598 5999:0.061578334 6082:0.083556598 6106:0.020480766 6115:0.083556598 6120:0.083556598 6128:0.0086761728 6131:0.01005016 6195:0.061578334 6327:0.083556598 6408:0.061578334 6420:0.07035622 6428:0.026899216 6527:0.013095447 6530:0.083556598 6600:0.083556598 6627:0.034679121 6640:0.083556598 6672:0.034679121 6741:0.083556598 6778:0.083556598 6845:0.034679121 6857:0.0068902631 6873:0.0015966667 6878:0.083556598 6890:0.018582348 6957:0.083556598 6967:0.010488936 6968:0.09400117 6969:0.083556598 7011:0.10444575 7026:0.083556598 7058:0.083556598 7127:0.09400117 7142:0.083556598 7160:0.083556598 7202:0.034679121 7244:0.044486252 7273:0.026899216 7281:0.034679121 7289:0.029071283 7295:0.02816149 7334:0.034679121 7345:0.034679121 7371:0.0037927922 7390:0.083556598 7420:0.083556598 7447:0.083556598 7448:0.083556598 7497:0.083556598 7539:0.040560609 7559:0.053261473 7584:0.034679121 7715:0.012700866 7727:0.048877473 7835:0.048877473 7854:0.083556598 7874:0.034679121 7969:0.083556598 7976:0.011441871 8096:0.064493974 8109:0.083556598 8166:0.083556598 8222:0.083556598 8246:0.061578334 8248:0.019591124 8287:0.083556598 8291:0.023080874 8367:0.083556598 8394:0.083556598 8457:0.063739552 8570:0.09400117 8601:0.012700866 8616:0.047683791 8625:0.064786743 8716:0.048877473 8743:0.083556598 8749:0.083556598 8766:0.021840565 8774:0.015409887 8781:0.034679121 8856:0.021978263 8879:0.045168056 8892:0.14622403 8966:0.083556598 9046:0.00560784 9048:0.042995984 9094:0.024725545 9139:0.048877473 9160:0.083556598 9199:0.073096016 9245:0.083556598 9250:0.083556598 9251:0.083556598 9280:0.010051374 9293:0.026064974 9346:0.030295118 9351:0.021978263 9358:0.031080444 9379:0.083556598 9440:0.083556598 9455:0.044730496 9462:0.0040867147 9473:0.083556598 9503:0.034679121 9518:0.034679121 9524:0.05665738 9556:0.048877473 9693:0.0011213697 9713:0.016096772 9866:0.083556598 9895:0.010488936 9910:0.083556598 9929:0.083556598 
0.860288404954078 
0.7425258734987239 2:0.08053715 42:0.0084790398 120:0.013001292 123:0.05329457 126:0.10357044 142:0.021005832 165:0.10357044 290:0.024386193 347:0.10357044 428:0.10357044 441:0.060584816 511:0.019952341 538:0.10357044 578:0.063486279 598:0.10357044 607:0.10357044 681:0.057226913 706:0.10357044 719:0.10178934 729:0.053942816 747:0.019952341 750:0.0076642776 768:0.019952341 800:0.10357044 836:0.042985619 988:0.042985619 1035:0.10357044 1048:0.0486248 1066:0.076327841 1094:0.10357044 1146:0.033296501 1193:0.10357044 1229:0.05329457 1231:0.0045979179 1313:0.10357044 1410:0.030269546 1411:0.070228206 1576:0.10357044 1675:0.10357044 1679:0.048161004 1748:0.10357044 1758:0.042985619 1782:0.01602469 1885:0.18412521 1894:0.13809391 2021:0.076327841 2047:0.10357044 2137:0.021905571 2151:0.087827403 2152:0.12721307 2173:0.019952341 2219:0.013001292 2251:0.05329457 2451:0.10357044 2483:0.10357044 2527:0.10357044 2556:0.027242592 2567:0.10357044 2603:0.042985619 2642:0.10357044 2676:0.01444588 2731:0.029392551 2755:0.10357044 2822:0.063486279 3002:0.060584816 3062:0.042985619 3127:0.10357044 3170:0.10357044 3255:0.055986907 3282:0.10357044 3464:0.038488983 3576:0.030186934 3593:0.13471103 3619:0.10357044 3725:0.10357044 3742:0.10357044 3840:0.026981858 3873:0.042985619 3985:0.050275866 4009:0.10357044 4086:0.10357044 4114:0.076327841 4115:0.05182964 4181:0.047761798 4281:0.10357044 4359:0.034906853 4426:0.10357044 4469:0.020745015 4557:0.10357044 4575:0.10357044 4585:0.10357044 4671:0.060584816 4755:0.042985619 4806:0.10357044 4861:0.10357044 4871:0.0076642776 5068:0.042985619 5093:0.060584816 5094:0.0057476524 5099:0.10357044 5130:0.060584816 5138:0.10357044 5275:0.070228206 5480:0.10357044 5667:0.10357044 5686:0.042985619 5700:0.042985619 5722:0.018319302 5868:0.037125235 5985:0.042985619 5997:0.10357044 6019:0.019952341 6024:0.013001292 6097:0.036034566 6314:0.055862072 6316:0.10357044 6338:0.10357044 6356:0.08053715 6363:0.10924387 6588:0.087827403 6646:0.10357044 6779:0.070228206 6857:0.0085406489 6858:0.10357044 7020:0.019952341 7096:0.057625895 7100:0.019952341 7104:0.05329457 7205:0.042985619 7354:0.04450258 7371:0.0052236206 7403:0.076327841 7539:0.050275866 7552:0.042985619 7556:0.0019791073 7607:0.051526261 7627:0.033342231 7913:0.10357044 7955:0.10357044 7976:0.01733414 8036:0.011073262 8129:0.040751614 8144:0.10357044 8199:0.18412521 8237:0.058157646 8291:0.027549702 8297:0.042985619 8304:0.10357044 8372:0.047761798 8457:0.070228206 8490:0.10357044 8601:0.017492258 8647:0.027242592 8690:0.10357044 8769:0.10357044 8835:0.10357044 8940:0.027242592 8946:0.10357044 8995:0.10357044 9009:0.011073262 9053:0.027242592 9090:0.10357044 9237:0.0050655823 9352:0.047761798 9588:0.036034566 9615:0.034472882 9693:0.001389965 9716:0.005056914 9744:0.10357044 9785:0.10357044 9890:0.042985619 9893:0.015743032 9901:0.078031339 9916:0.019952341 
0.6329352079454605 3:0.016794188 59:0.067738306 73:0.0093142572 85:0.013787004 105:0.049920799 110:0.067738306 113:0.021806862 157:0.021806862 166:0.079028015 259:0.013049454 262:0.031121116 284:0.039624363 380:0.067738306 422:0.067738306 435:0.067738306 436:0.067738306 437:0.067738306 443:0.011510431 449:0.032881986 566:0.067738306 681:0.037428191 693:0.028113937 708:0.067738306 714:0.067738306 721:0.052673816 729:0.035280287 739:0.067738306 744:0.04593144 748:0.04209857 758:0.067738306 776:0.028113937 779:0.017817507 805:0.028113937 815:0.039624363 821:0.067738306 832:0.067738306 936:0.011510431 995:0.067738306 1002:0.052673816 1006:0.067738306 1043:0.053753669 1099:0.040823471 1106:0.028113937 1151:0.0085032514 1183:0.039624363 1217:0.036617188 1229:0.034856312 1279:0.067738306 1343:0.028113937 1360:0.028113937 1378:0.028113937 1379:0.039624363 1382:0.013049454 1447:0.013049454 1474:0.017244328 1488:0.0031026615 1495:0.067738306 1498:0.017575227 1554:0.067738306 1555:0.052673816 1574:0.019223648 1602:0.079028015 1619:0.067738306 1621:0.04209857 1624:0.067738306 1683:0.067738306 1694:0.067738306 1727:0.039624363 1736:0.067738306 1746:0.0085032514 1769:0.028113937 1770:0.058093855 1799:0.022528086 1855:0.067738306 1856:0.067738306 1859:0.052832483 1872:0.067738306 1888:0.079028015 1933:0.022368011 1936:0.018529327 1951:0.039624363 2021:0.049920799 2074:0.067738306 2147:0.067738306 2149:0.0067423744 2213:0.067738306 2216:0.039624363 2226:0.054688852 2236:0.067738306 2249:0.028113937 2260:0.012012507 2266:0.067738306 2267:0.017817507 2269:0.079028015 2270:0.019610685 2290:0.056148879 2300:0.0079762092 2323:0.067738306 2384:0.011510431 2395:0.079028015 2424:0.015064481 2426:0.028113937 2514:0.039624363 2516:0.0055071295 2635:0.013049454 2737:0.067738306 2782:0.067738306 2830:0.027131762 2884:0.067738306 2896:0.067738306 2932:0.067738306 2972:0.067738306 3020:0.067738306 3037:0.079028015 3052:0.067738306 3067:0.067738306 3111:0.020616737 3131:0.067738306 3133:0.019223648 3137:0.067738306 3142:0.067738306 3186:0.012672861 3221:0.039624363 3234:0.04593144 3239:0.067738306 3264:0.034954913 3344:0.067738306 3362:0.067738306 3380:0.067738306 3419:0.067738306 3435:0.04593144 3455:0.067738306 3459:0.053586681 3512:0.067738306 3608:0.067738306 3628:0.079028015 3650:0.067738306 3793:0.054688852 3800:0.067738306 3811:0.020085975 3813:0.067738306 3816:0.067738306 3904:0.067738306 3922:0.067738306 3933:0.0063070785 3982:0.022528086 4036:0.067738306 4046:0.028113937 4058:0.079028015 4060:0.049632051 4077:0.039624363 4099:0.067738306 4101:0.0085032514 4133:0.04593144 4175:0.067738306 4188:0.067738306 4305:0.067738306 4324:0.04593144 4344:0.067738306 4359:0.022830174 4390:0.067738306 4392:0.067738306 4400:0.057441869 4401:0.079028015 4436:0.05069949 4467:0.028113937 4469:0.018090518 4478:0.017817507 4565:0.039624363 4629:0.0019743229 4671:0.039624363 4698:0.0078222343 4714:0.067738306 4729:0.067738306 4817:0.10160745 4863:0.067738306 4872:0.067738306 4875:0.028113937 4925:0.028113937 5009:0.024559881 5038:0.067738306 5084:0.039624363 5149:0.067738306 5160:0.067738306 5163:0.067738306 5165:0.017817507 5171:0.028113937 5186:0.067738306 5195:0.067738306 5280:0.028113937 5283:0.052832483 5299:0.067738306 5315:0.0093142572 5348:0.014613093 5399:0.028113937 5471:0.067738306 5615:0.019610685 5620:0.020871684 5630:0.067738306 5631:0.010296436 5687:0.024559881 5688:0.079028015 5692:0.067738306 5712:0.067738306 5740:0.024559881 5787:0.067738306 5790:0.019223648 5798:0.067738306 5842:0.0072422595 5868:0.032374754 5889:0.039624363 5905:0.01593472 5912:0.004768049 5932:0.028113937 5957:0.067738306 6019:0.013049454 6043:0.049920799 6094:0.059149398 6106:0.019370754 6151:0.054688852 6173:0.017817507 6223:0.011510431 6261:0.067738306 6361:0.067738306 6390:0.028113937 6408:0.049920799 6415:0.067738306 6420:0.059149398 6455:0.023756675 6467:0.039624363 6470:0.067738306 6502:0.0026061718 6510:0.039624363 6524:0.067738306 6527:0.010616317 6566:0.067738306 6611:0.067738306 6627:0.028113937 6634:0.079028015 6664:0.028113937 6668:0.067738306 6682:0.010296436 6779:0.04593144 6819:0.024559881 6889:0.067738306 6904:0.079028015 6959:0.067738306 6969:0.067738306 6997:0.090317735 7006:0.034856312 7010:0.067738306 7015:0.028113937 7041:0.079028015 7053:0.067738306 7115:0.067738306 7123:0.028113937 7125:0.067738306 7126:0.067738306 7152:0.067738306 7154:0.067738306 7164:0.067738306 7185:0.067738306 7199:0.059981619 7244:0.032057297 7257:0.079028015 7287:0.067738306 7295:0.022830174 7298:0.0027530244 7363:0.090317735 7371:0.00307477 7386:0.067738306 7407:0.028113937 7437:0.049067291 7455:0.067738306 7473:0.049920799 7510:0.067738306 7518:0.067738306 7528:0.067738306 7539:0.032881986 7541:0.028113937 7563:0.021806862 7574:0.067738306 7727:0.039624363 7738:0.067738306 7741:0.067738306 7795:0.0067423744 7824:0.067738306 7863:0.067738306 7899:0.067738306 7901:0.067738306 7926:0.067738306 7930:0.028113937 7938:0.067738306 7949:0.028113937 8016:0.025196533 8045:0.067738306 8049:0.013049454 8074:0.028113937 8081:0.0070546195 8187:0.031426988 8210:0.067738306 8246:0.049920799 8283:0.067738306 8291:0.012474253 8297:0.028113937 8313:0.067738306 8326:0.067738306 8414:0.04593144 8467:0.010296436 8597:0.079028015 8604:0.039624363 8618:0.028113937 8646:0.090317735 8648:0.067738306 8672:0.067738306 8679:0.067738306 8766:0.026558815 8777:0.067738306 8780:0.028113937 8798:0.017817507 8817:0.067738306 8846:0.039624363 8901:0.067738306 8950:0.067738306 8970:0.067738306 9006:0.022830174 9013:0.039624363 9018:0.049920799 9064:0.049920799 9089:0.067738306 9110:0.067738306 9114:0.039624363 9136:0.032799591 9150:0.039624363 9153:0.067738306 9190:0.067738306 9222:0.037428191 9299:0.024559881 9329:0.015064481 9336:0.067738306 9358:0.029395955 9441:0.039624363 9450:0.067738306 9455:0.036262466 9462:0.0038652238 9507:0.039624363 9533:0.067738306 9556:0.039624363 9564:0.028113937 9587:0.013049454 9588:0.023567732 9619:0.067738306 9694:0.028113937 9697:0.067738306 9769:0.043178422 9787:0.04593144 9820:0.032799591 9833:0.067738306 9855:0.039624363 9884:0.067738306 9895:0.0085032514 9928:0.039624363 
0.7205483882106487 2:0.068155449 16:0.036377051 58:0.036377051 61:0.04737953 162:0.087647618 171:0.036377051 205:0.087647618 264:0.087647618 413:0.012051859 434:0.0061694507 527:0.087647618 569:0.016884887 624:0.087647618 683:0.087647618 692:0.023054342 747:0.016884887 750:0.006485979 790:0.032494336 849:0.051270567 914:0.036377051 927:0.087647618 931:0.087647618 964:0.036377051 983:0.010569164 1082:0.02821623 1117:0.016884887 1151:0.011002487 1172:0.064593276 1200:0.036377051 1247:0.051270567 1301:0.087647618 1314:0.040014755 1380:0.013322714 1391:0.05943139 1403:0.026255749 1438:0.051270567 1553:0.087647618 1606:0.05943139 1666:0.041149271 1690:0.024325195 1716:0.018094927 1737:0.031778401 1754:0.013322714 1782:0.01356107 1802:0.0072276177 1866:0.087647618 1898:0.040014755 1919:0.051270567 1933:0.039072118 1989:0.087647618 2004:0.03966162 2024:0.087647618 2112:0.011002487 2149:0.0087240607 2336:0.030494645 2349:0.087647618 2391:0.087647618 2424:0.019492161 2500:0.015051822 2516:0.0085509105 2565:0.051270567 2604:0.029891073 2607:0.024030779 2640:0.087647618 2690:0.023054342 2745:0.087647618 2782:0.096412374 2821:0.087647618 2822:0.053725964 2829:0.087647618 2897:0.036377051 2960:0.087647618 3005:0.036377051 3021:0.087647618 3063:0.087647618 3075:0.055869215 3103:0.087647618 3111:0.020007232 3185:0.087647618 3186:0.016397609 3277:0.087647618 3283:0.087647618 3308:0.02821623 3342:0.087647618 3343:0.030494645 3396:0.087647618 3399:0.016884887 3589:0.05639762 3602:0.087647618 3609:0.087647618 3617:0.087647618 3626:0.012051859 3671:0.015502911 3768:0.036377051 3769:0.087647618 3770:0.087647618 3806:0.025359777 3809:0.036377051 3846:0.016884887 3879:0.087647618 3918:0.087647618 3947:0.087647618 4011:0.087647618 4014:0.051270567 4060:0.077063606 4064:0.087647618 4114:0.071052603 4125:0.036377051 4159:0.087647618 4205:0.03966162 4281:0.087647618 4310:0.023054342 4345:0.087647618 4380:0.087647618 4408:0.051270567 4436:0.065600842 4503:0.016382873 4534:0.087647618 4581:0.087647618 4637:0.036377051 4656:0.087647618 4663:0.033175638 4744:0.002278416 4771:0.036377051 4836:0.087647618 4892:0.087647618 4945:0.064593276 5015:0.087647618 5086:0.036377051 5102:0.087647618 5117:0.087647618 5130:0.051270567 5157:0.055869215 5172:0.087647618 5177:0.029977407 5260:0.087647618 5275:0.071317665 5300:0.087647618 5317:0.086815903 5467:0.064593276 5551:0.0089295109 5566:0.14900093 5597:0.012102734 5615:0.025374563 5735:0.043652459 5737:0.087647618 5778:0.016884887 5788:0.087647618 5790:0.02487377 5905:0.017672725 5931:0.087647618 5942:0.096412374 5947:0.014893521 6032:0.087647618 6034:0.036377051 6037:0.02821623 6060:0.05943139 6094:0.065600842 6101:0.051270567 6151:0.070762731 6210:0.02821623 6293:0.087647618 6408:0.064593276 6423:0.02821623 6451:0.087647618 6476:0.087647618 6480:0.087647618 6502:0.0033721654 6514:0.036377051 6745:0.036377051 6819:0.031778401 6912:0.022154339 6913:0.087647618 7008:0.023054342 7020:0.016884887 7095:0.087647618 7096:0.048766551 7194:0.087647618 7206:0.087647618 7244:0.041479419 7250:0.010307955 7371:0.0047741899 7373:0.021441376 7431:0.031683299 7437:0.069837797 7464:0.036377051 7474:0.087647618 7698:0.031778401 7701:0.02821623 7753:0.087647618 7825:0.087647618 7829:0.045101112 7893:0.087647618 7932:0.052117482 7939:0.087647618 7976:0.015602699 8000:0.087647618 8052:0.014893521 8062:0.087647618 8074:0.036377051 8075:0.036377051 8105:0.087647618 8188:0.087647618 8291:0.019368752 8328:0.051270567 8335:0.087647618 8357:0.020550326 8366:0.051270567 8394:0.087647618 8403:0.0021991712 8436:0.040014755 8518:0.025374563 8528:0.087647618 8577:0.05943139 8580:0.087647618 8616:0.036377051 8766:0.032073866 8776:0.087647618 8859:0.061456132 8878:0.087647618 8937:0.0053816101 8944:0.040014755 8954:0.1139419 8956:0.02821623 8977:0.087647618 8989:0.087647618 9013:0.051270567 9060:0.087647618 9114:0.051270567 9188:0.087647618 9191:0.087647618 9208:0.087647618 9259:0.018573376 9274:0.087647618 9279:0.013322714 9280:0.0105435 9296:0.046920551 9305:0.087647618 9338:0.036377051 9358:0.03260218 9384:0.064593276 9411:0.072754096 9413:0.036377051 9414:0.051270567 9417:0.05943139 9539:0.096412374 9587:0.016884887 9615:0.026255749 9652:0.087647618 9668:0.087647618 9701:0.036377051 9716:0.0042366749 9741:0.016884887 9892:0.087647618 
0.8460184341032601 12:0.16436567 142:0.029632119 282:0.028430633 357:0.067820979 391:0.053058379 392:0.085464667 497:0.011903113 621:0.023084345 649:0.12783996 719:0.11307736 725:0.14610283 911:0.020632975 964:0.053058379 1026:0.12783996 1100:0.086684688 1203:0.12783996 1231:0.0056753421 1258:0.038295783 1286:0.069106245 1379:0.074781581 1392:0.12783996 1412:0.12783996 1726:0.065783018 1780:0.12783996 1823:0.14610283 1933:0.036183696 1974:0.018340423 2156:0.0062525939 2193:0.074781581 2373:0.12783996 2424:0.028430633 2564:0.065783018 2731:0.036280072 2773:0.033626313 2819:0.033626313 3077:0.011181246 3186:0.023917019 3258:0.091757122 3559:0.020089657 3696:0.12783996 3705:0.053058379 3840:0.029974037 3882:0.12783996 3904:0.12783996 4023:0.12783996 4210:0.023084345 4306:0.024627747 4532:0.12783996 4537:0.12783996 4564:0.12783996 4649:0.057849145 4817:0.12783996 4871:0.0094602382 5096:0.074781581 5190:0.12783996 5246:0.086684688 5576:0.10611676 5637:0.12783996 5700:0.053058379 5730:0.12783996 5733:0.053058379 5746:0.12783996 5847:0.053058379 5868:0.045824746 5912:0.0089985608 5964:0.14610283 5987:0.12783996 6019:0.024627747 6112:0.033626313 6239:0.12783996 6245:0.12783996 6479:0.12783996 6527:0.020035778 6664:0.053058379 6723:0.12783996 6725:0.094213647 6746:0.12783996 6749:0.015620623 6905:0.10767275 6987:0.14610283 7006:0.065783018 7160:0.12783996 7371:0.0058028986 7403:0.12113184 7431:0.04201112 7466:0.12783996 7507:0.041155275 7538:0.12783996 7657:0.12783996 7723:0.14610283 7730:0.032492152 7812:0.024826523 7849:0.012724631 7961:0.12783996 8004:0.10321221 8036:0.013668044 8054:0.12783996 8081:0.011411931 8153:0.12783996 8201:0.12783996 8211:0.044478497 8250:0.090957231 8291:0.026905366 8346:0.12783996 8357:0.029974037 8384:0.074781581 8467:0.019432078 8529:0.033626313 8632:0.053058379 8763:0.065783018 8766:0.03341564 8828:0.053058379 8997:0.053058379 9046:0.0085798862 9078:0.12783996 9236:0.10321221 9293:0.039878902 9334:0.12783996 9425:0.12783996 9524:0.086684688 9582:0.053058379 9623:0.029974037 9743:0.044478497 9758:0.12783996 9775:0.016047868 
0.8358782606265981 68:0.02140472 126:0.1259657 142:0.02554797 238:0.069601212 392:0.088422243 412:0.013467656 434:0.0088666323 449:0.061147124 604:0.1259657 732:0.1259657 790:0.042454835 900:0.089497791 911:0.015812589 1081:0.005013467 1284:0.1259657 1285:0.061147124 1580:0.1259657 1595:0.1259657 1690:0.034959764 1754:0.019147182 1758:0.052280492 1816:0.15115883 1868:0.040551894 1933:0.037435863 2035:0.043826399 2085:0.085413803 2167:0.0033969309 2363:0.033133316 2383:0.20154511 2539:0.1259657 2594:0.1259657 2767:0.1259657 2830:0.050454046 2859:0.033133316 3046:0.033133316 3111:0.028754059 3186:0.02356637 3208:0.15115883 3225:0.062736587 3350:0.15115883 3420:0.028013809 3459:0.085413803 3548:0.1259657 3559:0.017320731 3659:0.019147182 3758:0.17635198 3861:0.1259657 3905:0.095606945 3933:0.0117286 3972:0.025685663 3985:0.061147124 4113:0.15115883 4115:0.088251637 4155:0.078286218 4210:0.022745906 4288:0.031230362 4455:0.033133316 4571:0.1259657 4607:0.1259657 4723:0.1259657 5094:0.009786671 5130:0.073685201 5131:0.017001538 5546:0.1259657 5584:0.052280492 5672:0.033133316 5865:0.15115883 5868:0.045152906 5935:0.037476433 6094:0.094280435 6135:0.015812589 6158:0.20154511 6274:0.034720489 6307:0.052280492 6527:0.019742033 6704:0.1259657 6764:0.1259657 6875:0.1259657 6883:0.043826399 7015:0.052280492 7020:0.024266679 7244:0.083458943 7259:0.1259657 7273:0.048662277 7298:0.0051195058 7334:0.052280492 7371:0.0057178219 7461:0.1259657 7501:0.1259657 7614:0.1259657 7683:0.040551894 7685:0.13499764 7705:0.1259657 7729:0.052280492 7759:0.1259657 8016:0.046855311 8380:0.15115883 8403:0.003160612 8448:0.033133316 8455:0.1259657 8554:0.1259657 8601:0.019147182 8617:0.1259657 8712:0.1259657 8766:0.039510879 8818:0.092832381 8828:0.052280492 8933:0.1259657 8972:0.15115883 9064:0.092832381 9100:0.1259657 9199:0.11754225 9296:0.067433436 9329:0.028013809 9372:0.028013809 9434:0.1259657 9455:0.067433436 9583:0.052280492 9693:0.0020286243 9735:0.1259657 9923:0.052280492 
0.5320952192520102 2:0.058542647 61:0.048096472 68:0.013955897 91:0.035345481 94:0.019802706 100:0.018265028 103:0.038558708 142:0.020821623 157:0.024236549 191:0.021602952 204:0.075285595 218:0.031246347 235:0.04403925 253:0.075285595 287:0.055482892 309:0.027296305 356:0.0087809246 363:0.013524311 434:0.0057810519 443:0.012792905 462:0.049610432 468:0.011443648 524:0.075285595 536:0.075285595 542:0.019802706 554:0.095818031 578:0.046148331 588:0.075285595 668:0.016742944 670:0.075285595 681:0.041598383 731:0.0094506709 745:0.013767034 753:0.075285595 756:0.075285595 784:0.031246347 790:0.025373877 796:0.075285595 853:0.075285595 868:0.004099137 914:0.031246347 953:0.075285595 970:0.075285595 978:0.075285595 1002:0.058542647 1048:0.035345481 1082:0.024236549 1143:0.026193611 1151:0.0094506709 1175:0.025126199 1202:0.058542647 1231:0.0033422377 1320:0.095818031 1321:0.014503403 1347:0.020894316 1377:0.075285595 1402:0.031246347 1438:0.04403925 1474:0.020907998 1513:0.0094506709 1518:0.075285595 1533:0.075285595 1650:0.075285595 1677:0.052046382 1678:0.075285595 1726:0.03873995 1754:0.011443648 1760:0.058542647 1802:0.006772602 1824:0.075285595 1830:0.031246347 1892:0.075285595 1896:0.0123091 1917:0.075285595 1933:0.022035194 1954:0.018265028 1986:0.075285595 2002:0.040697017 2012:0.019802706 2021:0.055482892 2028:0.021365519 2035:0.02857485 2062:0.014503403 2071:0.01248398 2094:0.04403925 2188:0.075285595 2219:0.010309822 2270:0.021795677 2300:0.0082892634 2409:0.075285595 2424:0.016742944 2432:0.075285595 2454:0.075285595 2516:0.0072335836 2558:0.031246347 2591:0.051049051 2607:0.020641424 2613:0.075285595 2625:0.075285595 2636:0.075285595 2652:0.032259266 2664:0.019802706 2731:0.023307837 2773:0.019802706 2798:0.08212975 2812:0.0055711818 2822:0.046148331 2842:0.08212975 2894:0.02255258 2915:0.021554583 2924:0.075285595 2957:0.031246347 2966:0.019802706 2975:0.075285595 2979:0.031246347 3008:0.031246347 3077:0.0065846919 3111:0.017185366 3118:0.034067654 3133:0.021365519 3137:0.075285595 3184:0.075285595 3186:0.015365293 3220:0.063841957 3234:0.055689874 3264:0.048435785 3291:0.08212975 3294:0.075285595 3297:0.075285595 3298:0.075285595 3299:0.031246347 3384:0.075285595 3421:0.075285595 3437:0.019802706 3462:0.075285595 3464:0.020983301 3492:0.013634355 3510:0.010033053 3526:0.0095126668 3540:0.031246347 3555:0.051049051 3576:0.027927397 3585:0.014503403 3629:0.055482892 3642:0.032984209 3772:0.051049051 3806:0.019802706 3811:0.016742944 3817:0.10226077 3820:0.03873995 3827:0.075285595 3840:0.017651862 3867:0.031246347 3932:0.075285595 3933:0.0070098028 3958:0.031246347 3981:0.014503403 4052:0.010691985 4082:0.075285595 4147:0.08212975 4210:0.013594489 4222:0.031246347 4243:0.014503403 4293:0.019802706 4338:0.075285595 4339:0.075285595 4403:0.04403925 4416:0.075285595 4421:0.075285595 4429:0.024236549 4436:0.056348347 4444:0.075285595 4464:0.018144435 4469:0.015079602 4488:0.011443648 4511:0.075285595 4613:0.075285595 4629:0.002194299 4644:0.03873995 4744:0.0019570629 4747:0.019793928 4750:0.024236549 4773:0.028859129 4788:0.075285595 4849:0.075285595 4899:0.011443648 4977:0.006772602 5007:0.075285595 5009:0.029777787 5027:0.08212975 5040:0.027612168 5075:0.012792905 5090:0.034086925 5108:0.060331106 5130:0.04403925 5133:0.019802706 5177:0.023408478 5222:0.019802706 5275:0.051049051 5284:0.04403925 5285:0.031246347 5362:0.027296305 5370:0.075285595 5375:0.077359156 5402:0.075285595 5403:0.08212975 5423:0.075285595 5445:0.075285595 5458:0.08212975 5489:0.075285595 5513:0.039867978 5535:0.014503403 5581:0.075285595 5584:0.031246347 5600:0.036927499 5624:0.075285595 5647:0.011443648 5660:0.075285595 5683:0.031246347 5731:0.031246347 5824:0.0094506709 5841:0.075285595 5868:0.029439736 5882:0.021602952 5910:0.075285595 5912:0.0057810519 5935:0.020362223 6004:0.015923212 6047:0.021602952 6094:0.061470926 6099:0.075285595 6104:0.075285595 6128:0.007817346 6148:0.052046382 6197:0.075285595 6251:0.026193611 6280:0.063841957 6420:0.056348347 6445:0.051049051 6525:0.075285595 6536:0.052351958 6619:0.075285595 6673:0.019802706 6682:0.011443648 6725:0.060526797 6749:0.0080491807 6768:0.075285595 6873:0.0014386178 6886:0.031246347 6905:0.055482892 6912:0.027679478 6941:0.075285595 6950:0.075285595 7022:0.075285595 7025:0.051049051 7036:0.031246347 7038:0.075285595 7098:0.075285595 7104:0.042261762 7127:0.10950633 7138:0.075285595 7282:0.018144435 7295:0.025373877 7354:0.032349036 7371:0.0034173562 7373:0.016742944 7380:0.011443648 7400:0.075285595 7404:0.088973886 7416:0.08212975 7441:0.075285595 7497:0.075285595 7533:0.04403925 7555:0.075285595 7556:0.0017001846 7620:0.027296305 7649:0.017651862 7671:0.051049051 7698:0.029777787 7720:0.031246347 7743:0.075285595 7760:0.075285595 7769:0.014503403 7772:0.019802706 7777:0.075285595 7831:0.0034483549 7849:0.0074935992 7875:0.075285595 7877:0.036545647 7892:0.075285595 7918:0.019802706 7937:0.040697017 7976:0.011246485 7987:0.075285595 8028:0.075285595 8051:0.075285595 8074:0.034086925 8089:0.075285595 8126:0.014503403 8135:0.06918676 8139:0.031246347 8149:0.025473596 8151:0.060782197 8187:0.034928535 8196:0.075285595 8198:0.075285595 8256:0.031246347 8291:0.021426361 8320:0.019802706 8322:0.028496471 8394:0.075285595 8414:0.051049051 8437:0.075285595 8448:0.021602952 8454:0.075285595 8464:0.016742944 8467:0.011443648 8483:0.1368829 8527:0.088973886 8600:0.075285595 8601:0.011443648 8625:0.042453611 8638:0.075285595 8675:0.075285595 8688:0.075285595 8766:0.019678639 8816:0.01248398 8817:0.075285595 8903:0.031246347 8982:0.04403925 9018:0.055482892 9034:0.04403925 9040:0.031246347 9053:0.019802706 9062:0.10266218 9087:0.075285595 9136:0.034086925 9145:0.075285595 9167:0.014503403 9169:0.075285595 9202:0.011443648 9232:0.075285595 9237:0.0036821841 9259:0.014503403 9286:0.03873995 9300:0.075285595 9339:0.051049051 9358:0.028003894 9408:0.075285595 9462:0.0036821841 9478:0.075285595 9538:0.068173851 9556:0.04403925 9560:0.075285595 9568:0.04403925 9572:0.075285595 9588:0.026193611 9635:0.019802706 9639:0.0046471865 9703:0.065834932 9727:0.011443648 9787:0.051049051 9816:0.062492694 9908:0.014503403 9919:0.075285595 
0.7341368610683953 23:0.0429203 43:0.10341306 48:0.027201196 51:0.079102296 53:0.050199467 85:0.021048008 142:0.020973914 200:0.017623942 238:0.057139958 284:0.060492758 287:0.076211862 448:0.023731425 455:0.022998274 475:0.053213584 512:0.076211862 516:0.10341306 668:0.022998274 681:0.057139958 806:0.10341306 826:0.10341306 837:0.019922022 868:0.0056306159 869:0.10341306 1043:0.123095 1049:0.0037772607 1143:0.035979809 1144:0.10341306 1175:0.029203818 1202:0.080414774 1203:0.10341306 1231:0.0050500241 1277:0.10341306 1352:0.070121493 1447:0.019922022 1512:0.10341306 1543:0.10453921 1545:0.014496193 1586:0.10341306 1611:0.011554484 1666:0.048550914 1757:0.0429203 1782:0.019200408 1799:0.034392629 1852:0.10341306 1879:0.033291568 1933:0.035855661 2050:0.027201196 2149:0.010293284 2156:0.0050578853 2219:0.012981537 2233:0.10341306 2260:0.017291021 2300:0.0114811 2304:0.0429203 2335:0.012981537 2374:0.0429203 2384:0.017572464 2433:0.10341306 2512:0.010661207 2532:0.10341306 2556:0.027201196 2583:0.10341306 2600:0.10341306 2604:0.038794436 2700:0.10341306 2830:0.049705024 2915:0.029607593 2986:0.10341306 3015:0.10341306 3104:0.10341306 3111:0.023605993 3113:0.10341306 3186:0.021281804 3264:0.045740668 3425:0.10341306 3431:0.10341306 3467:0.083491036 3585:0.019922022 3610:0.0429203 3615:0.027201196 3626:0.014219663 3781:0.10341306 3811:0.022998274 3860:0.070121493 4060:0.064946622 4072:0.10341306 4115:0.06210106 4135:0.022998274 4163:0.10341306 4182:0.10341306 4208:0.03097845 4395:0.066542029 4409:0.060492758 4464:0.024923376 4465:0.08633863 4469:0.020713492 4542:0.11375436 4601:0.10341306 4633:0.10341306 4636:0.022998274 4663:0.03914304 4773:0.039641193 4814:0.10341306 4871:0.0076526315 4874:0.070121493 4905:0.060492758 4912:0.0429203 4965:0.027201196 4966:0.060492758 4973:0.065918578 4975:0.0429203 4997:0.029938762 5014:0.10341306 5040:0.032093222 5054:0.10341306 5064:0.065918578 5133:0.027201196 5136:0.10341306 5177:0.032154122 5198:0.012981537 5235:0.063856301 5268:0.019922022 5272:0.10341306 5275:0.070121493 5310:0.10341306 5372:0.10341306 5468:0.10341306 5598:0.10341306 5631:0.015719111 5681:0.065918578 5687:0.037494477 5778:0.019922022 5834:0.10341306 5868:0.044482587 5912:0.0072791684 5917:0.060492758 5972:0.10341306 6038:0.035979809 6094:0.085140721 6128:0.011811783 6250:0.065918578 6274:0.0427563 6334:0.10341306 6346:0.019922022 6502:0.0039787269 6527:0.01620746 6684:0.060492758 6698:0.012439991 6752:0.10341306 6795:0.015719111 6834:0.0429203 6861:0.10341306 6905:0.076211862 6912:0.026139306 6999:0.12062215 7033:0.080414774 7080:0.10341306 7088:0.10341306 7104:0.053213584 7190:0.10341306 7202:0.0429203 7244:0.048940446 7275:0.10341306 7298:0.0042029201 7354:0.044434961 7365:0.0429203 7371:0.0061023492 7385:0.033291568 7431:0.037382269 7447:0.10341306 7467:0.10341306 7556:0.0019761 7585:0.015641628 7658:0.10341306 7679:0.10341306 7680:0.0429203 7831:0.0047366952 7963:0.009628736 7971:0.009628736 7976:0.015577019 8149:0.029607593 8235:0.025898627 8241:0.10341306 8291:0.034278999 8308:0.062842316 8357:0.024246774 8384:0.060492758 8409:0.10341306 8467:0.015719111 8484:0.015719111 8577:0.070121493 8616:0.0429203 8766:0.032436933 8771:0.0429203 8941:0.10341306 8951:0.10341306 8962:0.10341306 8997:0.0429203 8998:0.070121493 9018:0.076211862 9026:0.027201196 9137:0.10341306 9151:0.10341306 9152:0.024246774 9280:0.012439991 9323:0.10341306 9358:0.038466432 9455:0.060896321 9463:0.10341306 9576:0.008527671 9629:0.10341306 9715:0.10341306 9792:0.10341306 9816:0.094424645 9841:0.027201196 
0.8147174894855203 61:0.063617367 73:0.016182251 102:0.048844129 113:0.037886447 142:0.031824955 202:0.11768606 212:0.030955487 277:0.072138836 325:0.075016616 338:0.042669442 448:0.027006819 575:0.11768606 613:0.030955487 650:0.11768606 688:0.11768606 734:0.11768606 868:0.0064077493 908:0.056984814 936:0.019997804 954:0.13730039 973:0.086730576 983:0.012901283 1089:0.030955487 1175:0.033234511 1231:0.0052245685 1266:0.15691474 1284:0.11768606 1301:0.11768606 1314:0.065125505 1498:0.02617248 1545:0.016496948 1555:0.091513568 1574:0.033398466 1714:0.048844129 1795:0.11768606 1925:0.055251873 1933:0.034003694 2005:0.056984814 2018:0.048844129 2035:0.047770002 2050:0.030955487 2090:0.051969786 2112:0.017235445 2145:0.11768606 2167:0.0037025948 2173:0.022671646 2208:0.11768606 2280:0.11768606 2300:0.011877922 2329:0.007768933 2406:0.11768606 2495:0.048844129 2534:0.037886447 2612:0.11768606 2639:0.11768606 2687:0.095014418 2698:0.11768606 2776:0.15691474 2796:0.11768606 2878:0.023851536 3042:0.036114732 3123:0.13730039 3133:0.033398466 3164:0.014773239 3186:0.02568693 3198:0.13730039 3210:0.010293157 3264:0.052053764 3308:0.044200854 3404:0.030955487 3456:0.11768606 3524:0.13730039 3560:0.030955487 3585:0.022671646 3654:0.11768606 3811:0.02617248 3842:0.048844129 3872:0.11768606 3939:0.07979961 4065:0.048844129 4133:0.07979961 4210:0.021250833 4278:0.048844129 4481:0.048844129 4544:0.11768606 4567:0.11768606 4597:0.11768606 4744:0.0030592704 4773:0.052631176 4802:0.11768606 5044:0.15691474 5094:0.0065309998 5131:0.013236699 5164:0.11768606 5317:0.1059721 5436:0.11768606 5451:0.017888652 5512:0.11768606 5615:0.034070889 5631:0.017888652 5868:0.042185039 6072:0.030955487 6094:0.088083446 6190:0.022671646 6261:0.19614342 6380:0.063617367 6407:0.11768606 6581:0.11768606 6685:0.15691474 6727:0.093099545 6796:0.022671646 6939:0.11768606 7024:0.13730039 7200:0.15691474 7298:0.0047830043 7317:0.11768606 7577:0.11768606 7585:0.016182251 7795:0.011713956 7831:0.0053904509 7976:0.018801309 8124:0.048844129 8187:0.054600104 8281:0.040135289 8291:0.032508468 8322:0.044545534 8457:0.07979961 8467:0.020870092 8518:0.034070889 8594:0.07979961 8766:0.041015395 8843:0.11768606 9046:0.0078984139 9227:0.0097046548 9265:0.11768606 9280:0.014156951 9366:0.057127964 9417:0.07979961 9423:0.17652908 9424:0.010957688 9433:0.13730039 9524:0.07979961 9547:0.02617248 9603:0.11768606 9676:0.014276062 9806:0.076170619 9843:0.11768606 
0.3956788241091013 61:0.050562297 73:0.012861453 126:0.0857408 142:0.017389681 228:0.0857408 238:0.051682158 287:0.063188018 309:0.031087049 325:0.054653751 333:0.0857408 352:0.047375313 370:0.058138432 424:0.054714711 462:0.056500026 472:0.0857408 479:0.022552785 629:0.027602373 636:0.035585649 729:0.044656569 736:0.022552785 780:0.027602373 790:0.031524705 802:0.0857408 808:0.0857408 849:0.050155153 850:0.0857408 862:0.035585649 874:0.044119918 881:0.0857408 904:0.06005626 936:0.014569506 983:0.01025378 1027:0.0857408 1066:0.063188018 1081:0.0028437548 1151:0.010763123 1160:0.058138432 1189:0.0857408 1343:0.035585649 1382:0.018019144 1488:0.0039272414 1551:0.0857408 1567:0.0857408 1638:0.0857408 1643:0.063188018 1654:0.0857408 1688:0.14030313 1746:0.010763123 1760:0.066672693 1782:0.013266042 1802:0.0070703782 1811:0.050155153 1896:0.014018513 1933:0.028956124 1961:0.0857408 2005:0.035585649 2012:0.022552785 2052:0.035585649 2077:0.072707938 2089:0.0857408 2101:0.050155153 2127:0.0857408 2167:0.0023121817 2184:0.069223258 2189:0.019068102 2237:0.0857408 2255:0.0857408 2258:0.0857408 2300:0.0086537232 2324:0.050155153 2388:0.048130818 2390:0.0857408 2500:0.013385785 2516:0.0069707346 2536:0.0857408 2545:0.050155153 2589:0.035585649 2591:0.058138432 2607:0.023507979 2676:0.010763123 2687:0.075516285 2693:0.050155153 2697:0.010763123 2724:0.058138432 2746:0.0857408 2812:0.0063448736 2823:0.0857408 2830:0.034342446 2857:0.0857408 2867:0.0857408 2873:0.035585649 2909:0.054653751 2981:0.022552785 3027:0.03882071 3046:0.022552785 3077:0.0074991337 3111:0.019571965 3125:0.029399466 3155:0.046348771 3186:0.01604087 3211:0.10133004 3258:0.058743156 3264:0.041371688 3300:0.031107571 3346:0.0857408 3365:0.0857408 3463:0.0857408 3464:0.030414789 3492:0.015527811 3525:0.0857408 3535:0.10133004 3558:0.0857408 3559:0.011789665 3576:0.02499026 3589:0.050155153 3607:0.0857408 3626:0.011789665 3642:0.037564855 3683:0.13250852 3727:0.0857408 3745:0.035585649 3811:0.022535026 3815:0.093535429 3834:0.0857408 3835:0.0857408 3905:0.070992625 3947:0.0857408 3979:0.0857408 4052:0.012176823 4115:0.046807833 4125:0.035585649 4156:0.016517548 4210:0.015482408 4219:0.0857408 4268:0.0857408 4288:0.021257505 4293:0.022552785 4359:0.028897646 4436:0.064173661 4462:0.032543151 4464:0.020664223 4469:0.017173765 4543:0.035585649 4562:0.058138432 4585:0.093535429 4635:0.035585649 4645:0.0857408 4649:0.038798763 4663:0.032453887 4667:0.035585649 4744:0.0024314703 4773:0.032866909 4889:0.0857408 4945:0.063188018 4961:0.0063448736 4965:0.024603038 4989:0.0857408 5008:0.050155153 5033:0.035585649 5040:0.029027795 5105:0.0857408 5108:0.039779197 5119:0.016517548 5130:0.050155153 5177:0.02908288 5178:0.050155153 5222:0.022552785 5288:0.035585649 5304:0.0857408 5334:0.013032872 5361:0.059622279 5362:0.031087049 5399:0.035585649 5466:0.0857408 5480:0.0857408 5539:0.093535429 5550:0.0857408 5597:0.010763123 5610:0.0857408 5615:0.024822528 5621:0.0857408 5647:0.013032872 5683:0.03882071 5722:0.016544331 5740:0.033913145 5778:0.016517548 5843:0.050155153 5868:0.039116169 5912:0.0060352318 5918:0.0857408 5935:0.025122503 5981:0.016517548 6102:0.022552785 6135:0.010763123 6164:0.0857408 6169:0.050155153 6274:0.023633122 6289:0.0857408 6294:0.054714711 6314:0.0454046 6322:0.0857408 6445:0.058138432 6494:0.0857408 6498:0.0857408 6520:0.0857408 6543:0.013032872 6670:0.016517548 6682:0.013032872 6700:0.0857408 6727:0.058138432 6733:0.10133004 6753:0.14809775 6757:0.035585649 6762:0.0857408 6813:0.0857408 6888:0.03882071 6912:0.021672362 6938:0.012861453 6941:0.0857408 6944:0.0857408 7172:0.025684545 7202:0.035585649 7243:0.063188018 7244:0.044265839 7298:0.0034846834 7322:0.046348771 7354:0.036841473 7355:0.0857408 7371:0.0038919378 7437:0.079046139 7556:0.0022341878 7584:0.035585649 7613:0.027602373 7680:0.03882071 7700:0.0094347868 7736:0.0857408 7785:0.0857408 7816:0.079317748 7864:0.0857408 7914:0.093535429 7971:0.0087090352 8037:0.069223258 8074:0.03882071 8081:0.0076538523 8126:0.016517548 8137:0.011741588 8238:0.0857408 8253:0.035255078 8291:0.028708144 8362:0.0857408 8403:0.0021513273 8441:0.058138432 8449:0.035585649 8462:0.0857408 8519:0.0857408 8600:0.0857408 8602:0.0857408 8625:0.04834931 8633:0.058131182 8717:0.050155153 8766:0.022411489 8774:0.015812709 8803:0.093535429 8836:0.014569506 8905:0.0857408 8937:0.0052645306 9031:0.044119918 9034:0.050155153 9040:0.03882071 9208:0.093535429 9271:0.085927557 9313:0.035585649 9319:0.0857408 9335:0.0857408 9372:0.019068102 9373:0.035585649 9429:0.0857408 9499:0.046348771 9511:0.024822528 9540:0.035585649 9639:0.0048515125 9645:0.0857408 9716:0.0037677309 9752:0.03882071 9764:0.035585649 9872:0.0857408 9897:0.0857408 
0.6650970929879758 28:0.058599361 45:0.10840323 46:0.073505186 85:0.022063673 101:0.10840323 114:0.13249283 119:0.011589961 142:0.021986003 171:0.044991409 200:0.017105908 233:0.10840323 325:0.069099458 338:0.039303762 352:0.059897228 357:0.057509505 446:0.10840323 511:0.020883355 681:0.059897228 729:0.056459889 731:0.013607956 750:0.0080219072 832:0.10840323 941:0.024108049 983:0.011883657 1049:0.0039595314 1099:0.065330779 1231:0.0058819023 1403:0.032473306 1440:0.12044803 1488:0.0049652628 1507:0.066448669 1523:0.10840323 1548:0.10840323 1782:0.018636036 1799:0.036052234 1898:0.044991409 1919:0.063411818 1933:0.026847048 1991:0.10840323 2002:0.058599361 2021:0.079889441 2062:0.020883355 2065:0.020883355 2066:0.073505186 2101:0.063411818 2102:0.063411818 2149:0.01198887 2156:0.0053019519 2210:0.10840323 2260:0.016477632 2267:0.03168198 2329:0.0061338315 2391:0.10840323 2401:0.063411818 2414:0.10840323 2486:0.13249283 2498:0.077503335 2558:0.044991409 2574:0.044991409 2625:0.10840323 2629:0.049053783 2693:0.063411818 2830:0.048244011 2865:0.075001768 2878:0.01830848 3042:0.028513783 3077:0.0094812538 3210:0.010534727 3264:0.053275413 3407:0.063411818 3472:0.10840323 3562:0.10840323 3642:0.047493738 3703:0.063411818 3737:0.10840323 3783:0.10840323 3811:0.024108049 3982:0.036052234 4014:0.063411818 4029:0.12044803 4053:0.049990453 4115:0.06027568 4121:0.10840323 4146:0.10840323 4210:0.023924526 4333:0.061979325 4429:0.034898043 4464:0.029028942 4465:0.082277166 4475:0.13249283 4535:0.024108049 4871:0.0080219072 4891:0.10840323 4961:0.0080219072 5021:0.065874754 5031:0.10840323 5059:0.089839665 5094:0.0093579862 5198:0.013607956 5275:0.073505186 5362:0.039303762 5450:0.10840323 5461:0.12044803 5480:0.10840323 5498:0.028513783 5551:0.011044086 5592:0.070457573 5722:0.021304571 5790:0.030764062 5905:0.021857757 5966:0.10840323 6060:0.073505186 6078:0.10840323 6097:0.037716006 6106:0.026570984 6119:0.10840323 6128:0.011256144 6169:0.063411818 6297:0.073505186 6411:0.044991409 6420:0.081135602 6439:0.089839665 6527:0.016989547 6570:0.089982805 6586:0.063411818 6664:0.044991409 6770:0.10840323 6951:0.03168198 6964:0.10840323 7020:0.020883355 7064:0.052621832 7111:0.063411818 7250:0.011589961 7295:0.036535672 7337:0.12044803 7385:0.034898043 7420:0.10840323 7437:0.078523557 7441:0.13249283 7556:0.0020714561 7566:0.10840323 7585:0.014905828 7706:0.044991409 7734:0.10840323 7743:0.10840323 7831:0.0049652628 7836:0.12044803 7849:0.010789983 7916:0.10840323 7976:0.018142983 8016:0.040322621 8046:0.10840323 8051:0.10840323 8053:0.10840323 8074:0.044991409 8107:0.052621832 8177:0.10840323 8180:0.10840323 8248:0.025416795 8291:0.026617129 8538:0.10840323 8591:0.10840323 8616:0.044991409 8717:0.070457573 8766:0.031483487 8774:0.019992216 8879:0.058599361 8985:0.12044803 9040:0.044991409 9051:0.028513783 9073:0.048506003 9136:0.044991409 9202:0.016477632 9256:0.10840323 9271:0.091925594 9281:0.10840323 9286:0.055781395 9346:0.039303762 9386:0.10840323 9438:0.020883355 9541:0.16621761 9560:0.12044803 9597:0.10840323 9639:0.0061338315 9673:0.032485217 9693:0.0014548234 9897:0.10840323 
0.7848271923131566 27:0.042556247 31:0.038965236 103:0.042556247 120:0.011378684 250:0.090644465 277:0.055562962 282:0.020158637 289:0.05302361 296:0.099708907 335:0.099708907 494:0.05302361 511:0.017462215 513:0.090644465 666:0.037620855 719:0.080177091 729:0.047210556 750:0.0073785221 760:0.090644465 762:0.090644465 842:0.090644465 946:0.023842616 961:0.13835919 983:0.0099368597 1079:0.061463468 1117:0.017462215 1172:0.066801849 1175:0.028157766 1188:0.037620855 1231:0.0040240808 1285:0.044001251 1310:0.090644465 1329:0.090644465 1352:0.061463468 1479:0.037620855 1507:0.061119254 1513:0.011378684 1549:0.017462215 1577:0.090644465 1615:0.090644465 1648:0.090644465 1652:0.090644465 1660:0.037620855 1689:0.090644465 1752:0.090644465 1771:0.090644465 1834:0.090644465 1903:0.037620855 1933:0.029183605 1934:0.090644465 1942:0.0073785221 1954:0.020158637 2021:0.066801849 2028:0.025724254 2113:0.090644465 2292:0.05302361 2310:0.090644465 2378:0.037620855 2430:0.090644465 2450:0.02624217 2457:0.026226878 2512:0.0093448489 2686:0.090644465 2725:0.090644465 2780:0.090644465 2818:0.090644465 2874:0.090644465 3051:0.020158637 3111:0.02069132 3133:0.025724254 3138:0.090644465 3180:0.090644465 3186:0.018654102 3210:0.0079280218 3216:0.090644465 3237:0.048999531 3264:0.040092987 3370:0.090644465 3434:0.090644465 3537:0.037620855 3538:0.090644465 3559:0.012463936 3563:0.05302361 3626:0.012463936 3633:0.05302361 3726:0.090644465 3791:0.009691278 3811:0.020158637 3957:0.04138294 3965:0.090644465 3985:0.044001251 3999:0.090644465 4024:0.090644465 4030:0.090644465 4074:0.099708907 4091:0.090644465 4145:0.048999531 4151:0.050708996 4208:0.027153486 4288:0.022473257 4306:0.017462215 4323:0.090644465 4422:0.099708907 4436:0.067843867 4476:0.090644465 4480:0.023842616 4525:0.010660405 4528:0.090644465 4614:0.028883516 4639:0.090644465 4726:0.090644465 4744:0.0023563196 4764:0.090644465 4769:0.090644465 4773:0.034746625 4823:0.090644465 4921:0.04138294 4949:0.079265789 5057:0.090644465 5285:0.037620855 5290:0.090644465 5328:0.090644465 5360:0.090644465 5678:0.090644465 5722:0.017636284 5744:0.058325967 5797:0.090644465 5923:0.090644465 5954:0.090644465 5982:0.090644465 6002:0.061463468 6104:0.090644465 6156:0.090644465 6165:0.05302361 6527:0.015626925 6617:0.090644465 6698:0.010904004 6720:0.090644465 6729:0.14503114 6774:0.066801849 6905:0.066801849 6912:0.02291184 6989:0.023842616 7197:0.090644465 7244:0.042897683 7301:0.090644465 7322:0.048999531 7354:0.042843347 7358:0.078305079 7371:0.0045259767 7385:0.029181 7417:0.029181 7431:0.029787833 7442:0.066801849 7507:0.029181 7539:0.044001251 7563:0.029181 7569:0.090644465 7609:0.090644465 7630:0.090644465 7687:0.02861114 7701:0.029181 7718:0.090644465 7792:0.020158637 7849:0.0099245882 7944:0.13596669 7950:0.037620855 7976:0.012412453 8108:0.090644465 8116:0.090644465 8135:0.07048582 8137:0.011378684 8149:0.025951891 8151:0.07318225 8173:0.11529933 8204:0.090644465 8223:0.090644465 8291:0.020031008 8293:0.017462215 8295:0.090644465 8303:0.066801849 8308:0.055083065 8322:0.037740974 8352:0.051307528 8391:0.090644465 8426:0.090644465 8582:0.090644465 8616:0.04138294 8618:0.037620855 8625:0.05111449 8711:0.05302361 8725:0.090644465 8734:0.090644465 8744:0.090644465 8782:0.090644465 8897:0.037620855 8973:0.099708907 9046:0.0060835373 9050:0.090644465 9073:0.040559681 9151:0.090644465 9167:0.017462215 9222:0.050084787 9227:0.0074747444 9289:0.090644465 9294:0.090644465 9341:0.090644465 9351:0.023842616 9358:0.033716914 9373:0.037620855 9437:0.090644465 9439:0.011378684 9635:0.023842616 9676:0.010995747 9727:0.013778244 9743:0.037844779 9778:0.090644465 9802:0.046643209 9893:0.013778244 9902:0.090644465 
0.82283090036839 3:0.035813379 27:0.058129395 142:0.025111803 153:0.12381516 166:0.12381516 212:0.032567651 276:0.025093726 309:0.044891669 409:0.12381516 443:0.021039291 497:0.011528365 509:0.039859576 642:0.12381516 703:0.051387934 726:0.013237732 745:0.022641347 758:0.12381516 935:0.011528365 1020:0.12381516 1043:0.098253405 1052:0.078923486 1135:0.053146102 1394:0.12381516 1429:0.12381516 1432:0.063711956 1451:0.12381516 1500:0.072427217 1703:0.051387934 1726:0.063711956 1766:0.083955579 1782:0.019157007 1824:0.12381516 1930:0.14445101 1936:0.029030358 2014:0.099962775 2094:0.072427217 2151:0.10499487 2156:0.0070650321 2216:0.072427217 2329:0.007005892 2607:0.033947011 2613:0.12381516 2667:0.12381516 2747:0.12381516 2759:0.12381516 2830:0.04959267 2871:0.12381516 2887:0.12381516 2896:0.12381516 3133:0.03513786 3264:0.054764728 3300:0.041177862 3305:0.032567651 3343:0.043078175 3449:0.16508687 3464:0.034509267 3764:0.14445101 3811:0.027535545 3831:0.12381516 3933:0.011528365 3972:0.021039291 4077:0.072427217 4129:0.011528365 4135:0.027535545 4213:0.018820294 4217:0.12381516 4313:0.018820294 4343:0.12381516 4531:0.12381516 4637:0.051387934 4744:0.0032185975 4833:0.12381516 4997:0.035845303 5040:0.051233081 5104:0.20635858 5108:0.057443681 5177:0.038497728 5275:0.083955579 5334:0.018820294 5362:0.044891669 5410:0.12381516 5459:0.12381516 5563:0.01554263 5615:0.035845303 5620:0.038150215 5687:0.044891669 5774:0.12381516 5934:0.12381516 5935:0.030697182 6094:0.092670838 6097:0.043078175 6106:0.030348641 6128:0.012856456 6196:0.12381516 6588:0.10499487 6901:0.12381516 7242:0.051387934 7244:0.058595787 7295:0.041730032 7371:0.0056202047 7431:0.047469887 7444:0.14445101 7486:0.096279601 7556:0.0023659597 7585:0.017025024 7590:0.12381516 7620:0.044891669 7772:0.032567651 7773:0.12381516 7819:0.12381516 7922:0.12381516 7941:0.12381516 8036:0.013237732 8256:0.051387934 8291:0.022801009 8321:0.14445101 8357:0.029030358 8380:0.12381516 8457:0.083955579 8466:0.038150215 8467:0.018820294 8584:0.12381516 8616:0.059952587 8766:0.043151479 8849:0.12381516 8903:0.051387934 8912:0.12381516 8934:0.017025024 9167:0.023852387 9296:0.066282187 9346:0.044891669 9492:0.12381516 9547:0.027535545 9576:0.010210074 9653:0.12381516 9676:0.01752282 9831:0.12381516 9858:0.12381516 9868:0.017877651 9928:0.072427217 
0.6689236641662949 72:0.061502523 94:0.02537892 126:0.10525654 142:0.021347802 155:0.02537892 191:0.02537892 199:0.096485153 200:0.013702725 223:0.096485153 238:0.058158554 262:0.044328333 266:0.031061283 272:0.096485153 357:0.051186791 379:0.096485153 408:0.028903127 434:0.0067915189 463:0.096485153 643:0.096485153 752:0.096485153 1002:0.075027583 1039:0.096485153 1081:0.0032001115 1099:0.095151565 1100:0.065423876 1151:0.012111871 1172:0.071106236 1217:0.052156829 1258:0.028903127 1276:0.096485153 1342:0.027686095 1344:0.096485153 1413:0.096485153 1433:0.096485153 1438:0.056440197 1488:0.0052228936 1503:0.0064755313 1507:0.05914317 1564:0.096485153 1574:0.027381803 1590:0.10525654 1666:0.045298362 1672:0.033569431 1684:0.040044959 1698:0.096485153 1746:0.01321295 1762:0.096485153 1770:0.054162189 1804:0.13157066 1805:0.040044959 1886:0.096485153 1933:0.026067743 1942:0.0084381375 2004:0.043660714 2066:0.065423876 2091:0.096485153 2260:0.014666047 2270:0.027933089 2406:0.096485153 2424:0.021457564 2512:0.0099469863 2604:0.032905 2607:0.026453812 2669:0.049648675 2714:0.096485153 2716:0.049648675 2722:0.056440197 2731:0.027381803 2824:0.096485153 2849:0.096485153 2865:0.06675592 2867:0.096485153 2890:0.018587395 2910:0.096485153 2928:0.03498263 2967:0.10525654 3042:0.02537892 3186:0.018050984 3280:0.081819117 3399:0.018587395 3464:0.026891957 3510:0.012858245 3515:0.056440197 3558:0.096485153 3579:0.083218115 3672:0.065423876 3689:0.040044959 3711:0.096485153 3811:0.025358936 3815:0.096485153 3875:0.033569431 3988:0.096485153 4014:0.056440197 4053:0.040044959 4155:0.05996441 4183:0.10525654 4279:0.088528774 4356:0.02537892 4436:0.072215393 4444:0.096485153 4498:0.096485153 4503:0.01639524 4548:0.071106236 4561:0.040044959 4582:0.014666047 4747:0.023253699 4770:0.027686095 4918:0.096485153 4977:0.0079563816 4997:0.027933089 5020:0.065423876 5075:0.01639524 5094:0.0058412223 5117:0.096485153 5130:0.056440197 5132:0.11402791 5177:0.030000036 5178:0.056440197 5186:0.096485153 5202:0.096485153 5211:0.018587395 5281:0.10525654 5332:0.056440197 5334:0.014666047 5361:0.061502523 5457:0.096485153 5535:0.018587395 5551:0.0098298771 5600:0.040044959 5672:0.02537892 5709:0.096485153 5721:0.056440197 5775:0.040044959 6004:0.020407005 6037:0.031061283 6151:0.084979383 6280:0.081819117 6284:0.040044959 6298:0.031061283 6380:0.052156829 6392:0.096485153 6445:0.065423876 6451:0.096485153 6587:0.096485153 6633:0.08688144 6662:0.096485153 6749:0.010315737 6759:0.096485153 6812:0.040044959 6816:0.0084381375 6819:0.03816287 6872:0.05996441 6873:0.001843716 6955:0.056440197 7113:0.096485153 7258:0.02537892 7289:0.033569431 7335:0.096485153 7352:0.096485153 7371:0.0047777938 7431:0.031707217 7509:0.075027583 7513:0.065423876 7517:0.096485153 7547:0.033569431 7556:0.001843716 7639:0.096485153 7642:0.040044959 7795:0.0096037106 7828:0.096485153 7834:0.1578848 7887:0.096485153 7910:0.031530684 7911:0.02537892 7940:0.096485153 7960:0.14100449 7976:0.022821159 8019:0.096485153 8037:0.077897764 8113:0.042724729 8142:0.022262188 8149:0.027624106 8186:0.040044959 8279:0.040044959 8291:0.03230562 8403:0.0026409973 8475:0.096485153 8555:0.096485153 8558:0.033569431 8600:0.096485153 8647:0.02537892 8678:0.11402791 8763:0.049648675 8766:0.027512638 8774:0.017794231 8812:0.012111871 8893:0.040044959 9017:0.10525654 9064:0.071106236 9066:0.096485153 9070:0.075027583 9093:0.049648675 9102:0.096485153 9136:0.040044959 9156:0.056440197 9189:0.096485153 9202:0.014666047 9223:0.056440197 9272:0.054162189 9280:0.012661751 9293:0.030097961 9339:0.077319121 9358:0.035889468 9390:0.096485153 9419:0.02537892 9424:0.0089836826 9455:0.056347169 9462:0.0047190448 9579:0.096485153 9623:0.022622423 9628:0.040044959 9676:0.01170426 9785:0.096485153 9788:0.049648675 9818:0.031061283 9847:0.040044959 9913:0.096485153 
0.9118409173412484 61:0.067474493 212:0.032832321 338:0.045256491 420:0.04642966 434:0.009762316 455:0.02775932 621:0.022539273 745:0.022825349 823:0.12482137 914:0.051805557 1002:0.09706204 1005:0.12482137 1081:0.0041399354 1088:0.026718035 1102:0.12482137 1129:0.13869042 1143:0.043428262 1169:0.12482137 1229:0.064229734 1294:0.12482137 1381:0.040183505 1503:0.0083772956 1582:0.032832321 1781:0.12482137 1810:0.012424173 1914:0.12482137 1933:0.030913152 2154:0.12482137 2156:0.006104956 2166:0.15255946 2197:0.073015818 2251:0.064229734 2300:0.012598083 2339:0.073015818 2450:0.03613661 2457:0.032832321 2470:0.12482137 2500:0.019487011 2509:0.12482137 2512:0.014298071 2516:0.011275542 2559:0.032832321 2855:0.017163382 2861:0.051805557 2911:0.044648339 2915:0.059561472 2928:0.045256491 3051:0.02775932 3077:0.010917232 3094:0.12482137 3102:0.051805557 3111:0.028492847 3146:0.13869042 3159:0.069828497 3186:0.025946982 3193:0.10077515 3210:0.012130258 3228:0.12482137 3264:0.061344209 3377:0.12482137 3404:0.032832321 3492:0.020721589 3510:0.016634515 3570:0.032832321 3576:0.036380793 3630:0.11285049 3642:0.060763198 3755:0.051805557 3811:0.02775932 3877:0.12482137 4164:0.13869042 4333:0.064229734 4346:0.051805557 4503:0.021210272 4535:0.02775932 4544:0.12482137 4663:0.047246335 4667:0.051805557 4730:0.13869042 4744:0.0032447543 4747:0.030082953 4962:0.12482137 5005:0.12482137 5017:0.12482137 5040:0.03873708 5094:0.0076966389 5145:0.1036111 5177:0.043122876 5210:0.12482137 5296:0.051805557 5362:0.045256491 5500:0.12482137 5620:0.038460252 5648:0.12482137 5665:0.051805557 5787:0.12482137 6131:0.013345312 6151:0.10077515 6331:0.12482137 6496:0.1298059 6502:0.0058695917 6539:0.067474493 6549:0.073015818 6578:0.051805557 6613:0.12482137 6656:0.10915244 6749:0.013345312 6795:0.018973242 6873:0.0023851873 6883:0.057904349 6891:0.12482137 7096:0.069449775 7175:0.13869042 7202:0.051805557 7244:0.059071982 7278:0.09706204 7371:0.0069249631 7373:0.02775932 7396:0.018973242 7486:0.09706204 7550:0.12482137 7556:0.002650208 7581:0.0092368605 7655:0.12482137 7688:0.064229734 7795:0.012424173 7911:0.032832321 7929:0.079564877 8061:0.12482137 8064:0.051805557 8068:0.12482137 8081:0.012380523 8149:0.035736884 8212:0.12482137 8281:0.042568693 8289:0.12482137 8291:0.025540342 8357:0.029266281 8467:0.02108138 8517:0.079564877 8616:0.051805557 8625:0.070386878 8651:0.12482137 8680:0.12482137 8705:0.12482137 8740:0.12482137 8766:0.039876982 8857:0.12482137 8937:0.0076640988 9040:0.051805557 9053:0.032832321 9073:0.055852451 9075:0.051805557 9222:0.068968928 9279:0.018973242 9296:0.066820843 9358:0.05158851 9455:0.066820843 9538:0.1036111 9571:0.051805557 9591:0.051805557 9623:0.032518089 9676:0.015141622 9679:0.024046231 9775:0.015668941 9802:0.064229734 
0.4576820455671817 1:0.093305451 32:0.087085091 61:0.047075449 68:0.014797934 130:0.044811654 142:0.018923921 155:0.022906379 295:0.022870331 357:0.046199923 424:0.050941508 434:0.0061298548 448:0.021411911 449:0.045292964 469:0.0058446521 482:0.087085091 500:0.087085091 521:0.0093107263 567:0.050941508 594:0.024542546 620:0.013237208 629:0.028035136 731:0.010931871 790:0.029350717 885:0.013237208 983:0.0095466645 997:0.087085091 1017:0.087085091 1099:0.052483093 1175:0.033375949 1231:0.0044183605 1348:0.050941508 1380:0.013237208 1458:0.087085091 1474:0.022169495 1545:0.013079333 1564:0.087085091 1605:0.087085091 1660:0.036143578 1681:0.087085091 1690:0.024169074 1740:0.087085091 1760:0.07255502 1763:0.087085091 1782:0.014436464 1788:0.087085091 1794:0.05551064 1810:0.0092872156 1829:0.025211707 1875:0.087085091 1933:0.024648476 1935:0.099525816 1996:0.087085091 2005:0.036143578 2050:0.022906379 2219:0.010931871 2260:0.014182723 2264:0.096570749 2284:0.087085091 2320:0.087085091 2354:0.032463139 2378:0.036143578 2384:0.014797934 2392:0.032463139 2512:0.0089779004 2516:0.0075857405 2545:0.050941508 2577:0.087085091 2607:0.023876548 2633:0.087085091 2674:0.087085091 2675:0.036143578 2730:0.087085091 2731:0.024714128 2779:0.087085091 2851:0.022906379 2865:0.060252225 2904:0.087085091 2909:0.05551064 3013:0.087085091 3036:0.036143578 3058:0.087085091 3071:0.087085091 3072:0.087085091 3075:0.05551064 3077:0.0076167089 3234:0.059049954 3237:0.047075449 3264:0.0440213 3324:0.013237208 3420:0.019367058 3485:0.016776519 3486:0.087085091 3492:0.014456991 3642:0.038153814 3668:0.087085091 3784:0.050941508 3815:0.087085091 3905:0.066096872 3938:0.087085091 3946:0.087085091 3962:0.093305451 3997:0.093305451 4003:0.087085091 4006:0.087085091 4052:0.012367737 4070:0.087085091 4277:0.087085091 4293:0.022906379 4313:0.014182723 4380:0.087085091 4382:0.087085091 4388:0.087085091 4437:0.087085091 4462:0.034627347 4513:0.087085091 4546:0.087085091 4563:0.0081084474 4585:0.087085091 4744:0.0022637929 4841:0.087085091 4961:0.0064443517 4997:0.025211707 5021:0.052920092 5039:0.016776519 5064:0.05551064 5087:0.11196654 5177:0.027077284 5186:0.087085091 5210:0.087085091 5228:0.087085091 5252:0.016776519 5265:0.087085091 5275:0.059049954 5474:0.059049954 5540:0.087085091 5551:0.0088722012 5631:0.013237208 5647:0.013237208 5731:0.036143578 5741:0.087085091 5790:0.024714128 5828:0.044811654 5842:0.0093107263 5861:0.087085091 5868:0.033445711 5881:0.087085091 5887:0.087085091 5888:0.060536803 5912:0.0061298548 5914:0.087085091 5922:0.050941508 5932:0.036143578 5950:0.059049954 5999:0.064178711 6022:0.087085091 6038:0.030298931 6045:0.093305451 6047:0.022906379 6052:0.087085091 6084:0.087085091 6135:0.010931871 6151:0.070308575 6163:0.050941508 6179:0.087085091 6218:0.087085091 6223:0.014797934 6247:0.050941508 6378:0.087085091 6408:0.068762902 6502:0.0035898456 6576:0.036143578 6624:0.087085091 6625:0.087085091 6718:0.050941508 6798:0.087085091 6805:0.022906379 6826:0.087085091 6836:0.031014812 6850:0.036143578 6873:0.0017829556 6905:0.068762902 6912:0.022012152 7023:0.036143578 7101:0.087085091 7160:0.087085091 7192:0.087085091 7220:0.022906379 7244:0.041213202 7334:0.036143578 7354:0.037419093 7358:0.062691867 7371:0.0042353112 7373:0.019367058 7437:0.063081438 7473:0.064178711 7507:0.028035136 7543:0.022906379 7556:0.001664092 7581:0.0064443517 7607:0.043324805 7708:0.16172944 7730:0.02075042 7736:0.087085091 7772:0.022906379 7795:0.010525512 7819:0.087085091 7919:0.087085091 7959:0.087085091 7971:0.0081084474 7976:0.014480414 8004:0.070308575 8006:0.087085091 8016:0.032392936 8065:0.087085091 8103:0.087085091 8132:0.036143578 8139:0.036143578 8149:0.024932826 8267:0.036143578 8281:0.029699229 8291:0.027492059 8297:0.036143578 8352:0.044811654 8403:0.0023411319 8404:0.087085091 8445:0.087085091 8446:0.036143578 8488:0.087085091 8595:0.087085091 8604:0.050941508 8616:0.036143578 8644:0.087085091 8666:0.087085091 8709:0.087085091 8786:0.050941508 8804:0.087085091 8813:0.087085091 9040:0.036143578 9067:0.087085091 9136:0.036143578 9172:0.087085091 9175:0.023335351 9240:0.087085091 9293:0.027165667 9296:0.046619412 9304:0.087085091 9329:0.019367058 9331:0.087085091 9338:0.036143578 9353:0.087085091 9358:0.034706715 9438:0.016776519 9462:0.0042592915 9485:0.050941508 9488:0.087085091 9491:0.087085091 9510:0.038725262 9518:0.036143578 9573:0.087085091 9579:0.087085091 9667:0.038725262 9693:0.0013356844 9713:0.016776519 9716:0.0038268031 9802:0.044811654 9868:0.01347236 9886:0.022906379 
0.6579335983147403 7:0.050485993 23:0.033008744 24:0.085649784 52:0.079531946 91:0.048828028 126:0.079531946 154:0.037339081 159:0.079531946 200:0.011295048 209:0.085649784 212:0.020919642 234:0.079531946 238:0.043944663 263:0.044546467 288:0.017687297 343:0.079531946 352:0.043944663 392:0.046523204 411:0.033008744 448:0.018251142 452:0.079531946 455:0.017687297 468:0.012089107 526:0.079531946 594:0.020919642 601:0.0074051785 620:0.012089107 621:0.016570685 674:0.033008744 681:0.043944663 773:0.079531946 814:0.033008744 868:0.0043303414 903:0.063120939 910:0.017687297 938:0.013514466 983:0.00938932 1066:0.058612307 1070:0.012089107 1099:0.047931082 1151:0.009983718 1161:0.079531946 1163:0.079531946 1172:0.058612307 1247:0.05010191 1311:0.079531946 1314:0.033008744 1382:0.015321442 1447:0.015321442 1555:0.061844642 1558:0.079531946 1559:0.033008744 1574:0.024306799 1580:0.079531946 1641:0.020919642 1647:0.079531946 1675:0.079531946 1708:0.079531946 1716:0.016419439 1766:0.053928381 1782:0.012305392 1790:0.035547873 1796:0.033008744 1799:0.030519647 1896:0.013003373 1933:0.025757368 1994:0.079531946 2066:0.053928381 2149:0.0079162624 2156:0.0038898709 2167:0.002144747 2178:0.046523204 2179:0.079531946 2202:0.079531946 2276:0.033008744 2277:0.033008744 2305:0.079531946 2306:0.079531946 2335:0.009983718 2363:0.020919642 2366:0.046523204 2411:0.079531946 2499:0.079531946 2500:0.012416463 2515:0.079531946 2516:0.0074607158 2562:0.035547873 2588:0.033008744 2629:0.035989177 2635:0.016500014 2643:0.079531946 2741:0.079531946 2812:0.0058854142 2832:0.085649784 2854:0.079531946 2865:0.05925917 2894:0.023824617 2909:0.050696043 2936:0.079531946 3046:0.022528843 3069:0.079531946 3077:0.0069560895 3098:0.033008744 3111:0.018154677 3125:0.027270525 3156:0.015321442 3164:0.009983718 3186:0.017168403 3222:0.033008744 3264:0.040589775 3268:0.079531946 3274:0.079531946 3300:0.02645036 3308:0.025603569 3343:0.027671017 3393:0.085649784 3417:0.079531946 3443:0.009983718 3471:0.079531946 3510:0.01059895 3519:0.079531946 3533:0.079531946 3534:0.079531946 3559:0.010935925 3576:0.023180608 3678:0.033008744 3717:0.079531946 3767:0.079531946 3779:0.079531946 3791:0.0085031802 3891:0.079531946 3935:0.079531946 4060:0.049948543 4069:0.079531946 4093:0.079531946 4115:0.039800086 4133:0.053928381 4135:0.017687297 4260:0.046523204 4300:0.079531946 4351:0.079531946 4422:0.085649784 4458:0.079531946 4469:0.015930139 4489:0.079531946 4514:0.046523204 4563:0.0074051785 4605:0.079531946 4641:0.079531946 4649:0.041525972 4677:0.079531946 4744:0.0023855162 4746:0.058076713 4747:0.019167838 4773:0.032832021 4787:0.079531946 4793:0.116239 4814:0.079531946 4965:0.020919642 4977:0.0075673636 5093:0.046523204 5094:0.0050926541 5108:0.042575326 5116:0.079531946 5131:0.008945329 5207:0.033008744 5221:0.079531946 5223:0.020919642 5273:0.1298729 5291:0.079531946 5324:0.015321442 5375:0.064210501 5383:0.079531946 5474:0.053928381 5525:0.079531946 5540:0.079531946 5554:0.079531946 5571:0.033008744 5610:0.079531946 5618:0.020919642 5620:0.024505569 5631:0.012089107 5665:0.033008744 5695:0.0085031802 5731:0.033008744 5738:0.079531946 5740:0.035490342 5753:0.079531946 5790:0.022570602 5808:0.079531946 5831:0.053680617 5868:0.028508545 5912:0.0055981951 5935:0.019718158 5985:0.033008744 6024:0.009983718 6041:0.079531946 6055:0.020919642 6103:0.085649784 6128:0.0082582702 6135:0.009983718 6136:0.079531946 6141:0.015321442 6154:0.079531946 6182:0.079531946 6188:0.079531946 6191:0.079531946 6210:0.025603569 6221:0.079531946 6223:0.013514466 6229:0.079531946 6274:0.021921747 6275:0.079531946 6326:0.079531946 6336:0.079531946 6393:0.073046985 6426:0.017687297 6497:0.033008744 6540:0.033008744 6544:0.079531946 6618:0.033008744 6642:0.046523204 6698:0.0095672327 6809:0.079531946 6837:0.079531946 6873:0.0015197605 6912:0.020102973 6944:0.079531946 6946:0.079531946 6948:0.015321442 6967:0.009983718 6980:0.058612307 7192:0.079531946 7243:0.063120939 7244:0.043429225 7273:0.025603569 7279:0.027671017 7280:0.079531946 7354:0.034173624 7358:0.074871161 7371:0.0036101059 7389:0.010935925 7468:0.079531946 7490:0.079531946 7613:0.025603569 7627:0.025603569 7689:0.079531946 7696:0.079531946 7715:0.012089107 7778:0.033008744 7808:0.079531946 7849:0.0079162624 7860:0.079531946 7893:0.079531946 7960:0.071028762 8019:0.085649784 8036:0.0085031802 8039:0.079531946 8040:0.079531946 8081:0.0070996044 8149:0.022770331 8169:0.079531946 8204:0.085649784 8216:0.079531946 8274:0.025603569 8281:0.029209737 8318:0.079531946 8335:0.091767633 8352:0.040925007 8466:0.024505569 8473:0.079531946 8540:0.079531946 8601:0.013019037 8602:0.079531946 8625:0.044848132 8716:0.046523204 8792:0.044073083 8871:0.12235684 8896:0.035547873 8897:0.033008744 8962:0.079531946 9018:0.058612307 9034:0.046523204 9036:0.079531946 9040:0.033008744 9152:0.020081903 9203:0.046523204 9209:0.033008744 9227:0.0070628722 9280:0.0095672327 9351:0.028965658 9353:0.079531946 9358:0.029583403 9424:0.0074051785 9439:0.010751696 9499:0.042992462 9540:0.033008744 9542:0.079531946 9587:0.016500014 9639:0.004500194 9646:0.020919642 9668:0.079531946 9678:0.079531946 9690:0.079531946 9695:0.079531946 9697:0.079531946 9713:0.015321442 9716:0.0034948937 9732:0.033008744 9774:0.033008744 9787:0.053928381 9791:0.085649784 9876:0.079531946 9893:0.012089107 9908:0.015321442 9930:0.079531946 
