svm_type c_svc
kernel_type linear
nr_class 2
total_sv 102
rho 0.10942
label 1 -1
nr_sv 51 51
SV
0.8356537161144179 3:0.02015787 42:0.0064950033 67:0.081305497 119:0.0086927995 142:0.021454153 154:0.038171738 217:0.021386146 234:0.081305497 246:0.033744833 277:0.04983839 282:0.018081722 288:0.018081722 331:0.021386146 363:0.012358692 434:0.005723034 448:0.018658139 455:0.018081722 629:0.026174524 745:0.014867857 809:0.081305497 834:0.033744833 849:0.047560664 868:0.0044269073 871:0.081305497 878:0.051826557 907:0.081305497 910:0.018081722 935:0.0075703126 957:0.033744833 969:0.081305497 983:0.011596184 1014:0.081305497 1051:0.033744833 1062:0.081305497 1066:0.05991935 1081:0.0026966497 1089:0.021386146 1096:0.081305497 1099:0.048999938 1143:0.028288075 1151:0.010206354 1178:0.081305497 1188:0.033744833 1247:0.047560664 1258:0.024355902 1261:0.1057809 1297:0.1057809 1314:0.04390304 1320:0.081305497 1335:0.081305497 1408:0.063223768 1474:0.026928938 1503:0.0054567594 1507:0.064841243 1513:0.013278773 1532:0.033744833 1545:0.011397209 1551:0.081305497 1559:0.033744833 1585:0.081305497 1611:0.0075703126 1614:0.081305497 1643:0.05991935 1690:0.022565041 1714:0.033744833 1716:0.01678559 1734:0.081305497 1760:0.063223768 1829:0.023538477 1836:0.021386146 1844:0.081305497 1896:0.013293346 1907:0.081305497 1912:0.033744833 1919:0.047560664 1933:0.03421054 1964:0.081305497 2062:0.015663109 2085:0.055130977 2112:0.010206354 2139:0.033744833 2150:0.026174524 2167:0.0021925745 2174:0.081305497 2199:0.047560664 2215:0.081305497 2284:0.081305497 2382:0.12009808 2512:0.0083820627 2547:0.081305497 2559:0.027824019 2607:0.022291929 2787:0.026174524 2797:0.081305497 2817:0.12009808 2822:0.04983839 2855:0.011179795 2887:0.081305497 3036:0.04390304 3111:0.027414665 3186:0.015211089 3264:0.035962267 3269:0.081305497 3300:0.027040199 3345:0.012358692 3391:0.04183763 3416:0.033744833 3443:0.010206354 3492:0.013497522 3493:0.081305497 3508:0.021386146 3510:0.010835304 3537:0.033744833 3585:0.015663109 3658:0.081305497 3749:0.033744833 3763:0.081305497 3796:0.081305497 3807:0.047560664 3811:0.023524865 3833:0.081305497 3883:0.081305497 3907:0.081305497 3982:0.027040199 3985:0.039467867 4063:0.047560664 4135:0.018081722 4144:0.04183763 4156:0.015663109 4168:0.081305497 4252:0.081305497 4296:0.018081722 4299:0.081305497 4321:0.04183763 4331:0.081305497 4348:0.033744833 4371:0.081305497 4436:0.060854008 4439:0.035820969 4442:0.1057809 4465:0.061710213 4525:0.0086927995 4539:0.081305497 4573:0.081305497 4584:0.081305497 4602:0.033744833 4614:0.019928993 4635:0.033744833 4649:0.047867147 4662:0.081305497 4747:0.019595278 4827:0.081305497 4844:0.081305497 4965:0.027824019 4974:0.081305497 5010:0.081305497 5039:0.020378175 5049:0.081305497 5064:0.051826557 5072:0.081435135 5108:0.037721451 5119:0.015663109 5177:0.02528024 5211:0.015663109 5287:0.021386146 5296:0.033744833 5314:0.081305497 5343:0.081305497 5365:0.028288075 5374:0.055130977 5545:0.081305497 5617:0.081305497 5624:0.081305497 5631:0.012358692 5642:0.081305497 5685:0.081305497 5687:0.029478939 5736:0.081305497 5836:0.033744833 5861:0.081305497 6002:0.055130977 6023:0.081305497 6043:0.05991935 6055:0.021386146 6093:0.081305497 6143:0.047560664 6195:0.05991935 6251:0.036803635 6274:0.022410599 6333:0.081305497 6468:0.033744833 6486:0.081305497 6554:0.081305497 6592:0.081305497 6624:0.1057809 6688:0.05991935 6690:0.018081722 6698:0.0097805802 6767:0.027824019 6886:0.033744833 6962:0.1057809 7005:0.081305497 7006:0.04183763 7086:0.081305497 7116:0.081305497 7158:0.027824019 7241:0.081305497 7258:0.021386146 7322:0.043951184 7358:0.058531185 7365:0.033744833 7371:0.0059125799 7373:0.018081722 7398:0.081305497 7507:0.026174524 7528:0.081305497 7556:0.0015536509 7567:0.081305497 7603:0.033744833 7605:0.081305497 7620:0.029478939 7649:0.02480195 7664:0.081305497 7713:0.047560664 7795:0.0080927937 7835:0.047560664 7837:0.081305497 7843:0.081305497 7848:0.081305497 7858:0.081305497 7976:0.017836721 8022:0.081305497 8091:0.027824019 8113:0.028288075 8142:0.017196446 8185:0.081305497 8197:0.081305497 8213:0.081305497 8224:0.051826557 8281:0.027728175 8291:0.025438171 8324:0.081305497 8344:0.05991935 8379:0.081305497 8453:0.021386146 8474:0.081305497 8489:0.081305497 8518:0.023538477 8616:0.033744833 8625:0.077894787 8656:0.081305497 8720:0.081305497 8754:0.081305497 8823:0.081305497 8879:0.043951184 8899:0.081305497 8934:0.011179795 8985:0.081305497 9006:0.027402793 9064:0.05991935 9086:0.066359117 9108:0.047560664 9114:0.047560664 9152:0.019063318 9155:0.081305497 9255:0.081305497 9279:0.012358692 9280:0.015669076 9292:0.081305497 9296:0.043525415 9338:0.04390304 9358:0.039347191 9364:0.033744833 9399:0.081305497 9405:0.033744833 9419:0.021386146 9424:0.0075703126 9431:0.081305497 9455:0.043525415 9493:0.081305497 9520:0.081305497 9530:0.081305497 9545:0.033744833 9584:0.12009808 9585:0.081305497 9595:0.055130977 9628:0.033744833 9648:0.081305497 9665:0.081305497 9683:0.1057809 9716:0.003572829 9886:0.027824019 9898:0.081305497 9899:0.047560664 
0.702226230061002 61:0.046963005 85:0.017682385 105:0.094573304 142:0.017620138 194:0.086877079 274:0.086877079 275:0.086877079 288:0.0193208 378:0.054867642 394:0.086877079 413:0.011945907 449:0.042172463 469:0.0058306921 567:0.05081983 641:0.086877079 660:0.036057249 697:0.086877079 729:0.045248378 745:0.020669074 752:0.086877079 796:0.086877079 868:0.0061542205 1021:0.086877079 1048:0.040787515 1070:0.017180869 1088:0.024721761 1127:0.086877079 1143:0.030226558 1175:0.024534064 1202:0.067556273 1314:0.036057249 1347:0.024111345 1406:0.086877079 1427:0.086877079 1547:0.086877079 1626:0.070906476 1627:0.086877079 1770:0.044704617 1782:0.017488251 1799:0.037590884 1867:0.086877079 1868:0.027968173 1876:0.086877079 1879:0.027968173 1912:0.036057249 1942:0.0064289587 1956:0.022851665 1980:0.1130297 2031:0.086877079 2050:0.022851665 2101:0.05081983 2156:0.006807342 2212:0.086877079 2260:0.01320559 2290:0.098888096 2300:0.0087684067 2316:0.12252036 2375:0.036057249 2418:0.086877079 2450:0.032722841 2500:0.013563179 2512:0.0089564563 2580:0.086877079 2625:0.086877079 2629:0.039312939 2690:0.022851665 2693:0.05081983 2770:0.086877079 2778:0.046911562 2787:0.027968173 2809:0.1130297 2817:0.086877079 2822:0.053253641 2966:0.022851665 3111:0.019831342 3112:0.031499028 3120:0.010922608 3168:0.007164078 3172:0.086877079 3193:0.11916683 3210:0.0098858977 3250:0.086877079 3272:0.033859213 3448:0.066118124 3510:0.01157781 3565:0.086877079 3642:0.038062683 3692:0.086877079 4027:0.040981182 4101:0.01090576 4151:0.048601419 4210:0.015687588 4219:0.1130297 4233:0.1130297 4259:0.086877079 4260:0.081416418 4322:0.086877079 4356:0.022851665 4387:0.086877079 4469:0.030942251 4490:0.1130297 4502:0.058162047 4503:0.014762588 4516:0.086877079 4534:0.086877079 4606:0.022851665 4614:0.027704989 4663:0.03288398 4697:0.086877079 4698:0.010032327 4720:0.1130297 4746:0.058908911 4748:0.086877079 4763:0.086877079 4844:0.086877079 4845:0.1544806 4848:0.036057249 4866:0.058908911 4928:0.086877079 4977:0.007164078 5005:0.086877079 5092:0.011945907 5109:0.036057249 5121:0.1130297 5140:0.086877079 5177:0.027012607 5305:0.12832799 5342:0.086877079 5423:0.1130297 5439:0.072048507 5462:0.086877079 5498:0.029730702 5536:0.086877079 5551:0.008851009 5563:0.01090576 5606:0.075067055 5649:0.086877079 5691:0.05081983 5700:0.046911562 5709:0.086877079 5731:0.036057249 5877:0.083298995 5905:0.022790609 5912:0.0061152136 5936:0.086877079 5985:0.036057249 6094:0.065024122 6106:0.021294658 6180:0.086877079 6188:0.086877079 6219:0.046911562 6294:0.05081983 6386:0.1130297 6454:0.086877079 6543:0.01320559 6578:0.036057249 6588:0.073671492 6614:0.086877079 6690:0.0193208 6698:0.010450809 6706:0.16977888 6763:0.086877079 6826:0.086877079 6865:0.1130297 6873:0.0016601172 7060:0.01320559 7172:0.026024928 7210:0.086877079 7220:0.022851665 7244:0.053491542 7322:0.046963005 7371:0.0063177484 7447:0.1130297 7456:0.14760155 7581:0.0064289587 7585:0.011945907 7620:0.031499028 7637:0.036057249 7661:0.086877079 7683:0.041312382 7734:0.086877079 7736:0.1130297 7746:0.086877079 7748:0.05081983 7849:0.0086473646 7910:0.026024928 7976:0.015477787 8008:0.1130297 8081:0.0077552845 8179:0.086877079 8187:0.052439799 8279:0.046911562 8291:0.02718136 8343:0.075067055 8357:0.020369661 8373:0.036057249 8453:0.022851665 8467:0.019506258 8561:0.086877079 8597:0.12832799 8603:0.1130297 8722:0.022851665 8766:0.029544435 8776:0.086877079 8932:0.01320559 8969:0.086877079 9040:0.036057249 9093:0.044704617 9222:0.048003152 9271:0.073671492 9296:0.04650806 9327:0.036057249 9366:0.042172463 9383:0.1130297 9483:0.086877079 9657:0.05081983 9676:0.010538738 9693:0.0011659322 9716:0.0049668939 9748:0.086877079 9841:0.022851665 9892:0.086877079 
0.5115771110157349 73:0.016410771 142:0.024205785 234:0.11934798 238:0.065944657 258:0.049533892 262:0.054832236 276:0.01814127 282:0.02654208 288:0.02654208 370:0.080926518 403:0.11934798 468:0.01814127 470:0.08795535 506:0.01814127 511:0.029913033 577:0.049533892 613:0.03139263 726:0.012760122 729:0.062160268 785:0.049533892 873:0.11934798 914:0.049533892 933:0.15527532 938:0.020280206 941:0.02654208 983:0.01308347 1088:0.022991809 1231:0.0052983482 1247:0.069814088 1261:0.15527532 1347:0.04309418 1507:0.073157552 1545:0.016729912 1555:0.12074325 1574:0.044066029 1737:0.043272004 1779:0.11934798 1809:0.11934798 1850:0.15527532 1942:0.0088318258 2004:0.054006418 2151:0.14949459 2161:0.11934798 2196:0.15527532 2219:0.014981862 2335:0.014981862 2384:0.020280206 2406:0.11934798 2407:0.11934798 2500:0.01863251 2534:0.038421468 2607:0.032722224 2819:0.03139263 2822:0.073157552 2865:0.0825742 3111:0.027243441 3124:0.03139263 3186:0.022328291 3243:0.11934798 3258:0.07495425 3343:0.041523941 3492:0.019812952 3602:0.11934798 3627:0.11934798 3772:0.080926518 3806:0.03139263 3811:0.02654208 4077:0.069814088 4115:0.059725182 4284:0.17629145 4427:0.016601303 4439:0.052581442 4449:0.11934798 4464:0.028763823 4465:0.090584149 4563:0.011112428 4608:0.15527532 4636:0.02654208 4744:0.0040364099 4747:0.028763823 4773:0.045749507 4887:0.049533892 5075:0.020280206 5139:0.15527532 5177:0.048279602 5214:0.11934798 5246:0.080926518 5275:0.080926518 5280:0.049533892 5287:0.03139263 5315:0.016410771 5432:0.069814088 5439:0.076075974 5620:0.036773778 5631:0.01814127 5672:0.03139263 5735:0.073167559 5747:0.11934798 5816:0.11934798 5859:0.11934798 5890:0.049533892 5931:0.11934798 6078:0.11934798 6087:0.11934798 6137:0.11934798 6143:0.069814088 6288:0.11934798 6294:0.069814088 6392:0.11934798 6420:0.08932733 6527:0.024335595 6662:0.11934798 6771:0.038421468 6826:0.11934798 6947:0.11934798 7040:0.01814127 7215:0.11934798 7243:0.08795535 7266:0.049533892 7298:0.0048505484 7371:0.0054174313 7373:0.02654208 7486:0.12074325 7546:0.11934798 7936:0.11934798 7976:0.026182444 7981:0.076075974 7982:0.11934798 8274:0.038421468 8291:0.021978363 8308:0.0943581 8351:0.11934798 8390:0.11934798 8463:0.064445078 8517:0.076075974 8574:0.03139263 8669:0.061413272 8746:0.11934798 8766:0.040586869 8856:0.03139263 8877:0.11934798 9040:0.049533892 9086:0.085795981 9104:0.080926518 9136:0.049533892 9216:0.11934798 9526:0.022991809 9537:0.096356174 9600:0.03139263 9632:0.15527532 9676:0.014477664 9679:0.022991809 9693:0.0016017073 9716:0.0052445399 9821:0.061413272 9868:0.017232637 
0.5130769139013184 19:0.028357204 40:0.03693403 58:0.028357204 102:0.028357204 120:0.011158712 123:0.035157922 146:0.068324432 217:0.017971679 218:0.036893573 221:0.036893573 309:0.024772393 325:0.043552037 340:0.10092347 365:0.068324432 378:0.03316651 384:0.01316237 400:0.028357204 408:0.026628559 475:0.035157922 485:0.023381694 526:0.068324432 551:0.068324432 556:0.068324432 568:0.028357204 602:0.068324432 624:0.068324432 630:0.048990958 633:0.045741511 661:0.028357204 719:0.060434518 729:0.05701021 750:0.0050560511 752:0.068324432 759:0.068324432 764:0.028357204 779:0.017971679 792:0.010385529 829:0.035157922 868:0.0037201165 904:0.047857146 983:0.0074900362 1007:0.028357204 1009:0.068324432 1012:0.068324432 1074:0.068324432 1081:0.0022661083 1099:0.041176711 1151:0.0085768291 1175:0.025103115 1181:0.068324432 1192:0.046328881 1208:0.068324432 1232:0.068324432 1260:0.068324432 1264:0.068324432 1281:0.068324432 1314:0.028357204 1382:0.01316237 1422:0.068324432 1438:0.039967228 1513:0.0085768291 1557:0.1486802 1564:0.068324432 1574:0.025226957 1580:0.068324432 1643:0.050352753 1687:0.037752053 1690:0.018962354 1716:0.014105638 1776:0.01316237 1829:0.019780374 1858:0.068324432 1905:0.068324432 1911:0.068324432 1918:0.017971679 1933:0.027108728 1974:0.0085768291 2060:0.10092347 2082:0.068324432 2093:0.068324432 2099:0.068324432 2102:0.039967228 2117:0.068324432 2164:0.046328881 2199:0.039967228 2216:0.039967228 2264:0.058929585 2270:0.029218011 2273:0.068324432 2288:0.068324432 2386:0.068324432 2425:0.068324432 2450:0.019780374 2489:0.10092347 2500:0.013877768 2516:0.0088990944 2570:0.068324432 2589:0.028357204 2607:0.018732847 2629:0.03091764 2687:0.055162064 2728:0.088892145 2731:0.019389988 2791:0.068324432 2812:0.0050560511 2830:0.027366529 2833:0.068324432 2837:0.039967228 2855:0.0093948523 2863:0.068324432 2865:0.061502484 2877:0.068324432 2909:0.043552037 2940:0.068324432 3001:0.068324432 3051:0.015194832 3111:0.024986285 3118:0.03091764 3124:0.017971679 3129:0.068324432 3151:0.068324432 3152:0.068324432 3186:0.020478362 3210:0.0059758487 3233:0.03316651 3235:0.068324432 3236:0.068324432 3264:0.039317915 3290:0.039967228 3305:0.017971679 3345:0.010385529 3371:0.068324432 3407:0.039967228 3459:0.046328881 3465:0.068324432 3483:0.068324432 3492:0.011342536 3510:0.0091053623 3539:0.068324432 3552:0.068324432 3576:0.019914034 3640:0.068324432 3649:0.068324432 3717:0.068324432 3801:0.039967228 3811:0.024343033 3815:0.088892145 3849:0.068324432 3884:0.068324432 3946:0.068324432 3982:0.02956333 3986:0.068324432 3988:0.068324432 3994:0.068324432 4090:0.085547815 4093:0.068324432 4100:0.068324432 4115:0.034191522 4133:0.046328881 4136:0.039967228 4155:0.042462843 4208:0.02046729 4210:0.012337495 4242:0.068324432 4288:0.016939507 4293:0.017971679 4307:0.068324432 4356:0.017971679 4397:0.068324432 4402:0.068324432 4412:0.028357204 4436:0.051138185 4444:0.068324432 4488:0.010385529 4566:0.028357204 4603:0.088892145 4607:0.068324432 4629:0.0019914065 4636:0.015194832 4649:0.03091764 4665:0.068324432 4698:0.010265021 4715:0.068324432 4744:0.0017761061 4754:0.068324432 4768:0.028357204 4773:0.026190716 4794:0.059036445 4840:0.068324432 4866:0.046328881 4907:0.068324432 4927:0.039967228 4965:0.017971679 4973:0.043552037 4975:0.028357204 4997:0.019780374 5020:0.046328881 5040:0.021203813 5058:0.046328881 5061:0.10945984 5108:0.041241252 5141:0.068324432 5199:0.10092347 5201:0.068324432 5259:0.036893573 5267:0.028357204 5344:0.068324432 5381:0.068324432 5383:0.068324432 5423:0.088892145 5507:0.088892145 5508:0.068324432 5511:0.068324432 5520:0.028357204 5571:0.028357204 5595:0.01316237 5610:0.068324432 5695:0.0073049254 5705:0.057938905 5731:0.028357204 5734:0.068324432 5740:0.024772393 5775:0.028357204 5836:0.036893573 5842:0.0095039278 5860:0.028357204 5888:0.047495417 5935:0.022038808 5999:0.050352753 6024:0.0085768291 6047:0.017971679 6101:0.039967228 6106:0.021788574 6111:0.068324432 6121:0.10092347 6128:0.0070945275 6131:0.0073049254 6140:0.068324432 6145:0.068324432 6152:0.068324432 6169:0.039967228 6274:0.01883257 6286:0.023381694 6299:0.068324432 6380:0.03693403 6387:0.088892145 6419:0.068324432 6432:0.068324432 6490:0.068324432 6503:0.028357204 6574:0.068324432 6620:0.08816803 6664:0.036893573 6665:0.068324432 6670:0.01316237 6698:0.010693209 6718:0.039967228 6751:0.068324432 6757:0.028357204 6771:0.021995554 6814:0.068324432 6816:0.0050560511 6873:0.0016986225 6881:0.068324432 6883:0.02377166 6897:0.068324432 6901:0.068324432 6931:0.028357204 6938:0.0093948523 6996:0.028357204 7008:0.017971679 7072:0.10092347 7169:0.068324432 7250:0.0073049254 7279:0.030927644 7289:0.02377166 7293:0.068324432 7298:0.002776846 7371:0.0049685898 7407:0.028357204 7417:0.021995554 7431:0.02921198 7497:0.068324432 7520:0.068324432 7537:0.068324432 7607:0.033991383 7627:0.021995554 7684:0.068324432 7685:0.10367031 7691:0.028357204 7748:0.039967228 7783:0.028357204 7812:0.015104997 7865:0.068324432 7976:0.013820014 8047:0.068324432 8048:0.068324432 8061:0.068324432 8081:0.0079351636 8149:0.019561572 8173:0.057938905 8246:0.074377124 8248:0.023663052 8262:0.01316237 8284:0.10092347 8291:0.023215378 8292:0.028357204 8295:0.068324432 8309:0.068324432 8355:0.068324432 8457:0.046328881 8466:0.021052283 8467:0.010385529 8514:0.068324432 8616:0.048178037 8631:0.017971679 8633:0.042462843 8636:0.068324432 8660:0.068324432 8717:0.067903119 8763:0.035157922 8766:0.023235205 8769:0.068324432 8774:0.012600703 8812:0.0085768291 8830:0.068324432 8842:0.068324432 8862:0.068324432 8911:0.068324432 8919:0.088892145 8927:0.068324432 8934:0.013877335 8973:0.068324432 8989:0.068324432 9006:0.02302772 9041:0.028357204 9061:0.053129594 9075:0.028357204 9122:0.068324432 9147:0.053129594 9205:0.11608116 9220:0.068324432 9293:0.021313394 9339:0.046328881 9351:0.017971679 9358:0.033065101 9365:0.017971679 9388:0.068324432 9462:0.0043476741 9484:0.028357204 9511:0.019780374 9538:0.056714403 9543:0.068324432 9546:0.068324432 9571:0.028357204 9581:0.068324432 9588:0.02377166 9597:0.068324432 9639:0.0038660339 9676:0.010783178 9693:0.0011929753 9727:0.010385529 9743:0.02377166 9802:0.035157922 9821:0.035157922 9841:0.017971679 9895:0.0085768291 9901:0.060275268 
0.6590841978082946 8:0.081406667 48:0.021412758 71:0.033786822 73:0.011193706 154:0.038219236 234:0.10591253 259:0.015682599 266:0.026207093 370:0.055199577 406:0.081406667 443:0.013833028 473:0.018104221 578:0.099800809 597:0.081406667 606:0.081406667 639:0.081406667 744:0.071816311 745:0.014886358 750:0.0060241447 786:0.081406667 813:0.081406667 832:0.081406667 874:0.041889689 929:0.081406667 1059:0.081406667 1081:0.0027000052 1099:0.04906091 1117:0.015682599 1175:0.029909666 1179:0.081406667 1206:0.12024752 1217:0.057252963 1258:0.036021386 1322:0.051891045 1329:0.10591253 1332:0.081406667 1381:0.026207093 1474:0.020723923 1483:0.081406667 1488:0.0048511794 1551:0.081406667 1567:0.081406667 1572:0.081406667 1574:0.023102634 1690:0.022593119 1719:0.043957669 1735:0.033786822 1737:0.02951562 1760:0.063302438 1794:0.051891045 1896:0.013309887 1933:0.026230201 1942:0.0078375936 1965:0.081406667 2126:0.081406667 2149:0.0081028637 2152:0.088618281 2156:0.0039815628 2167:0.0028561546 2249:0.033786822 2264:0.070212967 2387:0.081406667 2490:0.081406667 2500:0.012709143 2512:0.010918885 2516:0.0066183688 2574:0.033786822 2577:0.081406667 2581:0.081406667 2597:0.047619844 2659:0.015682599 2691:0.081406667 2761:0.081406667 2837:0.047619844 2855:0.011193706 2878:0.01237407 2951:0.081406667 3063:0.081406667 3070:0.020403532 3112:0.02951562 3125:0.0363161 3255:0.081195152 3264:0.057685397 3287:0.13041836 3295:0.059993909 3308:0.026207093 3315:0.081406667 3336:0.081406667 3352:0.081406667 3356:0.081406667 3474:0.081406667 3593:0.0733038 3597:0.10591253 3659:0.01237407 3671:0.014399026 3739:0.081406667 3747:0.081406667 3800:0.081406667 3811:0.018104221 3820:0.041889689 3880:0.081406667 3906:0.10591253 3959:0.033786822 3972:0.013833028 3982:0.027073846 3985:0.039516978 3995:0.081406667 3999:0.081406667 4032:0.081406667 4094:0.081406667 4213:0.016099037 4217:0.10591253 4252:0.10591253 4293:0.021412758 4337:0.081406667 4464:0.019619661 4467:0.033786822 4484:0.081406667 4598:0.081406667 4629:0.0023727056 4638:0.081406667 4717:0.081406667 4740:0.033786822 4744:0.0021161812 4773:0.031205512 4814:0.081406667 4817:0.081406667 4854:0.081406667 4879:0.081406667 4985:0.081406667 5011:0.021412758 5040:0.025263756 5058:0.071816311 5094:0.0045176717 5177:0.025311697 5186:0.081406667 5208:0.081406667 5264:0.081406667 5336:0.021412758 5366:0.081406667 5412:0.081406667 5427:0.081406667 5534:0.081406667 5551:0.0082936851 5596:0.081406667 5611:0.10591253 5668:0.081406667 5683:0.033786822 5767:0.081406667 5778:0.015682599 5812:0.081406667 5840:0.033786822 5856:0.088433033 5859:0.081406667 5947:0.017997185 5996:0.081406667 6068:0.033786822 6106:0.031967169 6128:0.010997519 6181:0.081406667 6190:0.015682599 6195:0.059993909 6223:0.017997185 6363:0.071816311 6429:0.026207093 6456:0.021412758 6494:0.10591253 6495:0.081406667 6502:0.0031320503 6510:0.061954846 6580:0.081406667 6670:0.015682599 6759:0.081406667 6807:0.081406667 6816:0.0060241447 6824:0.081406667 6872:0.050593301 6873:0.0022977865 6915:0.081406667 6931:0.033786822 6986:0.081406667 7006:0.041889689 7096:0.058929018 7121:0.081406667 7156:0.081406667 7172:0.024386209 7184:0.081406667 7199:0.061787 7354:0.034979163 7371:0.0072213227 7389:0.011193706 7417:0.026207093 7431:0.026752084 7464:0.033786822 7486:0.1014143 7539:0.051412776 7556:0.0015555842 7565:0.081406667 7575:0.081406667 7609:0.081406667 7685:0.072703052 7700:0.0075797325 7729:0.033786822 7733:0.081406667 7754:0.033786822 7792:0.018104221 8004:0.06572407 8060:0.047619844 8070:0.081406667 8093:0.081406667 8149:0.023307071 8344:0.059993909 8360:0.033786822 8377:0.054499742 8387:0.081406667 8398:0.081406667 8414:0.071816311 8423:0.10591253 8428:0.081406667 8467:0.016099037 8496:0.10591253 8511:0.081406667 8522:0.081406667 8610:0.081406667 8633:0.050593301 8670:0.071816311 8708:0.081406667 8766:0.034089598 8978:0.033786822 9002:0.081406667 9021:0.081406667 9059:0.081406667 9174:0.081406667 9227:0.0067129755 9263:0.033786822 9309:0.13041836 9327:0.033786822 9358:0.030280741 9365:0.021412758 9394:0.081406667 9511:0.023567767 9639:0.0046062722 9671:0.033786822 9708:0.081406667 9716:0.0035772747 9727:0.01237407 9764:0.033786822 9847:0.033786822 9868:0.015292693 9896:0.033786822 9911:0.033786822 9913:0.081406667 9933:0.081406667 
0.3035969756741055 2:0.050117656 36:0.026749623 58:0.026749623 71:0.026749623 106:0.064451093 142:0.019308589 145:0.064451093 314:0.083852814 321:0.064451093 325:0.041083055 329:0.064451093 338:0.023368036 343:0.064451093 389:0.016952858 390:0.064451093 448:0.014790359 455:0.014333431 469:0.0043255883 473:0.014333431 521:0.0068908063 549:0.043702478 616:0.064451093 629:0.020748618 668:0.014333431 685:0.064451093 708:0.064451093 729:0.043673241 736:0.016952858 750:0.0047694216 812:0.064451093 870:0.064451093 903:0.070160655 904:0.066683319 909:0.064451093 932:0.064451093 935:0.0060010078 953:0.064451093 977:0.064451093 1007:0.026749623 1028:0.064451093 1089:0.016952858 1099:0.038842387 1121:0.064451093 1155:0.043702478 1172:0.047498235 1183:0.03770147 1231:0.0028612494 1281:0.064451093 1282:0.064451093 1341:0.064451093 1375:0.13157 1391:0.043702478 1423:0.064451093 1446:0.083852814 1474:0.016407495 1494:0.064451093 1514:0.064451093 1597:0.064451093 1600:0.026749623 1604:0.064451093 1653:0.10325452 1654:0.064451093 1690:0.023272007 1695:0.064451093 1707:0.020748618 1716:0.013305984 1760:0.065204577 1776:0.01241619 1794:0.060684655 1801:0.064451093 1878:0.064451093 1907:0.064451093 1933:0.020766913 1960:0.083852814 1987:0.064451093 1993:0.064451093 1996:0.083852814 2051:0.064451093 2065:0.01241619 2066:0.043702478 2077:0.054654326 2088:0.064451093 2157:0.026749623 2163:0.064451093 2167:0.0017380599 2196:0.064451093 2200:0.064451093 2264:0.082111459 2300:0.0065049769 2329:0.0036468669 2371:0.064451093 2434:0.016952858 2472:0.064451093 2474:0.064451093 2497:0.026749623 2500:0.010062052 2516:0.0052398792 2535:0.064451093 2560:0.083852814 2585:0.064451093 2591:0.043702478 2619:0.083852814 2621:0.043702478 2629:0.029164906 2635:0.01241619 2642:0.064451093 2650:0.016952858 2698:0.064451093 2744:0.064451093 2755:0.083852814 2789:0.064451093 2815:0.026749623 2822:0.03950703 2830:0.033586233 2831:0.064451093 2841:0.064451093 2883:0.064451093 2894:0.019306991 2925:0.050117656 2981:0.016952858 3084:0.064451093 3112:0.023368036 3121:0.026749623 3125:0.022099486 3156:0.01241619 3186:0.01781094 3212:0.026749623 3251:0.064451093 3258:0.052662176 3264:0.028507389 3280:0.080731065 3295:0.047498235 3347:0.064451093 3446:0.03770147 3514:0.064451093 3518:0.047498235 3548:0.064451093 3583:0.064451093 3671:0.011399962 3684:0.064553858 3782:0.064451093 3801:0.03770147 3811:0.021172215 3840:0.019660574 3902:0.064451093 3904:0.064451093 3939:0.043702478 3964:0.064451093 3982:0.027887373 3994:0.064451093 4080:0.0089651464 4106:0.064451093 4113:0.064451093 4173:0.064451093 4185:0.064451093 4210:0.011638078 4241:0.064451093 4261:0.026749623 4283:0.064451093 4288:0.015979199 4311:0.064451093 4367:0.064451093 4384:0.064451093 4403:0.03770147 4407:0.064451093 4436:0.048239141 4448:0.064451093 4473:0.01241619 4493:0.064451093 4503:0.010951852 4513:0.083852814 4563:0.0060010078 4591:0.064451093 4639:0.064451093 4649:0.043080104 4655:0.064451093 4663:0.036035087 4721:0.064451093 4747:0.015533232 4750:0.020748618 4775:0.064451093 4776:0.064451093 4797:0.064451093 4841:0.064451093 4842:0.064451093 4933:0.10950047 4965:0.022056177 4991:0.064451093 4999:0.064451093 5023:0.064451093 5064:0.041083055 5130:0.03770147 5143:0.064451093 5181:0.064451093 5250:0.064451093 5267:0.026749623 5275:0.043702478 5276:0.064451093 5304:0.064451093 5325:0.064451093 5340:0.064451093 5375:0.052034904 5381:0.064451093 5425:0.064451093 5439:0.041083055 5447:0.083852814 5488:0.064451093 5551:0.0065662567 5577:0.064451093 5722:0.011399962 5740:0.023368036 5778:0.01241619 5824:0.0080906052 5868:0.037011993 5888:0.058289898 5935:0.020789419 6031:0.026749623 6096:0.083852814 6144:0.064451093 6147:0.064451093 6166:0.064451093 6177:0.064451093 6291:0.064451093 6300:0.03770147 6420:0.06276057 6428:0.030648224 6490:0.064451093 6500:0.064451093 6504:0.026749623 6527:0.010101128 6564:0.064451093 6672:0.026749623 6713:0.064451093 6737:0.083852814 6745:0.034802061 6771:0.020748618 6786:0.03770147 6822:0.064451093 6831:0.083852814 6844:0.064451093 6857:0.005314781 6868:0.083852814 6873:0.0012315834 6912:0.016291047 6938:0.0088622544 6967:0.0080906052 6982:0.026749623 7023:0.026749623 7045:0.064451093 7060:0.012745891 7100:0.01241619 7132:0.064451093 7165:0.064451093 7191:0.064451093 7199:0.072257603 7242:0.026749623 7244:0.048865419 7295:0.02172227 7354:0.036030229 7361:0.050117656 7371:0.0029255574 7380:0.0097967695 7437:0.046686149 7479:0.057008462 7481:0.083852814 7498:0.064451093 7506:0.026749623 7563:0.020748618 7595:0.064451093 7607:0.032064398 7621:0.083852814 7625:0.10950047 7671:0.043702478 7740:0.064451093 7756:0.016952858 7776:0.064451093 7803:0.064451093 7819:0.064451093 7824:0.064451093 7827:0.064451093 7831:0.0029520951 7839:0.064451093 7869:0.064451093 7921:0.064451093 7993:0.064451093 8049:0.01241619 8051:0.064451093 8074:0.026749623 8111:0.064451093 8126:0.01241619 8174:0.064451093 8194:0.0097967695 8195:0.064451093 8196:0.064451093 8275:0.03770147 8291:0.011868902 8302:0.026749623 8306:0.064451093 8308:0.050955891 8314:0.049050744 8329:0.083852814 8335:0.064451093 8352:0.033164805 8403:0.0016171459 8428:0.064451093 8459:0.026749623 8487:0.064451093 8499:0.064451093 8506:0.064451093 8525:0.083852814 8610:0.064451093 8616:0.026749623 8633:0.040055608 8682:0.064451093 8737:0.064451093 8763:0.033164805 8774:0.011886364 8812:0.0080906052 8839:0.064451093 8847:0.026749623 8881:0.064451093 8914:0.064451093 8934:0.0088622544 8996:0.064451093 9004:0.064451093 9072:0.064451093 9121:0.016153836 9136:0.026749623 9139:0.03770147 9172:0.064451093 9199:0.050117656 9218:0.064451093 9279:0.0097967695 9296:0.034502717 9339:0.043702478 9461:0.083852814 9462:0.0031522735 9478:0.064451093 9498:0.064451093 9499:0.034840225 9509:0.064451093 9517:0.064451093 9623:0.015111545 9665:0.064451093 9687:0.03770147 9693:0.0015959446 9773:0.016952858 9780:0.064451093 9788:0.033164805 9828:0.064451093 9863:0.064451093 9868:0.009306084 9897:0.064451093 
0.6684676996342043 2:0.071023205 58:0.037907677 61:0.064235897 85:0.01858983 98:0.067311146 129:0.10352398 142:0.024100789 200:0.019160303 243:0.09133554 295:0.022387482 434:0.0064290414 562:0.037907677 587:0.09133554 681:0.050466634 690:0.09133554 729:0.061890634 790:0.040049956 915:0.09133554 935:0.0085042047 938:0.015520192 983:0.014789852 1048:0.042880696 1085:0.09133554 1099:0.055044689 1151:0.014916874 1175:0.043821753 1197:0.09133554 1209:0.037907677 1227:0.09133554 1231:0.0052753655 1272:0.053427862 1285:0.044336719 1286:0.064235897 1314:0.037907677 1347:0.025348719 1381:0.029403476 1503:0.0061299185 1593:0.037907677 1621:0.05676398 1690:0.032979445 1716:0.018856301 1737:0.033115532 1740:0.09133554 1782:0.014131675 1799:0.030375944 1873:0.09133554 1887:0.037907677 1896:0.014933245 1933:0.029429403 1942:0.0087935162 1948:0.09133554 2002:0.049373108 2011:0.09133554 2028:0.025920377 2170:0.09133554 2195:0.024024393 2221:0.037907677 2329:0.0051680824 2354:0.031777761 2384:0.015520192 2466:0.09133554 2500:0.014259231 2512:0.0094160943 2516:0.0096609119 2564:0.046998821 2571:0.09133554 2607:0.025041915 2611:0.09133554 2631:0.075745977 2658:0.09133554 2697:0.011465435 2779:0.09133554 2807:0.09133554 2830:0.047596038 2847:0.061932068 2855:0.012558961 2867:0.09133554 2890:0.017595348 2894:0.027360506 3057:0.09133554 3077:0.010393234 3111:0.02084907 3120:0.0087935162 3121:0.037907677 3125:0.031317832 3133:0.03372319 3164:0.011465435 3186:0.022231437 3191:0.01388329 3197:0.14632501 3210:0.0079884655 3221:0.053427862 3234:0.080575483 3264:0.05967372 3271:0.024024393 3278:0.09133554 3280:0.13772182 3300:0.039520017 3363:0.09133554 3435:0.061932068 3442:0.064235897 3567:0.037907677 3575:0.12419566 3576:0.026620918 3671:0.016155222 3689:0.037907677 3815:0.09133554 3891:0.09133554 3931:0.11883029 3986:0.09133554 4080:0.012704773 4081:0.061932068 4244:0.09133554 4297:0.09133554 4308:0.15517634 4455:0.024024393 4462:0.031777761 4478:0.024024393 4499:0.09133554 4503:0.015520192 4561:0.037907677 4744:0.0023742841 4747:0.032515277 4773:0.045551057 4891:0.16240841 5105:0.11883029 5131:0.010272934 5230:0.053427862 5239:0.053427862 5424:0.09133554 5451:0.01388329 5498:0.024024393 5516:0.053427862 5551:0.013744961 5578:0.037907677 5615:0.026442241 5626:0.037907677 5627:0.09133554 5631:0.01388329 5639:0.09133554 5679:0.09133554 5687:0.033115532 5712:0.09133554 5763:0.037907677 5806:0.09133554 5828:0.046998821 5841:0.09133554 5842:0.0097651643 5868:0.04259519 5912:0.009496474 5935:0.033448808 5947:0.015520192 5985:0.037907677 6000:0.09133554 6004:0.019317841 6094:0.08893985 6128:0.012338846 6155:0.09133554 6187:0.09133554 6194:0.017595348 6280:0.077452252 6291:0.09133554 6301:0.024024393 6347:0.037907677 6423:0.029403476 6428:0.029403476 6507:0.13491367 6536:0.058220006 6585:0.09133554 6588:0.077452252 6663:0.037907677 6690:0.020312327 6698:0.014294594 6733:0.09133554 6890:0.032541567 6912:0.023086522 6955:0.053427862 6980:0.067311146 6982:0.037907677 6997:0.09133554 7001:0.09133554 7023:0.037907677 7030:0.09133554 7080:0.09133554 7096:0.050818484 7100:0.017595348 7114:0.09133554 7196:0.11883029 7210:0.09133554 7227:0.037907677 7248:0.11883029 7282:0.022012599 7291:0.053427862 7354:0.039245443 7371:0.0053939317 7385:0.029403476 7389:0.012558961 7418:0.09133554 7447:0.09133554 7547:0.031777761 7607:0.080798131 7643:0.09133554 7649:0.027861578 7736:0.09133554 7831:0.0041835009 7911:0.024024393 7929:0.058220006 7939:0.09133554 7963:0.0085042047 7971:0.0085042047 7976:0.022239491 7988:0.09133554 8016:0.033973972 8060:0.053427862 8081:0.0081532793 8151:0.11813622 8194:0.01388329 8281:0.03114879 8291:0.03433576 8333:0.053427862 8378:0.09133554 8403:0.0033851261 8449:0.037907677 8453:0.024024393 8457:0.061932068 8466:0.036614263 8498:0.09133554 8616:0.037907677 8722:0.024024393 8766:0.031060631 8774:0.021915222 8858:0.09133554 8932:0.01388329 8934:0.012558961 8982:0.053427862 9037:0.09133554 9046:0.0061299185 9073:0.040868908 9223:0.053427862 9235:0.11883029 9237:0.0044671794 9296:0.048894815 9351:0.024024393 9358:0.033973972 9372:0.020312327 9380:0.09133554 9424:0.0085042047 9439:0.011465435 9676:0.01636588 9693:0.0015947595 9700:0.09133554 9716:0.0040135818 9718:0.09133554 9802:0.046998821 9846:0.09133554 9899:0.053427862 9915:0.14632501 9916:0.017595348 
0.7348382861643716 19:0.033792868 61:0.057263208 85:0.016571938 142:0.0165136 277:0.049909334 325:0.051900331 369:0.081421234 370:0.055209455 377:0.081421234 405:0.081421234 490:0.081421234 521:0.0087051735 537:0.081421234 582:0.081421234 620:0.012376284 675:0.081421234 676:0.081421234 681:0.044988573 729:0.042406798 730:0.043965535 746:0.081421234 754:0.081421234 786:0.081421234 868:0.0044332089 900:0.057849247 941:0.018107461 959:0.081421234 983:0.011612691 1019:0.081421234 1099:0.063841142 1161:0.081421234 1203:0.081421234 1238:0.07118206 1314:0.033792868 1379:0.047628365 1503:0.005464527 1574:0.030062599 1611:0.0075810888 1810:0.010543955 1896:0.017319662 1900:0.081421234 1933:0.032305077 2077:0.089829559 2189:0.018107461 2193:0.047628365 2300:0.0082177542 2336:0.028328343 2339:0.047628365 2351:0.047628365 2406:0.081421234 2416:0.081421234 2460:0.081421234 2494:0.1304417 2500:0.016537935 2632:0.081421234 2639:0.081421234 2736:0.021416589 2768:0.081421234 2865:0.056333532 2973:0.081421234 3004:0.081421234 3044:0.047628365 3120:0.0060252227 3133:0.023106768 3145:0.081421234 3186:0.015232742 3238:0.061234669 3243:0.081421234 3295:0.060004644 3300:0.02707869 3338:0.081421234 3492:0.019965856 3511:0.081421234 3569:0.13833223 3592:0.081421234 3636:0.081421234 3642:0.035672362 3659:0.012376284 3710:0.081421234 3757:0.081421234 3807:0.047628365 3808:0.047628365 3885:0.055209455 4022:0.10593148 4114:0.060004644 4128:0.081421234 4129:0.0075810888 4148:0.081421234 4261:0.033792868 4275:0.033792868 4334:0.072716061 4359:0.0274418 4439:0.035871959 4453:0.060004644 4480:0.021416589 4496:0.043965535 4582:0.012376284 4590:0.081421234 4666:0.047628365 4691:0.081421234 4744:0.0021165599 4747:0.019623172 4755:0.033792868 4768:0.033792868 4818:0.081421234 4828:0.033792868 4855:0.081421234 4927:0.047628365 4968:0.081421234 5030:0.081421234 5094:0.005878678 5098:0.12026904 5131:0.0091578256 5145:0.067585731 5174:0.081421234 5177:0.025316226 5182:0.13833223 5246:0.055209455 5288:0.033792868 5347:0.081421234 5360:0.081421234 5376:0.081421234 5393:0.081421234 5413:0.081421234 5415:0.081421234 5439:0.051900331 5517:0.033792868 5532:0.081421234 5589:0.021416589 5618:0.021416589 5682:0.081421234 5740:0.029520901 5759:0.081421234 5824:0.010220883 5905:0.016417275 5912:0.0057311807 5922:0.047628365 5951:0.081421234 5968:0.060004644 5993:0.081421234 5999:0.060004644 6082:0.081421234 6106:0.019957362 6115:0.081421234 6120:0.081421234 6128:0.0084544454 6131:0.011325693 6195:0.060004644 6327:0.081421234 6408:0.060004644 6420:0.079285592 6428:0.026211783 6527:0.012760782 6530:0.081421234 6600:0.081421234 6627:0.033792868 6640:0.081421234 6672:0.033792868 6741:0.081421234 6778:0.081421234 6845:0.033792868 6857:0.0067141767 6873:0.0015558625 6878:0.081421234 6890:0.018107461 6957:0.081421234 6967:0.010220883 6968:0.10593148 6969:0.081421234 7011:0.12026904 7026:0.081421234 7058:0.081421234 7127:0.10593148 7142:0.081421234 7160:0.081421234 7202:0.033792868 7244:0.050132295 7273:0.026211783 7281:0.033792868 7289:0.028328343 7295:0.0274418 7334:0.033792868 7345:0.033792868 7371:0.0036958643 7390:0.081421234 7420:0.081421234 7447:0.081421234 7448:0.081421234 7497:0.081421234 7539:0.039524049 7559:0.051900331 7584:0.033792868 7715:0.012376284 7727:0.047628365 7835:0.047628365 7854:0.081421234 7874:0.033792868 7969:0.081421234 7976:0.011149464 8096:0.07118206 8109:0.081421234 8166:0.081421234 8222:0.081421234 8246:0.060004644 8248:0.019090454 8287:0.081421234 8291:0.025474381 8367:0.081421234 8394:0.081421234 8457:0.071829161 8570:0.10593148 8601:0.012376284 8616:0.054138202 8625:0.073556185 8716:0.047628365 8743:0.081421234 8749:0.081421234 8766:0.021282412 8774:0.015016075 8781:0.033792868 8856:0.021416589 8879:0.044013747 8892:0.15023017 8966:0.081421234 9046:0.005464527 9048:0.041897185 9094:0.027863625 9139:0.047628365 9160:0.081421234 9199:0.082373112 9245:0.081421234 9250:0.081421234 9251:0.081421234 9280:0.0097945027 9293:0.025398862 9346:0.029520901 9351:0.021416589 9358:0.030286159 9379:0.081421234 9440:0.081421234 9455:0.043587372 9462:0.0039822753 9473:0.081421234 9503:0.033792868 9518:0.033792868 9524:0.055209455 9556:0.047628365 9693:0.0010927121 9713:0.015685405 9866:0.081421234 9895:0.010220883 9910:0.081421234 9929:0.081421234 
0.8625335961441011 
0.7471066488522559 2:0.078640968 42:0.0099480805 120:0.012695187 123:0.052039791 126:0.10113195 142:0.020511267 165:0.10113195 290:0.028778131 347:0.10113195 428:0.10113195 441:0.059158395 511:0.019482579 538:0.10113195 578:0.061991547 598:0.10113195 607:0.10113195 681:0.055879553 706:0.10113195 719:0.11638171 729:0.052672774 747:0.019482579 750:0.0074838282 768:0.019482579 800:0.10113195 836:0.041973556 988:0.041973556 1035:0.10113195 1048:0.047479968 1066:0.074530764 1094:0.10113195 1146:0.039293179 1193:0.10113195 1229:0.052039791 1231:0.0044896636 1313:0.10113195 1410:0.034608943 1411:0.068574739 1576:0.10113195 1675:0.10113195 1679:0.055313731 1748:0.10113195 1758:0.041973556 1782:0.015647401 1885:0.19246321 1894:0.16201945 2021:0.074530764 2047:0.10113195 2137:0.021389822 2151:0.085759578 2152:0.13751656 2173:0.019482579 2219:0.012695187 2251:0.052039791 2451:0.10113195 2483:0.10113195 2527:0.10113195 2556:0.026601187 2567:0.10113195 2603:0.041973556 2642:0.10113195 2676:0.016516819 2731:0.028700529 2755:0.10113195 2822:0.061991547 3002:0.059158395 3062:0.041973556 3127:0.10113195 3170:0.10113195 3255:0.054668738 3282:0.10113195 3464:0.045157416 3576:0.029476208 3593:0.15471792 3619:0.10113195 3725:0.10113195 3742:0.10113195 3840:0.030849938 3873:0.041973556 3985:0.049092159 4009:0.10113195 4086:0.10113195 4114:0.074530764 4115:0.050609353 4181:0.054608855 4281:0.10113195 4359:0.034085 4426:0.10113195 4469:0.020256591 4557:0.10113195 4575:0.10113195 4585:0.10113195 4671:0.059158395 4755:0.041973556 4806:0.10113195 4861:0.10113195 4871:0.0074838282 5068:0.041973556 5093:0.059158395 5094:0.0056123284 5099:0.10113195 5130:0.059158395 5138:0.10113195 5275:0.068574739 5480:0.10113195 5667:0.10113195 5686:0.041973556 5700:0.041973556 5722:0.017887989 5868:0.036251153 5985:0.041973556 5997:0.10113195 6019:0.019482579 6024:0.012695187 6097:0.03518616 6314:0.063870375 6316:0.10113195 6338:0.10113195 6356:0.078640968 6363:0.12193626 6588:0.085759578 6646:0.10113195 6779:0.068574739 6857:0.0083395665 6858:0.10113195 7020:0.019482579 7096:0.056269141 7100:0.019482579 7104:0.052039791 7205:0.041973556 7354:0.043454806 7371:0.0059724707 7403:0.074530764 7539:0.049092159 7552:0.041973556 7556:0.0019325108 7607:0.050313113 7627:0.032557216 7913:0.10113195 7955:0.10113195 7976:0.020456006 8036:0.01081255 8129:0.048090955 8144:0.10113195 8199:0.19246321 8237:0.068631801 8291:0.031641302 8297:0.041973556 8304:0.10113195 8372:0.054608855 8457:0.068574739 8490:0.10113195 8601:0.019999922 8647:0.026601187 8690:0.10113195 8769:0.10113195 8835:0.10113195 8940:0.026601187 8946:0.10113195 8995:0.10113195 9009:0.01081255 9053:0.026601187 9090:0.10113195 9237:0.0049463174 9352:0.054608855 9588:0.03518616 9615:0.039414863 9693:0.0013572394 9716:0.0057818664 9744:0.10113195 9785:0.10113195 9890:0.041973556 9893:0.015372376 9901:0.089217798 9916:0.019482579 
0.6245111119087971 3:0.016482811 59:0.06648238 73:0.0091415635 85:0.013531383 105:0.048995224 110:0.06648238 113:0.021402546 157:0.021402546 166:0.086495579 259:0.012807507 262:0.030544107 284:0.038889696 380:0.06648238 422:0.06648238 435:0.06648238 436:0.06648238 437:0.06648238 443:0.011297019 449:0.032272329 566:0.06648238 681:0.036734243 693:0.027592683 708:0.06648238 714:0.06648238 721:0.0516972 729:0.034626162 739:0.06648238 744:0.045079837 748:0.041318029 758:0.06648238 776:0.027592683 779:0.017487156 805:0.027592683 815:0.038889696 821:0.06648238 832:0.06648238 936:0.011297019 995:0.06648238 1002:0.0516972 1006:0.06648238 1043:0.052757036 1099:0.040066571 1106:0.027592683 1151:0.0083455945 1183:0.038889696 1217:0.035938275 1229:0.034210051 1279:0.06648238 1343:0.027592683 1360:0.027592683 1378:0.027592683 1379:0.038889696 1382:0.012807507 1447:0.012807507 1474:0.016924606 1488:0.0030451355 1495:0.06648238 1498:0.019235956 1554:0.06648238 1555:0.0516972 1574:0.018867227 1602:0.086495579 1619:0.06648238 1621:0.041318029 1624:0.06648238 1683:0.06648238 1694:0.06648238 1727:0.038889696 1736:0.06648238 1746:0.0083455945 1769:0.027592683 1770:0.05812185 1799:0.022110397 1855:0.06648238 1856:0.06648238 1859:0.0574448 1872:0.06648238 1888:0.086495579 1933:0.024320753 1936:0.020280211 1951:0.038889696 2021:0.048995224 2074:0.06648238 2147:0.06648238 2149:0.0066173654 2213:0.06648238 2216:0.038889696 2226:0.053674874 2236:0.06648238 2249:0.027592683 2260:0.0131476 2266:0.06648238 2267:0.017487156 2269:0.086495579 2270:0.019247087 2290:0.061454533 2300:0.0087299019 2323:0.06648238 2384:0.011297019 2395:0.086495579 2424:0.014785174 2426:0.027592683 2514:0.038889696 2516:0.005405023 2635:0.012807507 2737:0.06648238 2782:0.06648238 2830:0.026628717 2884:0.06648238 2896:0.06648238 2932:0.06648238 2972:0.06648238 3020:0.06648238 3037:0.086495579 3052:0.06648238 3067:0.06648238 3111:0.022416592 3131:0.06648238 3133:0.018867227 3137:0.06648238 3142:0.06648238 3186:0.012437897 3221:0.038889696 3234:0.045079837 3239:0.06648238 3264:0.03825789 3344:0.06648238 3362:0.06648238 3380:0.06648238 3419:0.06648238 3435:0.045079837 3455:0.06648238 3459:0.058650224 3512:0.06648238 3608:0.06648238 3628:0.086495579 3650:0.06648238 3793:0.053674874 3800:0.06648238 3811:0.021839494 3813:0.06648238 3816:0.06648238 3904:0.06648238 3922:0.06648238 3933:0.0061901398 3982:0.022110397 4036:0.06648238 4046:0.027592683 4058:0.086495579 4060:0.054321915 4077:0.038889696 4099:0.06648238 4101:0.0083455945 4133:0.045079837 4175:0.06648238 4188:0.06648238 4305:0.06648238 4324:0.045079837 4344:0.06648238 4359:0.022406884 4390:0.06648238 4392:0.06648238 4400:0.05637685 4401:0.086495579 4436:0.04975948 4467:0.027592683 4469:0.019669832 4478:0.017487156 4565:0.038889696 4629:0.0019377174 4671:0.038889696 4698:0.0076772031 4714:0.06648238 4729:0.06648238 4817:0.10650876 4863:0.06648238 4872:0.06648238 4875:0.027592683 4925:0.027592683 5009:0.02410452 5038:0.06648238 5084:0.038889696 5149:0.06648238 5160:0.06648238 5163:0.06648238 5165:0.017487156 5171:0.027592683 5186:0.06648238 5195:0.06648238 5280:0.027592683 5283:0.0574448 5299:0.06648238 5315:0.0091415635 5348:0.014342154 5399:0.027592683 5471:0.06648238 5615:0.019247087 5620:0.020484706 5630:0.06648238 5631:0.010105532 5687:0.02410452 5688:0.086495579 5692:0.06648238 5712:0.06648238 5740:0.02410452 5787:0.06648238 5790:0.018867227 5798:0.06648238 5842:0.0071079818 5868:0.035201094 5889:0.038889696 5905:0.017440433 5912:0.0046796457 5932:0.027592683 5957:0.06648238 6019:0.012807507 6043:0.048995224 6094:0.064738577 6106:0.021201145 6151:0.053674874 6173:0.017487156 6223:0.011297019 6261:0.06648238 6361:0.06648238 6390:0.027592683 6408:0.048995224 6415:0.06648238 6420:0.064738577 6455:0.02583065 6467:0.038889696 6470:0.06648238 6502:0.0025578514 6510:0.038889696 6524:0.06648238 6527:0.010419483 6566:0.06648238 6611:0.06648238 6627:0.027592683 6634:0.086495579 6664:0.027592683 6668:0.06648238 6682:0.010105532 6779:0.045079837 6819:0.02410452 6889:0.06648238 6904:0.086495579 6959:0.06648238 6969:0.06648238 6997:0.09820254 7006:0.034210051 7010:0.06648238 7015:0.027592683 7041:0.086495579 7053:0.06648238 7115:0.06648238 7123:0.027592683 7125:0.06648238 7126:0.06648238 7152:0.06648238 7154:0.06648238 7164:0.06648238 7185:0.06648238 7199:0.065649438 7244:0.031462928 7257:0.086495579 7287:0.06648238 7295:0.022406884 7298:0.0027019812 7363:0.09820254 7371:0.0030177614 7386:0.06648238 7407:0.027592683 7437:0.048157543 7455:0.06648238 7473:0.048995224 7510:0.06648238 7518:0.06648238 7528:0.06648238 7539:0.032272329 7541:0.027592683 7563:0.021402546 7574:0.06648238 7727:0.038889696 7738:0.06648238 7741:0.06648238 7795:0.0066173654 7824:0.06648238 7863:0.06648238 7899:0.06648238 7901:0.06648238 7926:0.06648238 7930:0.027592683 7938:0.06648238 7949:0.027592683 8016:0.024729371 8045:0.06648238 8049:0.012807507 8074:0.027592683 8081:0.0077212286 8187:0.030844308 8210:0.06648238 8246:0.048995224 8283:0.06648238 8291:0.012242971 8297:0.027592683 8313:0.06648238 8326:0.06648238 8414:0.045079837 8467:0.010105532 8597:0.086495579 8604:0.038889696 8618:0.027592683 8646:0.09820254 8648:0.06648238 8672:0.06648238 8679:0.06648238 8766:0.027839951 8777:0.06648238 8780:0.027592683 8798:0.017487156 8817:0.06648238 8846:0.038889696 8901:0.06648238 8950:0.06648238 8970:0.06648238 9006:0.022406884 9013:0.038889696 9018:0.048995224 9064:0.048995224 9089:0.06648238 9110:0.06648238 9114:0.038889696 9136:0.035898908 9150:0.038889696 9153:0.06648238 9190:0.06648238 9222:0.036734243 9299:0.02410452 9329:0.014785174 9336:0.06648238 9358:0.032173653 9441:0.038889696 9450:0.06648238 9455:0.035590129 9462:0.0042304591 9507:0.038889696 9533:0.06648238 9556:0.038889696 9564:0.027592683 9587:0.012807507 9588:0.023130768 9619:0.06648238 9694:0.027592683 9697:0.06648238 9769:0.042377858 9787:0.045079837 9820:0.035898908 9833:0.06648238 9855:0.038889696 9884:0.06648238 9895:0.0083455945 9928:0.038889696 
0.7236075529689534 2:0.066623895 16:0.035559605 58:0.035559605 61:0.046314845 162:0.085678046 171:0.035559605 205:0.085678046 264:0.085678046 413:0.011781036 434:0.0060308145 527:0.085678046 569:0.016505459 624:0.085678046 683:0.085678046 692:0.022536278 747:0.016505459 750:0.0063402295 790:0.037569187 849:0.050118441 914:0.035559605 927:0.085678046 931:0.085678046 964:0.035559605 983:0.012219818 1082:0.02758217 1117:0.016505459 1151:0.010755244 1172:0.063141768 1200:0.035559605 1247:0.050118441 1301:0.085678046 1314:0.046264113 1380:0.013023333 1391:0.05809588 1403:0.025665745 1438:0.050118441 1553:0.085678046 1606:0.05809588 1666:0.040224586 1690:0.023778572 1716:0.017688307 1737:0.031064294 1754:0.013023333 1782:0.013256332 1802:0.007065203 1866:0.085678046 1898:0.046264113 1919:0.050118441 1933:0.041466973 1989:0.085678046 2004:0.038770362 2024:0.085678046 2112:0.010755244 2149:0.0085280181 2336:0.029809387 2349:0.085678046 2391:0.085678046 2424:0.019054144 2500:0.017402561 2516:0.010289083 2565:0.050118441 2604:0.029219376 2607:0.023490772 2640:0.085678046 2690:0.022536278 2745:0.085678046 2782:0.11146972 2821:0.085678046 2822:0.052518661 2829:0.085678046 2897:0.035559605 2960:0.085678046 3005:0.035559605 3021:0.085678046 3063:0.085678046 3075:0.05461375 3103:0.085678046 3111:0.01955764 3185:0.085678046 3186:0.01602913 3277:0.085678046 3283:0.085678046 3308:0.02758217 3342:0.085678046 3343:0.029809387 3396:0.085678046 3399:0.016505459 3589:0.065205595 3602:0.085678046 3609:0.085678046 3617:0.085678046 3626:0.011781036 3671:0.015154537 3768:0.035559605 3769:0.085678046 3770:0.085678046 3806:0.029320373 3809:0.035559605 3846:0.016505459 3879:0.085678046 3918:0.085678046 3947:0.085678046 4011:0.085678046 4014:0.050118441 4060:0.091418999 4064:0.085678046 4114:0.082149344 4125:0.035559605 4159:0.085678046 4205:0.038770362 4281:0.085678046 4310:0.022536278 4345:0.085678046 4380:0.085678046 4408:0.050118441 4436:0.064126691 4503:0.018941491 4534:0.085678046 4581:0.085678046 4637:0.035559605 4656:0.085678046 4663:0.032430132 4744:0.0022272165 4771:0.035559605 4836:0.085678046 4892:0.085678046 4945:0.063141768 5015:0.085678046 5086:0.035559605 5102:0.085678046 5117:0.085678046 5130:0.050118441 5157:0.05461375 5172:0.085678046 5177:0.03465917 5260:0.085678046 5275:0.085814656 5300:0.085678046 5317:0.1003745 5467:0.063141768 5551:0.0087288519 5566:0.16305304 5597:0.013992895 5615:0.024804359 5735:0.052525845 5737:0.085678046 5778:0.016505459 5788:0.085678046 5790:0.024314821 5905:0.017275592 5931:0.085678046 5942:0.11146972 5947:0.014558842 6032:0.085678046 6034:0.035559605 6037:0.02758217 6060:0.05809588 6094:0.064126691 6101:0.050118441 6151:0.069172588 6210:0.02758217 6293:0.085678046 6408:0.063141768 6423:0.02758217 6451:0.085678046 6476:0.085678046 6480:0.085678046 6502:0.0032963879 6514:0.035559605 6745:0.035559605 6819:0.031064294 6912:0.0216565 6913:0.085678046 7008:0.022536278 7020:0.016505459 7095:0.085678046 7096:0.047670692 7194:0.085678046 7206:0.085678046 7244:0.040547318 7250:0.011917815 7371:0.0057446559 7373:0.024790015 7431:0.036631484 7437:0.08074482 7464:0.035559605 7474:0.085678046 7698:0.031064294 7701:0.02758217 7753:0.085678046 7825:0.085678046 7829:0.044087626 7893:0.085678046 7932:0.060257006 7939:0.085678046 7976:0.018795967 8000:0.085678046 8052:0.014558842 8062:0.085678046 8074:0.035559605 8075:0.035559605 8105:0.085678046 8188:0.085678046 8291:0.023305904 8328:0.050118441 8335:0.085678046 8357:0.020088529 8366:0.050118441 8394:0.085678046 8403:0.0021497525 8436:0.046264113 8518:0.024804359 8528:0.085678046 8577:0.05809588 8580:0.085678046 8616:0.035559605 8766:0.038048578 8776:0.085678046 8859:0.07105413 8878:0.085678046 8937:0.0052606775 8944:0.046264113 8954:0.13726137 8956:0.02758217 8977:0.085678046 8989:0.085678046 9013:0.050118441 9060:0.085678046 9114:0.050118441 9188:0.085678046 9191:0.085678046 9208:0.085678046 9259:0.021474098 9274:0.085678046 9279:0.013023333 9280:0.010306573 9296:0.045866179 9305:0.085678046 9338:0.035559605 9358:0.03186956 9384:0.063141768 9411:0.071119205 9413:0.035559605 9414:0.050118441 9417:0.05809588 9539:0.11146972 9587:0.016505459 9615:0.025665745 9652:0.085678046 9668:0.085678046 9701:0.035559605 9716:0.0048983433 9741:0.016505459 9892:0.085678046 
0.8483135048647311 12:0.18381037 142:0.032835626 282:0.027674114 357:0.066016313 391:0.051646538 392:0.094704181 497:0.011586379 621:0.02247009 649:0.12443823 719:0.11006846 725:0.16189789 911:0.023073884 964:0.051646538 1026:0.12443823 1100:0.084378077 1203:0.12443823 1231:0.0055243255 1258:0.03727676 1286:0.067267379 1379:0.072791696 1392:0.12443823 1412:0.12443823 1726:0.06403258 1780:0.12443823 1823:0.16189789 1933:0.040095487 1974:0.02032319 2156:0.0060862171 2193:0.072791696 2373:0.12443823 2424:0.027674114 2564:0.06403258 2731:0.035314687 2773:0.032731542 2819:0.032731542 3077:0.010883721 3186:0.023280604 3258:0.10167691 3559:0.022261534 3696:0.12443823 3705:0.051646538 3840:0.029176448 3882:0.12443823 3904:0.12443823 4023:0.12443823 4210:0.02247009 4306:0.023972421 4532:0.12443823 4537:0.12443823 4564:0.12443823 4649:0.05630982 4817:0.12443823 4871:0.0092085079 5096:0.072791696 5190:0.12443823 5246:0.084378077 5576:0.10329307 5637:0.12443823 5700:0.051646538 5730:0.12443823 5733:0.051646538 5746:0.12443823 5847:0.051646538 5868:0.044605384 5912:0.0087591157 5964:0.16189789 5987:0.12443823 6019:0.023972421 6112:0.032731542 6239:0.12443823 6245:0.12443823 6479:0.12443823 6527:0.019502642 6664:0.051646538 6723:0.12443823 6725:0.091706692 6746:0.12443823 6749:0.017309357 6905:0.11931317 6987:0.16189789 7006:0.06403258 7160:0.12443823 7371:0.0056484876 7403:0.13546191 7431:0.040893236 7466:0.12443823 7507:0.040060164 7538:0.12443823 7657:0.12443823 7723:0.16189789 7730:0.036004855 7812:0.027510498 7849:0.012386038 7961:0.12443823 8004:0.10046582 8036:0.013304348 8054:0.12443823 8081:0.011108268 8153:0.12443823 8201:0.12443823 8211:0.043294959 8250:0.091835359 8291:0.029814081 8346:0.12443823 8357:0.029176448 8384:0.072791696 8467:0.018915004 8529:0.032731542 8632:0.051646538 8763:0.06403258 8766:0.032526475 8828:0.051646538 8997:0.051646538 9046:0.0083515818 9078:0.12443823 9236:0.10046582 9293:0.038817756 9334:0.12443823 9425:0.12443823 9524:0.084378077 9582:0.051646538 9623:0.029176448 9743:0.043294959 9758:0.12443823 9775:0.015620847 
0.8335743631310585 68:0.020963725 126:0.12337045 142:0.025021611 238:0.06816724 392:0.093891543 412:0.013190186 434:0.0086839555 449:0.059887325 604:0.12337045 732:0.12337045 790:0.041580153 900:0.087653891 911:0.015486807 1081:0.0053235718 1284:0.12337045 1285:0.059887325 1580:0.12337045 1595:0.12337045 1690:0.034239498 1754:0.018752698 1758:0.05120337 1816:0.16050868 1868:0.039716416 1933:0.039751436 2035:0.042923453 2085:0.083654045 2167:0.003326945 2363:0.03245068 2383:0.19764687 2539:0.12337045 2594:0.12337045 2767:0.12337045 2830:0.049414551 2859:0.03245068 3046:0.03245068 3111:0.028161647 3186:0.023080838 3208:0.16050868 3225:0.066617119 3350:0.16050868 3420:0.027436648 3459:0.083654045 3548:0.12337045 3559:0.016963876 3659:0.018752698 3758:0.18223313 3861:0.12337045 3905:0.093637175 3933:0.011486959 3972:0.027274436 3985:0.059887325 4113:0.16050868 4115:0.091194729 4155:0.076673309 4210:0.022277279 4288:0.03058693 4455:0.03245068 4571:0.12337045 4607:0.12337045 4723:0.12337045 5094:0.010113046 5130:0.072167085 5131:0.018053158 5546:0.12337045 5584:0.05120337 5672:0.03245068 5865:0.16050868 5868:0.044222634 5935:0.039794517 6094:0.092337997 6135:0.015486807 6158:0.19764687 6274:0.034005152 6307:0.05120337 6527:0.019335293 6704:0.12337045 6764:0.12337045 6875:0.12337045 6883:0.042923453 7015:0.05120337 7020:0.023766719 7244:0.086242214 7259:0.12337045 7273:0.05167225 7298:0.0050140301 7334:0.05120337 7371:0.0056000191 7461:0.12337045 7501:0.12337045 7614:0.12337045 7683:0.039716416 7685:0.14334784 7705:0.12337045 7729:0.05120337 7759:0.12337045 8016:0.045889961 8380:0.16050868 8403:0.0030954948 8448:0.03245068 8455:0.12337045 8554:0.12337045 8601:0.018752698 8617:0.12337045 8712:0.12337045 8766:0.041954799 8818:0.090919775 8828:0.05120337 8933:0.12337045 8972:0.16050868 9064:0.090919775 9100:0.12337045 9199:0.12481275 9296:0.066044123 9329:0.027436648 9372:0.027436648 9434:0.12337045 9455:0.066044123 9583:0.05120337 9693:0.0021541036 9735:0.12337045 9923:0.05120337 
0.5310238421931914 2:0.055977548 61:0.057480456 68:0.015914684 91:0.033796789 94:0.018935032 100:0.020828627 103:0.043970636 142:0.024805226 157:0.023174602 191:0.024635044 204:0.071986889 218:0.029877261 235:0.042109628 253:0.071986889 287:0.053051857 309:0.02610029 356:0.010013376 363:0.016163007 434:0.0065924547 443:0.012232372 462:0.047436705 468:0.010942234 524:0.071986889 536:0.071986889 542:0.018935032 554:0.11532731 578:0.044126298 588:0.071986889 668:0.016009335 670:0.071986889 681:0.039775711 731:0.0090365807 745:0.013163818 753:0.071986889 756:0.071986889 784:0.029877261 790:0.024262096 796:0.071986889 853:0.071986889 868:0.0039195293 914:0.029877261 953:0.071986889 970:0.071986889 978:0.071986889 1002:0.055977548 1048:0.033796789 1082:0.023174602 1143:0.025045914 1151:0.0090365807 1175:0.030028512 1202:0.055977548 1231:0.0031957944 1320:0.11532731 1321:0.013867924 1347:0.01997881 1377:0.071986889 1402:0.029877261 1438:0.042109628 1474:0.023842551 1513:0.0090365807 1518:0.071986889 1533:0.071986889 1650:0.071986889 1677:0.062201029 1678:0.071986889 1726:0.037042524 1754:0.010942234 1760:0.055977548 1802:0.0077231747 1824:0.071986889 1830:0.029877261 1892:0.071986889 1896:0.011769765 1917:0.071986889 1933:0.026334427 1954:0.020828627 1986:0.071986889 2002:0.038913838 2012:0.018935032 2021:0.053051857 2028:0.020429368 2035:0.032585487 2062:0.013867924 2071:0.014236175 2094:0.042109628 2188:0.071986889 2219:0.011756862 2270:0.020840679 2300:0.0094527073 2409:0.071986889 2424:0.016009335 2432:0.071986889 2454:0.071986889 2516:0.008644911 2558:0.029877261 2591:0.04881229 2607:0.019737 2613:0.071986889 2625:0.071986889 2636:0.071986889 2652:0.038553294 2664:0.018935032 2731:0.026579221 2773:0.018935032 2798:0.093657111 2812:0.0053270752 2822:0.044126298 2842:0.093657111 2894:0.021564417 2915:0.020610149 2924:0.071986889 2957:0.029877261 2966:0.018935032 2975:0.071986889 2979:0.029877261 3008:0.029877261 3077:0.0062961776 3111:0.016432373 3118:0.032574946 3133:0.020429368 3137:0.071986889 3184:0.071986889 3186:0.017521898 3220:0.061044657 3234:0.063506258 3264:0.056617314 3291:0.093657111 3294:0.071986889 3297:0.071986889 3298:0.071986889 3299:0.029877261 3384:0.071986889 3421:0.071986889 3437:0.018935032 3462:0.071986889 3464:0.020063898 3492:0.015548011 3510:0.0095934454 3526:0.011368661 3540:0.029877261 3555:0.04881229 3576:0.03361363 3585:0.013867924 3629:0.053051857 3642:0.031538976 3772:0.04881229 3806:0.018935032 3811:0.016009335 3817:0.11371822 3820:0.037042524 3827:0.071986889 3840:0.016878428 3867:0.029877261 3932:0.071986889 3933:0.0067026618 3958:0.029877261 3981:0.013867924 4052:0.010223506 4082:0.071986889 4147:0.093657111 4210:0.012998833 4222:0.029877261 4243:0.013867924 4293:0.018935032 4338:0.071986889 4339:0.071986889 4403:0.042109628 4416:0.071986889 4421:0.071986889 4429:0.023174602 4436:0.053879392 4444:0.071986889 4464:0.017349419 4469:0.014418875 4488:0.010942234 4511:0.071986889 4613:0.071986889 4629:0.0020981537 4644:0.037042524 4744:0.0018713124 4747:0.022572114 4750:0.023174602 4773:0.027594641 4788:0.071986889 4849:0.071986889 4899:0.010942234 4977:0.0077231747 5007:0.071986889 5009:0.033957263 5027:0.093657111 5040:0.032999512 5075:0.012232372 5090:0.038871213 5108:0.065268001 5130:0.042109628 5133:0.018935032 5177:0.022382814 5222:0.018935032 5275:0.04881229 5284:0.042109628 5285:0.029877261 5362:0.02610029 5370:0.071986889 5375:0.093110073 5402:0.071986889 5403:0.093657111 5423:0.071986889 5445:0.071986889 5458:0.093657111 5489:0.071986889 5513:0.04546367 5535:0.013867924 5581:0.071986889 5584:0.029877261 5600:0.044132334 5624:0.071986889 5647:0.010942234 5660:0.071986889 5683:0.029877261 5731:0.029877261 5824:0.0090365807 5841:0.071986889 5868:0.033571765 5882:0.024635044 5910:0.071986889 5912:0.0065924547 5935:0.023220174 6004:0.015225522 6047:0.024635044 6094:0.070098705 6099:0.071986889 6104:0.071986889 6128:0.007474822 6148:0.062201029 6197:0.071986889 6251:0.025045914 6280:0.061044657 6420:0.053879392 6445:0.04881229 6525:0.071986889 6536:0.059699842 6619:0.071986889 6673:0.018935032 6682:0.010942234 6725:0.069022066 6749:0.007696498 6768:0.071986889 6873:0.0013755835 6886:0.029877261 6905:0.053051857 6912:0.032354958 6941:0.071986889 6950:0.071986889 7022:0.071986889 7025:0.04881229 7036:0.029877261 7038:0.071986889 7098:0.071986889 7104:0.048193435 7127:0.12800358 7138:0.071986889 7282:0.017349419 7295:0.024262096 7354:0.030931632 7371:0.0032676215 7373:0.016009335 7380:0.010942234 7400:0.071986889 7404:0.10633337 7416:0.093657111 7441:0.071986889 7497:0.071986889 7533:0.042109628 7555:0.071986889 7556:0.0020319037 7620:0.02610029 7649:0.016878428 7671:0.04881229 7698:0.033957263 7720:0.029877261 7743:0.071986889 7760:0.071986889 7769:0.013867924 7772:0.018935032 7777:0.071986889 7831:0.0032972621 7849:0.0071652602 7875:0.071986889 7877:0.034944365 7892:0.071986889 7918:0.018935032 7937:0.038913838 7976:0.01282499 7987:0.071986889 8028:0.071986889 8051:0.071986889 8074:0.038871213 8089:0.071986889 8126:0.013867924 8135:0.082685633 8139:0.029877261 8149:0.030443689 8151:0.058118966 8187:0.033398109 8196:0.071986889 8198:0.071986889 8256:0.029877261 8291:0.024459813 8320:0.018935032 8322:0.027247871 8394:0.071986889 8414:0.04881229 8437:0.071986889 8448:0.024635044 8454:0.071986889 8464:0.016009335 8467:0.010942234 8483:0.14397378 8527:0.10633337 8600:0.071986889 8601:0.010942234 8625:0.040593469 8638:0.071986889 8675:0.071986889 8688:0.071986889 8766:0.018816401 8816:0.014236175 8817:0.071986889 8903:0.029877261 8982:0.042109628 9018:0.053051857 9034:0.042109628 9040:0.029877261 9053:0.018935032 9062:0.12230356 9087:0.071986889 9136:0.038871213 9145:0.071986889 9167:0.013867924 9169:0.071986889 9202:0.010942234 9232:0.071986889 9237:0.0035208458 9259:0.013867924 9286:0.037042524 9300:0.071986889 9339:0.04881229 9358:0.026776877 9408:0.071986889 9462:0.0035208458 9478:0.071986889 9538:0.07774242 9556:0.042109628 9560:0.071986889 9568:0.042109628 9572:0.071986889 9588:0.025045914 9635:0.018935032 9639:0.0052994443 9703:0.062950312 9727:0.010942234 9787:0.04881229 9816:0.059754517 9908:0.013867924 9919:0.071986889 
0.7098393066030317 23:0.04189 43:0.10093063 48:0.026548233 51:0.095032376 53:0.048994433 85:0.020542751 142:0.020470435 200:0.021173154 238:0.055768316 284:0.05904063 287:0.074382398 448:0.023161752 455:0.022446202 475:0.051936197 512:0.074382398 516:0.10093063 668:0.022446202 681:0.055768316 806:0.10093063 826:0.10093063 837:0.019443796 868:0.0054954531 869:0.10093063 1043:0.14241821 1049:0.0036865878 1143:0.035116116 1144:0.10093063 1175:0.028502783 1202:0.07848442 1203:0.10093063 1231:0.0058295595 1277:0.10093063 1352:0.06843823 1447:0.019443796 1512:0.10093063 1543:0.12573675 1545:0.014148213 1586:0.10093063 1611:0.013881392 1666:0.047385451 1757:0.04189 1782:0.023067098 1799:0.033567034 1852:0.10093063 1879:0.032492406 1933:0.042468118 2050:0.026548233 2149:0.010046194 2156:0.0049364709 2219:0.012669915 2233:0.10093063 2260:0.019960109 2300:0.013253354 2304:0.04189 2335:0.012669915 2374:0.04189 2384:0.017150638 2433:0.10093063 2512:0.010405285 2532:0.10093063 2556:0.026548233 2583:0.10093063 2600:0.10093063 2604:0.044782843 2700:0.10093063 2830:0.059714914 2915:0.028896864 2986:0.10093063 3015:0.10093063 3104:0.10093063 3111:0.023039332 3113:0.10093063 3186:0.02456692 3264:0.044642668 3425:0.10093063 3431:0.10093063 3467:0.081486837 3585:0.019443796 3610:0.04189 3615:0.026548233 3626:0.01387832 3781:0.10093063 3811:0.022446202 3860:0.06843823 4060:0.063387581 4072:0.10093063 4115:0.07460734 4135:0.022446202 4163:0.10093063 4182:0.10093063 4208:0.030234814 4395:0.076813631 4409:0.05904063 4464:0.024325093 4465:0.099666096 4469:0.020216266 4542:0.13131379 4601:0.10093063 4633:0.10093063 4636:0.022446202 4663:0.038203412 4773:0.038689608 4814:0.10093063 4871:0.0074689304 4874:0.06843823 4905:0.05904063 4912:0.04189 4965:0.026548233 4966:0.05904063 4973:0.064336204 4975:0.04189 4997:0.029220083 5014:0.10093063 5040:0.031322825 5054:0.10093063 5064:0.064336204 5133:0.026548233 5136:0.10093063 5177:0.031382264 5198:0.012669915 5235:0.076716057 5268:0.019443796 5272:0.10093063 5275:0.06843823 5310:0.10093063 5372:0.10093063 5468:0.10093063 5598:0.10093063 5631:0.015341774 5681:0.064336204 5687:0.036594424 5778:0.019443796 5834:0.10093063 5868:0.053440755 5912:0.0071044328 5917:0.05904063 5972:0.10093063 6038:0.035116116 6094:0.098283266 6128:0.013635082 6250:0.064336204 6274:0.049468099 6334:0.10093063 6346:0.019443796 6502:0.0038832177 6527:0.015818401 6684:0.05904063 6698:0.01214137 6752:0.10093063 6795:0.015341774 6834:0.04189 6861:0.10093063 6905:0.074382398 6912:0.025511835 6999:0.13955718 7033:0.07848442 7080:0.10093063 7088:0.10093063 7104:0.051936197 7190:0.10093063 7202:0.04189 7244:0.047765636 7275:0.10093063 7298:0.0041020293 7354:0.043368302 7365:0.04189 7371:0.0073397302 7385:0.032492406 7431:0.043152698 7447:0.10093063 7467:0.10093063 7556:0.0019286638 7585:0.018056112 7658:0.10093063 7679:0.10093063 7680:0.04189 7831:0.004622991 7963:0.0093975986 7971:0.0093975986 7976:0.01798153 8149:0.028896864 8235:0.031150127 8241:0.10093063 8291:0.036323 8308:0.06133379 8357:0.023664731 8384:0.05904063 8409:0.10093063 8467:0.015341774 8484:0.015341774 8577:0.06843823 8616:0.04189 8766:0.038969272 8771:0.04189 8941:0.10093063 8951:0.10093063 8962:0.10093063 8997:0.04189 8998:0.06843823 9018:0.074382398 9026:0.026548233 9137:0.10093063 9151:0.10093063 9152:0.023664731 9280:0.01214137 9323:0.10093063 9358:0.037543046 9455:0.070296436 9463:0.10093063 9576:0.0083229652 9629:0.10093063 9715:0.10093063 9792:0.10093063 9816:0.10900029 9841:0.026548233 
0.8246300045590512 61:0.061452346 73:0.015631539 102:0.047181873 113:0.036597101 142:0.03405713 202:0.11368098 212:0.029902013 277:0.069683811 325:0.072463657 338:0.041217319 448:0.026087726 575:0.11368098 613:0.029902013 650:0.11368098 688:0.11368098 734:0.11368098 868:0.0061896817 908:0.061385032 936:0.019317241 954:0.14790238 973:0.083778965 983:0.012462228 1089:0.029902013 1175:0.032103477 1231:0.0050467666 1266:0.1679206 1284:0.11368098 1301:0.11368098 1314:0.069693343 1498:0.025281782 1545:0.015935526 1555:0.088399186 1574:0.032261854 1714:0.047181873 1795:0.11368098 1925:0.053371552 1933:0.03662937 2005:0.061385032 2018:0.047181873 2035:0.051458677 2050:0.029902013 2090:0.055982759 2112:0.01856632 2145:0.11368098 2167:0.0039884995 2173:0.021900088 2208:0.11368098 2280:0.11368098 2300:0.011473694 2329:0.0083688297 2406:0.11368098 2495:0.047181873 2534:0.036597101 2612:0.11368098 2639:0.11368098 2687:0.091780892 2698:0.11368098 2776:0.1679206 2796:0.11368098 2878:0.025524459 3042:0.038903417 3123:0.14790238 3133:0.032261854 3164:0.014270478 3186:0.027670406 3198:0.14790238 3210:0.0099428609 3264:0.050282279 3308:0.047613927 3404:0.029902013 3456:0.11368098 3524:0.14790238 3560:0.029902013 3585:0.021900088 3654:0.11368098 3811:0.025281782 3842:0.047181873 3872:0.11368098 3939:0.077083883 4065:0.047181873 4133:0.077083883 4210:0.020527628 4278:0.047181873 4481:0.047181873 4544:0.11368098 4567:0.11368098 4597:0.11368098 4744:0.0029551578 4773:0.056695222 4802:0.11368098 5044:0.1679206 5094:0.006308738 5131:0.012786229 5164:0.11368098 5317:0.10236567 5436:0.11368098 5451:0.017279867 5512:0.11368098 5615:0.032911393 5631:0.017279867 5868:0.040749402 6072:0.029902013 6094:0.085085799 6190:0.021900088 6261:0.19314057 6380:0.061452346 6407:0.11368098 6581:0.11368098 6685:0.1679206 6727:0.10028845 6796:0.021900088 6939:0.11368098 7024:0.14790238 7200:0.1679206 7298:0.0046202298 7317:0.11368098 7577:0.11368098 7585:0.015631539 7795:0.011315307 7831:0.0052070034 7976:0.020253097 8124:0.047181873 8187:0.052741962 8281:0.038769409 8291:0.033538747 8322:0.043029566 8457:0.077083883 8467:0.022481626 8518:0.032911393 8594:0.077083883 8766:0.043892175 8843:0.11368098 9046:0.0076296163 9227:0.0093743873 9265:0.11368098 9280:0.013675163 9366:0.055183793 9417:0.077083883 9423:0.18212375 9424:0.010584777 9433:0.14790238 9524:0.077083883 9547:0.025281782 9603:0.11368098 9676:0.013790221 9806:0.081513155 9843:0.11368098 
0.3682846891367141 61:0.057501131 73:0.014626474 126:0.081759531 142:0.016582213 228:0.081759531 238:0.058774679 287:0.060253958 309:0.029643558 325:0.052115972 333:0.081759531 352:0.045175497 370:0.055438845 424:0.062223395 462:0.053876516 472:0.081759531 479:0.021505573 629:0.02632069 636:0.033933275 729:0.042582995 736:0.021505573 780:0.02632069 790:0.035850947 802:0.081759531 808:0.081759531 849:0.047826257 850:0.081759531 862:0.033933275 874:0.042071264 881:0.081759531 904:0.057267624 936:0.013892989 983:0.011660941 1027:0.081759531 1066:0.060253958 1081:0.0027117086 1151:0.01026335 1160:0.055438845 1189:0.081759531 1343:0.033933275 1382:0.020491973 1488:0.0037448848 1551:0.081759531 1567:0.081759531 1638:0.081759531 1643:0.060253958 1654:0.081759531 1688:0.15559575 1746:0.01026335 1760:0.063576829 1782:0.01265005 1802:0.0067420735 1811:0.047826257 1896:0.01336758 1933:0.034401582 1961:0.081759531 2005:0.033933275 2012:0.021505573 2052:0.033933275 2077:0.069331827 2089:0.081759531 2101:0.047826257 2127:0.081759531 2167:0.0022048185 2184:0.066008957 2189:0.018182696 2237:0.081759531 2255:0.081759531 2258:0.081759531 2300:0.0082518983 2324:0.047826257 2388:0.054735976 2390:0.081759531 2500:0.012764232 2516:0.0066470567 2536:0.081759531 2545:0.047826257 2589:0.033933275 2591:0.055438845 2607:0.022416414 2676:0.01026335 2687:0.085879638 2693:0.047826257 2697:0.01026335 2724:0.055438845 2746:0.081759531 2812:0.0060502569 2823:0.081759531 2830:0.032747797 2857:0.081759531 2867:0.081759531 2873:0.033933275 2909:0.052115972 2981:0.021505573 3027:0.044148208 3046:0.021505573 3077:0.0071509206 3111:0.018663165 3125:0.028034336 3155:0.04419662 3186:0.015296033 3211:0.12076875 3258:0.066804683 3264:0.047049266 3300:0.035376569 3346:0.081759531 3365:0.081759531 3463:0.081759531 3464:0.036507248 3492:0.017658744 3525:0.081759531 3535:0.12076875 3558:0.081759531 3559:0.011242226 3576:0.023829867 3589:0.047826257 3607:0.081759531 3626:0.011242226 3642:0.035820577 3683:0.15085436 3727:0.081759531 3745:0.033933275 3811:0.026858045 3815:0.10637161 3834:0.081759531 3835:0.081759531 3905:0.080735187 3947:0.081759531 3979:0.081759531 4052:0.011611407 4115:0.05323143 4125:0.033933275 4156:0.015750577 4210:0.014763501 4219:0.081759531 4268:0.081759531 4288:0.020270437 4293:0.021505573 4359:0.027555818 4436:0.061193836 4462:0.037009158 4464:0.019704704 4469:0.016376322 4543:0.033933275 4562:0.055438845 4585:0.10637161 4635:0.033933275 4645:0.081759531 4649:0.036997186 4663:0.030946929 4667:0.033933275 4744:0.0027651493 4773:0.031340775 4889:0.081759531 4945:0.060253958 4961:0.0060502569 4965:0.027979396 4989:0.081759531 5008:0.047826257 5033:0.033933275 5040:0.03301138 5105:0.081759531 5108:0.037932099 5119:0.015750577 5130:0.047826257 5177:0.033074021 5178:0.047826257 5222:0.021505573 5288:0.033933275 5304:0.081759531 5334:0.012427707 5361:0.067804445 5362:0.029643558 5399:0.033933275 5466:0.081759531 5480:0.081759531 5539:0.10637161 5550:0.081759531 5597:0.01026335 5610:0.081759531 5615:0.023669923 5621:0.081759531 5647:0.012427707 5683:0.044148208 5722:0.018814766 5740:0.03856716 5778:0.015750577 5843:0.047826257 5868:0.04695162 5912:0.0057549932 5918:0.081759531 5935:0.029941892 5981:0.015750577 6102:0.021505573 6135:0.01026335 6164:0.081759531 6169:0.047826257 6274:0.022535747 6289:0.081759531 6294:0.062223395 6314:0.05163563 6322:0.081759531 6445:0.055438845 6494:0.081759531 6498:0.081759531 6520:0.081759531 6543:0.012427707 6670:0.015750577 6682:0.012427707 6700:0.081759531 6727:0.055438845 6733:0.12076875 6753:0.15977795 6757:0.033933275 6762:0.081759531 6813:0.081759531 6888:0.044148208 6912:0.020666033 6938:0.014626474 6941:0.081759531 6944:0.081759531 7172:0.024491913 7202:0.033933275 7243:0.060253958 7244:0.05034059 7298:0.0033228762 7322:0.04419662 7354:0.035130783 7355:0.081759531 7371:0.0037112203 7437:0.094880053 7556:0.0026543466 7584:0.033933275 7613:0.02632069 7680:0.044148208 7700:0.011244714 7736:0.081759531 7785:0.081759531 7816:0.090202793 7864:0.081759531 7914:0.10637161 7971:0.0099042045 8037:0.066008957 8074:0.044148208 8081:0.0072984547 8126:0.015750577 8137:0.013352925 8238:0.081759531 8253:0.042018256 8291:0.030112628 8362:0.081759531 8403:0.0020514328 8441:0.055438845 8449:0.033933275 8462:0.081759531 8519:0.081759531 8600:0.081759531 8602:0.081759531 8625:0.046104271 8633:0.066108721 8717:0.047826257 8766:0.021370838 8774:0.015078465 8803:0.10637161 8836:0.013892989 8905:0.081759531 8937:0.0050200787 9031:0.042071264 9034:0.047826257 9040:0.044148208 9208:0.10637161 9271:0.10241151 9313:0.033933275 9319:0.081759531 9335:0.081759531 9372:0.018182696 9373:0.033933275 9429:0.081759531 9499:0.04419662 9511:0.023669923 9540:0.033933275 9639:0.0046262385 9645:0.081759531 9716:0.0035927807 9752:0.044148208 9764:0.033933275 9872:0.081759531 9897:0.081759531 
0.6634120367503875 28:0.055956083 45:0.10351342 46:0.070189544 85:0.021068434 101:0.10351342 114:0.15290187 119:0.011067165 142:0.020994268 171:0.042961953 200:0.019126276 233:0.10351342 325:0.065982548 338:0.037530865 352:0.05719541 357:0.054915388 446:0.10351342 511:0.019941357 681:0.05719541 729:0.053913117 731:0.012994135 750:0.0076600581 832:0.10351342 941:0.023020594 983:0.011347613 1049:0.0037809264 1099:0.062383863 1231:0.006787943 1403:0.031008514 1440:0.13467407 1488:0.004741292 1507:0.06345133 1523:0.10351342 1548:0.10351342 1782:0.020837126 1799:0.034426004 1898:0.042961953 1919:0.060551462 1933:0.025636043 1991:0.10351342 2002:0.055956083 2021:0.076285821 2062:0.019941357 2065:0.019941357 2066:0.070189544 2101:0.060551462 2102:0.060551462 2149:0.013404867 2156:0.0050627938 2210:0.10351342 2260:0.015734366 2267:0.035423917 2329:0.0058571489 2391:0.10351342 2401:0.060551462 2414:0.10351342 2486:0.15290187 2498:0.089441856 2558:0.042961953 2574:0.042961953 2625:0.10351342 2629:0.046841084 2693:0.060551462 2830:0.053942074 2865:0.071618619 2878:0.020470882 3042:0.027227594 3077:0.009053577 3210:0.011778976 3264:0.059567736 3407:0.060551462 3472:0.10351342 3562:0.10351342 3642:0.045351413 3703:0.060551462 3737:0.10351342 3783:0.10351342 3811:0.023020594 3982:0.034426004 4014:0.060551462 4029:0.13467407 4053:0.055894789 4115:0.067394798 4121:0.10351342 4146:0.10351342 4210:0.02760983 4333:0.069299661 4429:0.033323877 4464:0.03245753 4465:0.078565843 4475:0.15290187 4535:0.023020594 4871:0.0076600581 4891:0.10351342 4961:0.0076600581 5021:0.062903304 5031:0.10351342 5059:0.10367846 5094:0.010214569 5198:0.012994135 5275:0.070189544 5362:0.037530865 5450:0.10351342 5461:0.13467407 5480:0.10351342 5498:0.027227594 5551:0.010545914 5592:0.078779269 5722:0.023820839 5790:0.029376372 5905:0.020871806 5966:0.10351342 6060:0.070189544 6078:0.10351342 6097:0.036014727 6106:0.025372431 6119:0.10351342 6128:0.010748407 6169:0.060551462 6297:0.070189544 6411:0.042961953 6420:0.077475773 6439:0.10367846 6527:0.016223189 6570:0.085923899 6586:0.060551462 6664:0.042961953 6770:0.10351342 6951:0.035423917 6964:0.10351342 7020:0.019941357 7064:0.050248186 7111:0.060551462 7250:0.011067165 7295:0.034887637 7337:0.13467407 7385:0.033323877 7420:0.10351342 7437:0.074981548 7441:0.15290187 7556:0.0019780177 7566:0.10351342 7585:0.014233463 7706:0.042961953 7734:0.10351342 7743:0.10351342 7831:0.004741292 7836:0.13467407 7849:0.010303273 7916:0.10351342 7976:0.020937706 8016:0.038503762 8046:0.10351342 8051:0.10351342 8053:0.10351342 8074:0.042961953 8107:0.050248186 8177:0.10351342 8180:0.10351342 8248:0.024270304 8291:0.030539061 8538:0.10351342 8591:0.10351342 8616:0.042961953 8717:0.078779269 8766:0.035201982 8774:0.019090415 8879:0.055956083 8985:0.13467407 9040:0.042961953 9051:0.027227594 9073:0.046318008 9136:0.042961953 9202:0.015734366 9256:0.10351342 9271:0.087779053 9281:0.10351342 9286:0.053265229 9346:0.037530865 9386:0.10351342 9438:0.019941357 9541:0.1699078 9560:0.13467407 9597:0.10351342 9639:0.0058571489 9673:0.035458749 9693:0.0013891998 9897:0.10351342 
0.7806653699146801 27:0.041384912 31:0.044817816 103:0.041384912 120:0.011065492 250:0.088149532 277:0.054033625 282:0.019603783 289:0.051564167 296:0.1146852 335:0.1146852 494:0.051564167 511:0.016981579 513:0.088149532 666:0.036585365 719:0.077970271 729:0.045911112 750:0.0084867768 760:0.088149532 762:0.088149532 842:0.088149532 946:0.023186363 961:0.14608066 983:0.0096633541 1079:0.059771725 1117:0.016981579 1172:0.064963168 1175:0.032387066 1188:0.036585365 1231:0.0039133206 1285:0.042790145 1310:0.088149532 1329:0.088149532 1352:0.059771725 1479:0.036585365 1507:0.07029937 1513:0.011065492 1549:0.016981579 1577:0.088149532 1615:0.088149532 1648:0.088149532 1652:0.088149532 1660:0.036585365 1689:0.088149532 1752:0.088149532 1771:0.088149532 1834:0.088149532 1903:0.036585365 1933:0.034974629 1934:0.088149532 1942:0.0084867768 1954:0.019603783 2021:0.064963168 2028:0.025016211 2113:0.088149532 2292:0.051564167 2310:0.088149532 2378:0.036585365 2430:0.088149532 2450:0.025519871 2457:0.030166155 2512:0.0090876378 2686:0.088149532 2725:0.088149532 2780:0.088149532 2818:0.088149532 2874:0.088149532 3051:0.019603783 3111:0.020121803 3133:0.025016211 3138:0.088149532 3180:0.088149532 3186:0.02145595 3210:0.0077098082 3216:0.088149532 3237:0.047650853 3264:0.038989455 3370:0.088149532 3434:0.088149532 3537:0.036585365 3538:0.088149532 3559:0.012120874 3563:0.051564167 3626:0.012120874 3633:0.051564167 3726:0.088149532 3791:0.0094245314 3811:0.019603783 3957:0.047598656 3965:0.088149532 3985:0.042790145 3999:0.088149532 4024:0.088149532 4030:0.088149532 4074:0.1146852 4091:0.088149532 4145:0.047650853 4151:0.049313263 4208:0.026406104 4288:0.021854694 4306:0.016981579 4323:0.088149532 4422:0.1146852 4436:0.065976503 4476:0.088149532 4480:0.023186363 4525:0.012261599 4528:0.088149532 4614:0.03461499 4639:0.088149532 4726:0.088149532 4744:0.0022914632 4764:0.088149532 4769:0.088149532 4773:0.033790246 4823:0.088149532 4921:0.047598656 4949:0.077084044 5057:0.088149532 5285:0.036585365 5290:0.088149532 5328:0.088149532 5360:0.088149532 5678:0.088149532 5722:0.020285253 5744:0.067086529 5797:0.088149532 5923:0.088149532 5954:0.088149532 5982:0.088149532 6002:0.059771725 6104:0.088149532 6156:0.088149532 6165:0.051564167 6527:0.01797409 6617:0.088149532 6698:0.010603878 6720:0.088149532 6729:0.16264454 6774:0.064963168 6905:0.064963168 6912:0.022281208 6989:0.023186363 7197:0.088149532 7244:0.041716954 7301:0.088149532 7322:0.047650853 7354:0.049278417 7358:0.093735383 7371:0.0052057782 7385:0.028377811 7417:0.028377811 7431:0.028967943 7442:0.064963168 7507:0.028377811 7539:0.042790145 7563:0.028377811 7569:0.088149532 7609:0.088149532 7630:0.088149532 7687:0.034249071 7701:0.028377811 7718:0.088149532 7792:0.019603783 7849:0.011415262 7944:0.15674321 7950:0.036585365 7976:0.012070808 8108:0.088149532 8116:0.088149532 8135:0.068545741 8137:0.011065492 8149:0.025237582 8151:0.071167955 8173:0.13291775 8204:0.088149532 8223:0.088149532 8291:0.023978191 8293:0.016981579 8295:0.088149532 8303:0.064963168 8308:0.053566939 8322:0.043409672 8352:0.059013923 8391:0.088149532 8426:0.088149532 8582:0.088149532 8616:0.047598656 8618:0.036585365 8625:0.049707598 8711:0.051564167 8725:0.088149532 8734:0.088149532 8744:0.088149532 8782:0.088149532 8897:0.036585365 8973:0.1146852 9046:0.0059160919 9050:0.088149532 9073:0.0394433 9151:0.088149532 9167:0.016981579 9222:0.048706234 9227:0.0072690072 9289:0.088149532 9294:0.088149532 9341:0.088149532 9351:0.023186363 9358:0.032788876 9373:0.036585365 9437:0.088149532 9439:0.011065492 9635:0.023186363 9676:0.010693095 9727:0.013399007 9743:0.045302236 9778:0.088149532 9802:0.045359386 9893:0.013399007 9902:0.088149532 
0.8270524839068928 3:0.039317267 27:0.057225986 142:0.02472153 153:0.12189089 166:0.12189089 212:0.032061503 276:0.027367807 309:0.044193987 409:0.12189089 443:0.02071231 497:0.011349198 509:0.039240103 642:0.12189089 703:0.050589295 726:0.013031998 745:0.022289469 758:0.12189089 935:0.011349198 1020:0.12189089 1043:0.096726413 1052:0.077696901 1135:0.057962388 1394:0.12189089 1429:0.12189089 1432:0.062721786 1451:0.12189089 1500:0.071301596 1703:0.050589295 1726:0.062721786 1766:0.082650794 1782:0.018859279 1824:0.12189089 1930:0.15858372 1936:0.028579185 2014:0.098409206 2094:0.071301596 2151:0.10336309 2156:0.0077562571 2216:0.071301596 2329:0.0068970104 2607:0.033419427 2613:0.12189089 2667:0.12189089 2747:0.12189089 2759:0.12189089 2830:0.04882193 2871:0.12189089 2887:0.12189089 2896:0.12189089 3133:0.034591769 3264:0.053913609 3300:0.040537899 3305:0.032061503 3343:0.042408679 3449:0.18004763 3464:0.033972943 3764:0.15858372 3811:0.027107604 3831:0.12189089 3933:0.011349198 3972:0.02071231 4077:0.071301596 4129:0.011349198 4135:0.027107604 4213:0.0185278 4217:0.12189089 4313:0.0185278 4343:0.12189089 4531:0.12189089 4637:0.050589295 4744:0.003168576 4833:0.12189089 4997:0.035288217 5040:0.055876006 5104:0.20708896 5108:0.056550927 5177:0.037899418 5275:0.082650794 5334:0.0185278 5362:0.044193987 5410:0.12189089 5459:0.12189089 5563:0.015301076 5615:0.035288217 5620:0.037557306 5687:0.044193987 5774:0.12189089 5934:0.12189089 5935:0.030220106 6094:0.0912306 6097:0.042408679 6106:0.02987698 6128:0.012656648 6196:0.12189089 6588:0.10336309 6901:0.12189089 7242:0.050589295 7244:0.057685124 7295:0.041081488 7371:0.0055328589 7431:0.052114217 7444:0.15858372 7486:0.094783277 7556:0.0023291893 7585:0.016760431 7590:0.12189089 7620:0.044193987 7772:0.032061503 7773:0.12189089 7819:0.12189089 7922:0.12189089 7941:0.12189089 8036:0.013031998 8256:0.050589295 8291:0.02244665 8321:0.15858372 8357:0.028579185 8380:0.12189089 8457:0.082650794 8466:0.037557306 8467:0.0185278 8584:0.12189089 8616:0.06581819 8766:0.047062019 8849:0.12189089 8903:0.050589295 8912:0.12189089 8934:0.016760431 9167:0.023481688 9296:0.065252065 9346:0.044193987 9492:0.12189089 9547:0.027107604 9576:0.010051395 9653:0.12189089 9676:0.019237206 9831:0.12189089 9858:0.12189089 9868:0.017599808 9928:0.071301596 
0.6838155079087248 72:0.058972349 94:0.024334846 126:0.12036586 142:0.024412229 155:0.024334846 191:0.024334846 199:0.092515815 200:0.013139004 223:0.092515815 238:0.066507076 262:0.042504691 266:0.02978344 272:0.092515815 357:0.049081 379:0.092515815 408:0.027714069 434:0.0065121201 463:0.092515815 643:0.092515815 752:0.092515815 1002:0.071940996 1039:0.092515815 1081:0.003068461 1099:0.10610868 1100:0.06273238 1151:0.011613596 1172:0.068180969 1217:0.050011128 1258:0.027714069 1276:0.092515815 1342:0.031660366 1344:0.092515815 1413:0.092515815 1433:0.092515815 1438:0.054118279 1488:0.0062593921 1503:0.0062091318 1507:0.056710056 1564:0.092515815 1574:0.026255331 1590:0.12036586 1666:0.043434818 1672:0.032188406 1684:0.038397536 1698:0.092515815 1746:0.015109636 1762:0.092515815 1770:0.061937041 1804:0.15718159 1805:0.038397536 1886:0.092515815 1933:0.029809702 1942:0.01011271 2004:0.041864536 2066:0.06273238 2091:0.092515815 2260:0.014062696 2270:0.026783939 2406:0.092515815 2424:0.020574811 2512:0.009537773 2604:0.031551308 2607:0.025365517 2669:0.047606159 2714:0.092515815 2716:0.047606159 2722:0.054118279 2731:0.026255331 2824:0.092515815 2849:0.092515815 2865:0.064009625 2867:0.092515815 2890:0.017822722 2910:0.092515815 2928:0.033543464 2967:0.12036586 3042:0.024334846 3186:0.017308379 3280:0.078453123 3399:0.017822722 3464:0.025785639 3510:0.012329265 3515:0.054118279 3558:0.092515815 3579:0.07979457 3672:0.06273238 3689:0.038397536 3711:0.092515815 3811:0.03039149 3815:0.092515815 3875:0.032188406 3988:0.092515815 4014:0.054118279 4053:0.038397536 4155:0.057497508 4183:0.12036586 4279:0.084886757 4356:0.024334846 4436:0.069244497 4444:0.092515815 4498:0.092515815 4503:0.01572075 4548:0.068180969 4561:0.038397536 4582:0.014062696 4747:0.022297055 4770:0.031660366 4918:0.092515815 4977:0.0076290607 4997:0.026783939 5020:0.06273238 5075:0.01572075 5094:0.0066797156 5117:0.092515815 5130:0.054118279 5132:0.13665708 5177:0.028765854 5178:0.054118279 5186:0.092515815 5202:0.092515815 5211:0.017822722 5281:0.12036586 5332:0.054118279 5334:0.014062696 5361:0.058972349 5457:0.092515815 5535:0.017822722 5551:0.0094254817 5600:0.038397536 5672:0.024334846 5709:0.092515815 5721:0.054118279 5775:0.038397536 6004:0.019567475 6037:0.02978344 6151:0.097177963 6280:0.078453123 6284:0.038397536 6298:0.02978344 6380:0.050011128 6392:0.092515815 6445:0.06273238 6451:0.092515815 6587:0.092515815 6633:0.083307193 6662:0.092515815 6749:0.0098913538 6759:0.092515815 6812:0.038397536 6816:0.01011271 6819:0.043641056 6872:0.057497508 6873:0.0017678667 6955:0.054118279 7113:0.092515815 7258:0.024334846 7289:0.032188406 7335:0.092515815 7352:0.092515815 7371:0.0054636344 7431:0.030402803 7509:0.071940996 7513:0.06273238 7517:0.092515815 7547:0.032188406 7556:0.0017678667 7639:0.092515815 7642:0.038397536 7795:0.0092086198 7828:0.092515815 7834:0.17606593 7887:0.092515815 7910:0.036056837 7911:0.024334846 7940:0.092515815 7960:0.15724179 7976:0.024757726 8019:0.092515815 8037:0.074693095 8113:0.051567756 8142:0.02545787 8149:0.026487667 8186:0.038397536 8279:0.038397536 8291:0.034074245 8403:0.0030201062 8475:0.092515815 8555:0.092515815 8558:0.032188406 8600:0.092515815 8647:0.024334846 8678:0.13665708 8763:0.047606159 8766:0.031462009 8774:0.017062188 8812:0.011613596 8893:0.038397536 9017:0.12036586 9064:0.068180969 9066:0.092515815 9070:0.071940996 9093:0.047606159 9102:0.092515815 9136:0.038397536 9156:0.054118279 9189:0.092515815 9202:0.014062696 9223:0.054118279 9272:0.061937041 9280:0.014479315 9293:0.02885975 9339:0.092663328 9358:0.034412998 9390:0.092515815 9419:0.024334846 9424:0.0086140995 9455:0.064435663 9462:0.0045249062 9579:0.092515815 9623:0.021691749 9628:0.038397536 9676:0.011222753 9785:0.092515815 9788:0.047606159 9818:0.02978344 9847:0.038397536 9913:0.092515815 
0.9144217618052456 61:0.065402391 212:0.03182406 338:0.043866693 420:0.04500383 434:0.011079922 455:0.026906849 621:0.021847107 745:0.022124396 823:0.12098818 914:0.050214638 1002:0.094081325 1005:0.12098818 1081:0.0040128006 1088:0.030324129 1102:0.12098818 1129:0.15740927 1143:0.042094606 1169:0.12098818 1229:0.062257277 1294:0.12098818 1381:0.038949496 1503:0.0081200341 1582:0.03182406 1781:0.12098818 1810:0.012042635 1914:0.12098818 1933:0.029963829 2154:0.12098818 2156:0.0059174767 2166:0.17871422 2197:0.070773546 2251:0.062257277 2300:0.012211202 2339:0.070773546 2450:0.035026877 2457:0.03182406 2470:0.12098818 2500:0.018888577 2509:0.12098818 2512:0.016227861 2516:0.012797386 2559:0.03182406 2855:0.016636305 2861:0.050214638 2911:0.050674464 2915:0.063913134 2928:0.043866693 3051:0.026906849 3077:0.01058197 3094:0.12098818 3102:0.050214638 3111:0.027617849 3146:0.15740927 3159:0.067684105 3186:0.029449009 3193:0.097680401 3210:0.013767461 3228:0.12098818 3264:0.06962375 3377:0.12098818 3404:0.03182406 3492:0.020085243 3510:0.01612368 3570:0.03182406 3576:0.035263562 3630:0.13143091 3642:0.068964322 3755:0.050214638 3811:0.026906849 3877:0.12098818 4164:0.15740927 4333:0.062257277 4346:0.050214638 4503:0.020558918 4535:0.026906849 4544:0.12098818 4663:0.045795428 4667:0.050214638 4730:0.15740927 4744:0.00314511 4747:0.029159125 4962:0.12098818 5005:0.12098818 5017:0.12098818 5040:0.037547489 5094:0.0087354433 5145:0.10042927 5177:0.04894311 5210:0.12098818 5296:0.050214638 5362:0.043866693 5500:0.12098818 5620:0.037279161 5648:0.12098818 5665:0.050214638 5787:0.12098818 6131:0.012935485 6151:0.097680401 6331:0.12098818 6496:0.13468844 6502:0.0068758731 6539:0.065402391 6549:0.070773546 6578:0.050214638 6613:0.12098818 6656:0.10580043 6749:0.012935485 6795:0.018390586 6873:0.0023119397 6883:0.067438081 6891:0.12098818 7096:0.067317017 7175:0.15740927 7202:0.050214638 7244:0.057257916 7278:0.094081325 7371:0.0081121771 7373:0.026906849 7396:0.018390586 7486:0.094081325 7550:0.12098818 7556:0.0030079029 7581:0.0089532019 7655:0.12098818 7688:0.062257277 7795:0.012042635 7911:0.03182406 7929:0.077121489 8061:0.12098818 8064:0.050214638 8068:0.12098818 8081:0.014051504 8149:0.034639426 8212:0.12098818 8281:0.041261436 8289:0.12098818 8291:0.028987485 8357:0.028367531 8467:0.023926704 8517:0.077121489 8616:0.050214638 8625:0.068225342 8651:0.12098818 8680:0.12098818 8705:0.12098818 8740:0.12098818 8766:0.046713484 8857:0.12098818 8937:0.0074287388 9040:0.050214638 9053:0.03182406 9073:0.054137251 9075:0.050214638 9222:0.066850937 9279:0.018390586 9296:0.064768817 9358:0.058551332 9455:0.064768817 9538:0.10042927 9571:0.050214638 9591:0.050214638 9623:0.036907011 9676:0.014676631 9679:0.023307786 9775:0.015187758 9802:0.062257277 
0.4716862538892135 1:0.10980857 32:0.084401247 61:0.045624648 68:0.014341882 130:0.04343062 142:0.022271031 155:0.022200435 295:0.026915449 357:0.044776102 424:0.049371561 434:0.0059409416 448:0.025199076 449:0.053304018 469:0.0056645284 482:0.084401247 500:0.084401247 521:0.0090237825 567:0.049371561 594:0.028883433 620:0.012829256 629:0.027171133 731:0.010594967 790:0.028446169 885:0.012829256 983:0.00925245 997:0.084401247 1017:0.084401247 1099:0.050865637 1175:0.042382037 1231:0.0055346532 1348:0.049371561 1380:0.012829256 1458:0.084401247 1474:0.021486262 1545:0.015392699 1564:0.084401247 1605:0.084401247 1660:0.035029686 1681:0.084401247 1690:0.023424217 1740:0.084401247 1760:0.085387965 1763:0.084401247 1782:0.016989869 1788:0.084401247 1794:0.05379988 1810:0.010929864 1829:0.024434718 1875:0.084401247 1933:0.030875879 1935:0.12467088 1996:0.084401247 2005:0.035029686 2050:0.022200435 2219:0.010594967 2260:0.016691247 2264:0.12367784 2284:0.084401247 2320:0.084401247 2354:0.038204954 2378:0.035029686 2384:0.014341882 2392:0.038204954 2512:0.0087012143 2516:0.0089274451 2545:0.049371561 2577:0.084401247 2607:0.023140706 2633:0.084401247 2674:0.084401247 2675:0.035029686 2730:0.084401247 2731:0.023952474 2779:0.084401247 2851:0.022200435 2865:0.058395337 2904:0.084401247 2909:0.05379988 3013:0.084401247 3036:0.035029686 3058:0.084401247 3071:0.084401247 3072:0.084401247 3075:0.05379988 3077:0.0073819726 3234:0.057230118 3237:0.045624648 3264:0.055143227 3324:0.012829256 3420:0.018770193 3485:0.01625949 3486:0.084401247 3492:0.014011447 3642:0.036977969 3668:0.084401247 3784:0.049371561 3815:0.084401247 3905:0.064059862 3938:0.084401247 3946:0.084401247 3962:0.10980857 3997:0.10980857 4003:0.084401247 4006:0.084401247 4052:0.011986581 4070:0.084401247 4277:0.084401247 4293:0.022200435 4313:0.016691247 4380:0.084401247 4382:0.084401247 4388:0.084401247 4437:0.084401247 4462:0.043375899 4513:0.084401247 4546:0.084401247 4563:0.0078585563 4585:0.084401247 4744:0.0021940259 4841:0.084401247 4961:0.0062457456 4997:0.024434718 5021:0.051289171 5039:0.01625949 5064:0.05379988 5087:0.14339518 5177:0.026242799 5186:0.084401247 5210:0.084401247 5228:0.084401247 5252:0.01625949 5265:0.084401247 5275:0.057230118 5474:0.057230118 5540:0.084401247 5551:0.008598772 5631:0.012829256 5647:0.012829256 5731:0.035029686 5741:0.084401247 5790:0.023952474 5828:0.04343062 5842:0.0090237825 5861:0.084401247 5868:0.039361318 5881:0.084401247 5887:0.084401247 5888:0.058671142 5912:0.0059409416 5914:0.084401247 5922:0.049371561 5932:0.035029686 5950:0.057230118 5999:0.062200812 6022:0.084401247 6038:0.029365159 6045:0.10980857 6047:0.022200435 6052:0.084401247 6084:0.084401247 6135:0.010594967 6151:0.068141759 6163:0.049371561 6179:0.084401247 6218:0.084401247 6223:0.014341882 6247:0.049371561 6378:0.084401247 6408:0.080925131 6502:0.0042247884 6576:0.035029686 6624:0.084401247 6625:0.084401247 6718:0.049371561 6798:0.084401247 6805:0.022200435 6826:0.084401247 6836:0.030058979 6850:0.035029686 6873:0.0020983103 6905:0.080925131 6912:0.021333769 7023:0.035029686 7101:0.084401247 7160:0.084401247 7192:0.084401247 7220:0.022200435 7244:0.03994307 7334:0.035029686 7354:0.036265887 7358:0.060759791 7371:0.0049844186 7373:0.018770193 7437:0.061137353 7473:0.062200812 7507:0.027171133 7543:0.022200435 7556:0.001612807 7581:0.0062457456 7607:0.041989594 7708:0.17841946 7730:0.024420587 7736:0.084401247 7772:0.022200435 7795:0.013458795 7819:0.084401247 7919:0.084401247 7959:0.084401247 7971:0.0078585563 7976:0.018515864 8004:0.068141759 8006:0.084401247 8016:0.031394631 8065:0.084401247 8103:0.084401247 8132:0.035029686 8139:0.035029686 8149:0.024164432 8267:0.035029686 8281:0.02878394 8291:0.031728952 8297:0.035029686 8352:0.04343062 8403:0.0027552124 8404:0.084401247 8445:0.084401247 8446:0.035029686 8488:0.084401247 8595:0.084401247 8604:0.049371561 8616:0.035029686 8644:0.084401247 8666:0.084401247 8709:0.084401247 8786:0.049371561 8804:0.084401247 8813:0.084401247 9040:0.035029686 9067:0.084401247 9136:0.035029686 9172:0.084401247 9175:0.029230995 9240:0.084401247 9293:0.026328459 9296:0.045182668 9304:0.084401247 9329:0.018770193 9331:0.084401247 9338:0.035029686 9353:0.084401247 9358:0.040845356 9438:0.01625949 9462:0.0041280264 9485:0.049371561 9488:0.084401247 9491:0.084401247 9510:0.045574672 9518:0.035029686 9573:0.084401247 9579:0.084401247 9667:0.045574672 9693:0.0016731431 9713:0.01625949 9716:0.0037088663 9802:0.04343062 9868:0.015855242 9886:0.022200435 
0.6612663757448345 7:0.062881346 23:0.031644611 24:0.099197275 52:0.076245179 91:0.060816319 126:0.076245179 154:0.035795993 159:0.076245179 200:0.010828264 209:0.099197275 212:0.020055109 234:0.076245179 238:0.042128591 263:0.054670405 288:0.016956346 343:0.076245179 352:0.042128591 392:0.044600568 411:0.031644611 448:0.017496888 452:0.076245179 455:0.016956346 468:0.011589508 526:0.076245179 594:0.020055109 601:0.007099149 620:0.011589508 621:0.020336653 674:0.031644611 681:0.042128591 773:0.076245179 814:0.031644611 868:0.004151384 903:0.073104976 910:0.016956346 938:0.012955962 983:0.010874457 1066:0.05619007 1070:0.011589508 1099:0.045950264 1151:0.0095711277 1161:0.076245179 1163:0.076245179 1172:0.05619007 1247:0.058026677 1311:0.076245179 1314:0.031644611 1382:0.014688263 1447:0.014688263 1555:0.059288827 1558:0.076245179 1559:0.031644611 1574:0.02815148 1580:0.076245179 1641:0.020055109 1647:0.076245179 1675:0.076245179 1708:0.076245179 1716:0.015740883 1766:0.051699717 1782:0.011796855 1790:0.041170588 1796:0.031644611 1799:0.037455754 1896:0.01246599 1933:0.032081334 1994:0.076245179 2066:0.051699717 2149:0.0075891117 2156:0.0037291168 2167:0.0020561123 2178:0.044600568 2179:0.076245179 2202:0.076245179 2276:0.031644611 2277:0.031644611 2305:0.076245179 2306:0.076245179 2335:0.0095711277 2363:0.020055109 2366:0.044600568 2411:0.076245179 2499:0.076245179 2500:0.011903336 2515:0.076245179 2516:0.0091562894 2562:0.041170588 2588:0.031644611 2629:0.034501874 2635:0.019109871 2643:0.076245179 2741:0.076245179 2812:0.0056421914 2832:0.099197275 2854:0.076245179 2865:0.068632373 2894:0.022840032 2909:0.048600959 2936:0.076245179 3046:0.026092298 3069:0.076245179 3077:0.0066686197 3098:0.031644611 3111:0.017404409 3125:0.026143533 3156:0.014688263 3164:0.0095711277 3186:0.021070213 3222:0.031644611 3264:0.049814491 3268:0.076245179 3274:0.076245179 3300:0.025357263 3308:0.024545465 3343:0.026527473 3393:0.099197275 3417:0.076245179 3443:0.0095711277 3471:0.076245179 3510:0.010160933 3519:0.076245179 3533:0.076245179 3534:0.076245179 3559:0.010483983 3576:0.022222638 3678:0.031644611 3717:0.076245179 3767:0.076245179 3779:0.076245179 3791:0.0081517742 3891:0.076245179 3935:0.076245179 4060:0.047884348 4069:0.076245179 4093:0.076245179 4115:0.038155293 4133:0.051699717 4135:0.016956346 4260:0.044600568 4300:0.076245179 4351:0.076245179 4422:0.099197275 4458:0.076245179 4469:0.015271804 4489:0.076245179 4514:0.044600568 4563:0.007099149 4605:0.076245179 4641:0.076245179 4649:0.050963452 4677:0.076245179 4744:0.0029276652 4746:0.067262887 4747:0.018375701 4773:0.03802516 4787:0.076245179 4793:0.14067984 4814:0.076245179 4965:0.020055109 4977:0.0092871752 5093:0.044600568 5094:0.006250046 5108:0.052251287 5116:0.076245179 5131:0.0085756506 5207:0.031644611 5221:0.076245179 5223:0.020055109 5273:0.14022122 5291:0.076245179 5324:0.014688263 5375:0.061556917 5383:0.076245179 5474:0.051699717 5525:0.076245179 5540:0.076245179 5554:0.076245179 5571:0.031644611 5610:0.076245179 5618:0.020055109 5620:0.023492842 5631:0.011589508 5665:0.031644611 5695:0.0081517742 5731:0.031644611 5738:0.076245179 5740:0.044287697 5753:0.076245179 5790:0.02163784 5808:0.076245179 5831:0.065880449 5868:0.02733039 5912:0.005366842 5935:0.018903278 5985:0.031644611 6024:0.0095711277 6041:0.076245179 6055:0.020055109 6103:0.099197275 6128:0.0079169852 6135:0.0095711277 6136:0.076245179 6141:0.014688263 6154:0.076245179 6182:0.076245179 6188:0.076245179 6191:0.076245179 6210:0.024545465 6221:0.076245179 6223:0.012955962 6229:0.076245179 6274:0.021015801 6275:0.076245179 6326:0.076245179 6336:0.076245179 6393:0.078867407 6426:0.016956346 6497:0.031644611 6540:0.031644611 6544:0.076245179 6618:0.031644611 6642:0.044600568 6698:0.0091718533 6809:0.076245179 6837:0.076245179 6873:0.0014569543 6912:0.019272192 6944:0.076245179 6946:0.076245179 6948:0.014688263 6967:0.0095711277 6980:0.05619007 7192:0.076245179 7243:0.073104976 7244:0.053299253 7273:0.024545465 7279:0.026527473 7280:0.076245179 7354:0.032761353 7358:0.09325358 7371:0.0034609134 7389:0.010483983 7468:0.076245179 7490:0.076245179 7613:0.024545465 7627:0.024545465 7689:0.076245179 7696:0.076245179 7715:0.011589508 7778:0.031644611 7808:0.076245179 7849:0.0075891117 7860:0.076245179 7893:0.076245179 7960:0.068093406 8019:0.099197275 8036:0.0081517742 8039:0.076245179 8040:0.076245179 8081:0.0068062032 8149:0.021829316 8169:0.076245179 8204:0.099197275 8216:0.076245179 8274:0.024545465 8281:0.033829927 8318:0.076245179 8335:0.11262338 8352:0.039233726 8466:0.023492842 8473:0.076245179 8540:0.076245179 8601:0.015078298 8602:0.076245179 8625:0.042994723 8716:0.044600568 8792:0.051044254 8871:0.14510144 8896:0.041170588 8897:0.031644611 8962:0.076245179 9018:0.05619007 9034:0.044600568 9036:0.076245179 9040:0.031644611 9152:0.023258318 9203:0.044600568 9209:0.031644611 9227:0.008180029 9280:0.0091718533 9351:0.035661017 9353:0.076245179 9358:0.028360828 9424:0.007099149 9439:0.012452324 9499:0.041215735 9540:0.031644611 9542:0.076245179 9587:0.019109871 9639:0.0043142173 9646:0.020055109 9668:0.076245179 9678:0.076245179 9690:0.076245179 9695:0.076245179 9697:0.076245179 9713:0.014688263 9716:0.0033504621 9732:0.031644611 9774:0.031644611 9787:0.051699717 9791:0.099197275 9876:0.076245179 9893:0.011589508 9908:0.014688263 9930:0.076245179 
