svm_type c_svc
kernel_type linear
nr_class 2
total_sv 87
rho 0.322517
label 1 -1
nr_sv 43 44
SV
1.237563395963357 3:0.038844845 42:0.0092332234 119:0.012444078 154:0.065059056 217:0.030019929 246:0.050259317 277:0.098018652 282:0.026838138 288:0.026838138 331:0.030019929 363:0.017236885 434:0.011598498 448:0.034206626 455:0.026838138 629:0.038988956 745:0.030019929 834:0.050259317 849:0.086811125 868:0.011061752 878:0.095847021 910:0.026838138 935:0.011027739 957:0.050259317 983:0.051639001 1051:0.050259317 1066:0.11926821 1081:0.0056661286 1089:0.030019929 1099:0.17498461 1143:0.044075023 1151:0.022578964 1188:0.051771999 1247:0.086811125 1258:0.037865877 1314:0.083408759 1408:0.13366227 1474:0.073144426 1503:0.0084548435 1507:0.11435509 1513:0.019097208 1532:0.050259317 1545:0.027761975 1559:0.051771999 1611:0.011027739 1643:0.11926821 1690:0.044695599 1714:0.051771999 1716:0.029275289 1760:0.14232111 1829:0.038559886 1836:0.030019929 1896:0.022483967 1912:0.050259317 1919:0.083402952 1933:0.026333747 2062:0.021752069 2085:0.10203132 2112:0.014394064 2139:0.050259317 2150:0.038988956 2167:0.0055351338 2199:0.080279251 2512:0.022226838 2559:0.038999455 2607:0.051599241 2787:0.038988956 2822:0.098018652 2855:0.017575854 3036:0.064286555 3111:0.10659742 3186:0.087881988 3300:0.050575657 3345:0.017236885 3391:0.069008886 3416:0.051771999 3443:0.014394064 3492:0.028846222 3508:0.030019929 3510:0.019636851 3537:0.051771999 3585:0.025490051 3749:0.050259317 3807:0.080279251 3982:0.050575657 3985:0.065827091 4063:0.080279251 4135:0.026838138 4144:0.069008886 4156:0.021752069 4296:0.026838138 4321:0.069008886 4348:0.050259317 4436:0.148462 4439:0.071804441 4465:0.15412813 4525:0.012444078 4602:0.050259317 4614:0.056191692 4635:0.051771999 4649:0.14670608 4747:0.045468828 4965:0.047059885 5039:0.025377411 5064:0.095847021 5072:0.13604175 5108:0.077655195 5119:0.021752069 5177:0.200234 5211:0.021752069 5287:0.030019929 5296:0.050259317 5365:0.044075023 5374:0.10203132 5631:0.024272179 5687:0.047822166 5836:0.058918152 6002:0.10203132 6043:0.11926821 6055:0.030019929 6143:0.080279251 6195:0.11926821 6251:0.051420856 6274:0.047822166 6468:0.050259317 6688:0.11926821 6690:0.030938806 6698:0.022366351 6767:0.035023252 6886:0.051771999 7006:0.069008886 7158:0.035023252 7258:0.035446341 7322:0.07685483 7358:0.12687095 7365:0.050259317 7371:0.0059026627 7373:0.030938806 7507:0.042549122 7556:0.0071002278 7603:0.050259317 7620:0.047822166 7649:0.035122555 7713:0.080279251 7795:0.013891544 7835:0.080279251 7976:0.016977481 8091:0.036902772 8113:0.050016117 8142:0.02753215 8224:0.095847021 8281:0.054228596 8291:0.010324334 8344:0.12595207 8453:0.03163095 8518:0.038559886 8616:0.097671876 8625:0.15520797 8879:0.07685483 8934:0.017575854 9006:0.046474082 9064:0.11926821 9086:0.11017988 9108:0.080279251 9114:0.083402952 9152:0.030105049 9279:0.017236885 9280:0.033549523 9296:0.31235116 9338:0.064286555 9364:0.050259317 9405:0.050259317 9419:0.030019929 9424:0.011027739 9455:0.31235116 9545:0.050259317 9595:0.10203132 9628:0.050259317 9716:0.10203132 9886:0.035023252 9899:0.090549105 
0.9490676410117616 61:0.1355705 85:0.035932277 105:0.16200202 288:0.030378542 378:0.081961863 413:0.019894404 449:0.074510787 469:0.0095701796 567:0.090869432 660:0.056889368 729:0.13388146 745:0.037378068 868:0.013773082 1048:0.073641438 1070:0.02146179 1088:0.031881763 1143:0.049889259 1175:0.13865662 1202:0.15129457 1314:0.080924388 1347:0.050591701 1626:0.11224302 1770:0.083965672 1799:0.062972176 1868:0.044132252 1879:0.044132252 1912:0.056889368 1942:0.013388429 1956:0.033980063 2050:0.035803607 2101:0.094405199 2156:0.016584255 2260:0.024178981 2290:0.17191592 2300:0.035932277 2316:0.24900778 2375:0.056889368 2450:0.048011239 2500:0.059046611 2512:0.025158933 2629:0.07514536 2690:0.033980063 2693:0.090869432 2778:0.062578302 2787:0.044132252 2822:0.11094897 2966:0.033980063 3111:0.090494563 3112:0.054130717 3120:0.01445392 3168:0.0112697 3193:0.23153234 3210:0.015994083 3272:0.047147123 3448:0.099956373 3510:0.022227285 3642:0.084080966 4027:0.059543787 4101:0.016292883 4151:0.099475108 4210:0.030264147 4260:0.12272676 4356:0.033980063 4469:0.066515707 4502:0.085923546 4503:0.023752179 4606:0.033980063 4614:0.069964748 4663:0.061059701 4698:0.017413117 4746:0.11549097 4848:0.056889368 4866:0.11549097 4977:0.0112697 5092:0.019894404 5109:0.058601595 5177:0.22664823 5439:0.11933994 5498:0.039383964 5551:0.019542126 5563:0.016292883 5606:0.10904332 5691:0.090869432 5700:0.06446175 5731:0.064454947 5877:0.15682397 5905:0.043549711 5912:0.013128535 5985:0.060425137 6094:0.16804663 6106:0.040530732 6219:0.062578302 6294:0.094405199 6543:0.019510719 6578:0.058601595 6588:0.18913242 6690:0.035020156 6698:0.025316848 6873:0.0080368674 7060:0.019510719 7172:0.042861026 7220:0.033980063 7322:0.086993271 7371:0.0057904806 7581:0.010324229 7585:0.019894404 7620:0.054130717 7637:0.056889368 7683:0.052958702 7748:0.094405199 7849:0.015724073 7910:0.042861026 7976:0.014092538 8081:0.018903262 8187:0.096689142 8279:0.06446175 8291:0.0098164807 8343:0.10904332 8357:0.034076412 8373:0.056889368 8453:0.035803607 8467:0.045405401 8722:0.035803607 8766:0.020002496 8932:0.019510719 9040:0.069096573 9093:0.07811232 9222:0.093535847 9271:0.18913242 9296:0.35355551 9327:0.058601595 9366:0.083182226 9657:0.090869432 9676:0.03182282 9693:0.030844993 9716:0.12704005 9841:0.035803607 
0.6134252252597708 19:0.050598136 40:0.070571979 58:0.050598136 102:0.04615064 120:0.014043439 123:0.063367439 217:0.027565813 218:0.055556107 221:0.049035053 309:0.043912726 325:0.096525451 378:0.060445751 384:0.021552998 400:0.04615064 408:0.036943502 475:0.063367439 485:0.029288675 568:0.04615064 630:0.068001472 633:0.067327899 661:0.04615064 719:0.17683704 729:0.12897355 750:0.0083753746 764:0.04615064 779:0.030695371 792:0.015827776 829:0.063367439 868:0.010157459 904:0.10997952 983:0.040643603 1007:0.047539658 1081:0.0052029247 1099:0.16067969 1151:0.020733144 1175:0.11951328 1192:0.093690298 1314:0.065648685 1382:0.021552998 1438:0.079714349 1513:0.015030873 1574:0.055186946 1643:0.10951808 1687:0.075879544 1690:0.041041753 1716:0.026882045 1776:0.019973846 1829:0.035407632 1918:0.027565813 1933:0.017228944 1974:0.013217356 2102:0.07371645 2164:0.093690298 2199:0.07371645 2216:0.07371645 2264:0.16180619 2270:0.039833585 2450:0.035407632 2500:0.05089446 2516:0.025806883 2589:0.04615064 2607:0.047381025 2629:0.06096054 2687:0.13416221 2731:0.051940657 2812:0.0083753746 2830:0.084057975 2837:0.07371645 2855:0.016139034 2865:0.12802861 2909:0.088011567 3051:0.028409572 3111:0.087177159 3118:0.06096054 3124:0.027565813 3186:0.095828485 3210:0.011795417 3233:0.060445751 3290:0.07371645 3305:0.027565813 3345:0.015827776 3407:0.07371645 3459:0.098137789 3492:0.026488055 3510:0.018031547 3576:0.088747326 3801:0.07371645 3982:0.049343686 4090:0.13689759 4115:0.09412627 4133:0.098137789 4136:0.07371645 4155:0.088089733 4208:0.034770358 4210:0.024551332 4288:0.035669298 4293:0.034645709 4356:0.027565813 4412:0.04615064 4436:0.13632529 4488:0.015827776 4566:0.04615064 4629:0.0050826392 4636:0.028409572 4649:0.11546822 4698:0.01500901 4744:0.0051062476 4768:0.052288104 4773:0.13797554 4794:0.082931011 4866:0.093690298 4927:0.07371645 4965:0.037039511 4973:0.088011567 4975:0.04615064 4997:0.035407632 5020:0.093690298 5040:0.062078845 5058:0.093690298 5108:0.075763595 5259:0.050510884 5267:0.04615064 5520:0.04615064 5571:0.047539658 5595:0.019973846 5695:0.01142678 5705:0.15343082 5731:0.052288104 5740:0.06425908 5775:0.04615064 5836:0.057482966 5842:0.012140953 5860:0.04615064 5888:0.114557 5935:0.037898626 5999:0.10951808 6024:0.013217356 6047:0.029045133 6101:0.07371645 6106:0.034934938 6128:0.028285836 6131:0.01142678 6169:0.07371645 6274:0.043912726 6286:0.029288675 6380:0.070571979 6503:0.04615064 6620:0.14107307 6664:0.059556889 6670:0.021552998 6698:0.021821528 6718:0.07371645 6757:0.047539658 6771:0.035801623 6816:0.010861161 6873:0.0069272735 6883:0.040471909 6931:0.04615064 6938:0.016139034 6996:0.047539658 7008:0.027565813 7250:0.01142678 7279:0.043001398 7289:0.040471909 7298:0.0056292604 7371:0.0042909306 7407:0.04615064 7417:0.035801623 7431:0.061902506 7607:0.083664687 7627:0.035801623 7685:0.22961995 7691:0.04615064 7748:0.076584794 7783:0.04615064 7812:0.020472881 7976:0.011692185 8081:0.01629342 8149:0.048103726 8173:0.15343082 8246:0.12320784 8248:0.031099471 8262:0.019973846 8291:0.007821267 8292:0.047539658 8457:0.1031206 8466:0.039407537 8467:0.030695371 8616:0.11210904 8631:0.027565813 8633:0.088089733 8717:0.10393345 8763:0.068115879 8766:0.015673538 8774:0.031188239 8812:0.013217356 8934:0.018156415 9006:0.042674844 9041:0.04615064 9061:0.12273544 9075:0.04615064 9147:0.12273544 9293:0.04430672 9339:0.1031206 9351:0.032548618 9365:0.027565813 9462:0.0066258907 9484:0.047539658 9511:0.035407632 9538:0.14428844 9571:0.049018984 9588:0.040471909 9639:0.0068589201 9676:0.027429265 9693:0.026586441 9727:0.017517746 9743:0.040471909 9802:0.063367439 9821:0.063367439 9841:0.029045133 9895:0.013217356 9901:0.099545937 
0.9897951814741913 48:0.033594875 71:0.056244491 73:0.026009775 154:0.072806658 259:0.024342429 266:0.043631985 370:0.11418179 443:0.023482931 473:0.030034178 578:0.19943867 744:0.12456196 745:0.033594875 750:0.010207197 874:0.07722686 1081:0.0063408837 1099:0.19582279 1117:0.024342429 1175:0.14954712 1217:0.10598083 1258:0.050079732 1322:0.10726103 1381:0.043631985 1474:0.070161336 1488:0.0079742448 1574:0.063300869 1690:0.050018204 1719:0.063204334 1735:0.057937304 1737:0.053517105 1760:0.15926952 1794:0.10726103 1896:0.025161487 1933:0.019289273 1942:0.014439995 2149:0.015545829 2152:0.16657863 2156:0.01261251 2167:0.0067574066 2249:0.056244491 2264:0.19719566 2500:0.058377279 2512:0.027134987 2516:0.026485258 2574:0.056244491 2597:0.08983936 2659:0.024342429 2837:0.08983936 2855:0.019668887 2878:0.021349143 3070:0.026555378 3112:0.053517105 3125:0.078675526 3255:0.13292013 3295:0.13347135 3308:0.043631985 3593:0.23181885 3659:0.019289551 3671:0.026677415 3820:0.07722686 3959:0.056244491 3972:0.023482931 3982:0.056598498 3985:0.073666159 4213:0.021043148 4293:0.042223253 4464:0.036884615 4467:0.059740175 4629:0.0061942898 4740:0.056244491 4744:0.0062230616 4773:0.16815289 5011:0.033594875 5040:0.075656431 5058:0.12456196 5177:0.22407902 5336:0.033594875 5551:0.019320602 5683:0.057937304 5778:0.026266967 5840:0.056244491 5856:0.14532228 5947:0.025617742 6068:0.056244491 6106:0.050999814 6128:0.037606233 6190:0.024342429 6195:0.13347135 6223:0.025617742 6363:0.13047493 6429:0.043631985 6456:0.033594875 6502:0.006689169 6510:0.098006581 6670:0.026266967 6816:0.013236662 6872:0.1073563 6873:0.0093904466 6931:0.056244491 7006:0.07722686 7096:0.12912536 7172:0.042375163 7199:0.15041286 7354:0.10950824 7371:0.0076064325 7389:0.019668887 7417:0.043631985 7431:0.071003791 7464:0.056244491 7486:0.20270665 7539:0.080363084 7556:0.0079457631 7685:0.22387306 7700:0.012340985 7729:0.057937304 7754:0.057937304 7792:0.030034178 8004:0.16350553 8060:0.08983936 8149:0.05862474 8344:0.14095117 8360:0.056244491 8377:0.09056057 8414:0.12456196 8467:0.040809726 8633:0.1073563 8670:0.12456196 8766:0.022881036 8978:0.056244491 9227:0.01114195 9263:0.056244491 9327:0.057937304 9365:0.033594875 9511:0.043151815 9639:0.0083590699 9671:0.056244491 9716:0.11418179 9727:0.021349143 9764:0.057937304 9847:0.056244491 9868:0.028941109 9896:0.056244491 9911:0.056244491 
1.102839358214237 2:0.12971226 58:0.053474356 61:0.12591717 85:0.030806505 98:0.11574357 129:0.13177058 200:0.023123176 295:0.034748986 434:0.011255737 562:0.048774048 681:0.080192873 729:0.12434839 790:0.048859056 935:0.010701846 938:0.020363907 983:0.050112957 1048:0.06313642 1099:0.16981344 1151:0.02373768 1175:0.15850285 1209:0.048774048 1231:0.012435103 1272:0.077906827 1285:0.063881756 1286:0.080798901 1314:0.069380449 1347:0.043374748 1381:0.037836748 1503:0.0082049849 1593:0.048774048 1621:0.093097143 1690:0.046989306 1716:0.028410141 1737:0.046408917 1799:0.049081037 1887:0.048774048 1896:0.021819518 1933:0.016611093 1942:0.012435103 2002:0.074583602 2028:0.038875971 2195:0.029132777 2221:0.050242024 2329:0.0072488116 2354:0.042772513 2384:0.020363907 2500:0.050623557 2512:0.021569988 2516:0.024881416 2564:0.066969527 2607:0.050074376 2631:0.10076574 2697:0.013968689 2830:0.096239218 2847:0.099016075 2855:0.017056449 2890:0.021109248 2894:0.036746859 3077:0.013504745 3111:0.077585428 3120:0.0095890903 3121:0.048774048 3125:0.062540299 3133:0.059467623 3164:0.013968689 3186:0.092391959 3191:0.016727497 3210:0.01246592 3221:0.077906827 3234:0.1123594 3271:0.029132777 3280:0.2511186 3300:0.05317112 3435:0.099016075 3442:0.080798901 3567:0.051805439 3575:0.18334486 3576:0.093792121 3671:0.023134101 3689:0.050242024 4080:0.013082689 4081:0.099016075 4455:0.029132777 4462:0.042772513 4478:0.032440233 4503:0.020363907 4561:0.050242024 4744:0.0053965093 4747:0.051479311 4773:0.15797023 5131:0.01742781 5230:0.077906827 5239:0.077906827 5451:0.018513533 5498:0.030696188 5516:0.077906827 5551:0.019546825 5578:0.048774048 5615:0.047560928 5626:0.048774048 5631:0.023554884 5687:0.046408917 5763:0.048774048 5828:0.066969527 5842:0.012076329 5868:0.27519699 5912:0.013131694 5935:0.043979713 5947:0.020363907 5985:0.051805439 6004:0.026718515 6094:0.15608084 6128:0.032384871 6194:0.021109248 6280:0.1621525 6301:0.029132777 6347:0.048774048 6423:0.037836748 6428:0.041291708 6536:0.093014537 6588:0.1621525 6663:0.050242024 6690:0.030024498 6698:0.023514157 6890:0.032556266 6912:0.04909249 6955:0.077906827 6980:0.11574357 6982:0.048774048 7023:0.057176996 7096:0.10264358 7100:0.021109248 7227:0.048774048 7282:0.031985569 7291:0.077906827 7354:0.094963274 7371:0.0041370524 7385:0.041291708 7389:0.017056449 7547:0.042772513 7607:0.12526245 7649:0.031649992 7831:0.0063388404 7911:0.032440233 7929:0.093014537 7963:0.010701846 7971:0.010701846 7976:0.01556044 8016:0.049496689 8060:0.077906827 8081:0.016206694 8151:0.17723573 8194:0.016727497 8281:0.052626023 8291:0.01102115 8333:0.080938217 8403:0.0063450529 8449:0.048774048 8453:0.030696188 8457:0.10898244 8466:0.045118271 8616:0.094785457 8722:0.030696188 8766:0.016889286 8774:0.035707875 8932:0.016727497 8934:0.017056449 8982:0.077906827 9046:0.0082049849 9073:0.065830501 9223:0.077906827 9237:0.0065906224 9296:0.30312051 9351:0.034398827 9372:0.026045013 9424:0.010701846 9439:0.013968689 9676:0.031830473 9693:0.028648668 9716:0.099016075 9802:0.066969527 9899:0.087873183 9916:0.021109248 
1.241023305665008 19:0.056424071 61:0.13797303 85:0.032505829 277:0.10036904 325:0.10763952 370:0.10447792 521:0.012742474 620:0.017650207 681:0.084616406 729:0.12111473 730:0.057897542 868:0.011327001 900:0.11963254 941:0.027481688 983:0.050988774 1099:0.20157811 1238:0.10599547 1314:0.073207559 1379:0.082204258 1503:0.0086575815 1574:0.065161315 1611:0.011292173 1810:0.016002729 1896:0.025900995 1933:0.022246292 2077:0.19248414 2189:0.027481688 2193:0.085402868 2300:0.032505829 2336:0.045131891 2339:0.082204258 2351:0.082204258 2500:0.060093013 2736:0.030739777 2865:0.13437176 3044:0.082204258 3120:0.009339726 3133:0.057921174 3186:0.089989305 3238:0.14355585 3295:0.12212813 3300:0.05178841 3492:0.0369224 3642:0.076063131 3659:0.017650207 3807:0.082204258 3808:0.082204258 3885:0.10447792 4114:0.12212813 4129:0.011292173 4261:0.056424071 4275:0.051464488 4334:0.20484696 4359:0.047588479 4439:0.07352624 4453:0.12212813 4480:0.030739777 4496:0.057897542 4582:0.01953476 4666:0.082204258 4744:0.0056941873 4747:0.046559119 4755:0.058308622 4768:0.058308622 4828:0.051464488 4927:0.082204258 5131:0.01838915 5145:0.17429563 5177:0.2050354 5246:0.10447792 5288:0.053013439 5439:0.098145329 5517:0.051464488 5589:0.032389428 5618:0.030739777 5740:0.071657957 5824:0.014739218 5905:0.035815344 5912:0.011876617 5922:0.082204258 5968:0.12212813 5999:0.12212813 6106:0.036665782 6128:0.031542704 6131:0.014335282 6195:0.12212813 6408:0.12212813 6420:0.1710247 6428:0.043569407 6527:0.041509535 6627:0.051464488 6672:0.054663088 6845:0.054663088 6857:0.010195038 6873:0.0072704835 6890:0.027481688 6967:0.014739218 7202:0.053013439 7273:0.039923867 7281:0.051464488 7289:0.045131891 7295:0.047588479 7334:0.053013439 7345:0.051464488 7371:0.0040294687 7539:0.067405553 7559:0.098145329 7584:0.051464488 7715:0.017650207 7727:0.082204258 7835:0.082204258 7874:0.053013439 7976:0.011589723 8096:0.10599547 8246:0.12212813 8248:0.030826936 8291:0.00951471 8457:0.1293683 8601:0.01953476 8616:0.13751915 8625:0.131117 8716:0.092720382 8766:0.016450081 8774:0.034779291 8781:0.053013439 8856:0.032389428 8879:0.07869773 9046:0.0086575815 9048:0.070663644 9094:0.034582246 9139:0.082204258 9199:0.15397577 9280:0.022902672 9293:0.049408252 9346:0.048968894 9351:0.036296308 9455:0.31984102 9462:0.006954169 9503:0.053013439 9518:0.051464488 9524:0.11499403 9556:0.082204258 9693:0.027903661 9713:0.024034637 9895:0.014739218 
0.8665204789143834 28:0.13516597 58:0.096910224 61:0.21064293 85:0.055829845 282:0.047200719 357:0.14207234 441:0.14118856 885:0.030314818 935:0.019394684 1088:0.041280293 1175:0.24621489 1921:0.088391971 1933:0.031757924 2043:0.088391971 2101:0.14668227 2591:0.18796255 2790:0.14668227 2812:0.016041292 2894:0.066595401 2928:0.096120811 2981:0.052796591 3051:0.054412632 3098:0.088391971 3118:0.11675725 3436:0.088391971 3448:0.14118856 3684:0.17944431 3885:0.17944431 3982:0.088948317 4052:0.03591904 4198:0.17944431 4436:0.26110281 4973:0.16856788 5131:0.031583977 5177:0.35215515 5198:0.025315098 5763:0.088391971 5778:0.041280293 6141:0.038255753 6428:0.074831906 6850:0.093885677 6912:0.08896907 7199:0.23638385 7354:0.17209953 7371:0.0079094257 7419:0.052796591 7556:0.012487298 7607:0.16024233 7831:0.01148772 7849:0.024431309 7937:0.1526763 8004:0.25695988 8291:0.010894555 8403:0.0098562663 8542:0.17944431 8616:0.17177727 8631:0.052796591 8780:0.088391971 9280:0.039336103 9676:0.049444769 9693:0.047925467 9714:0.052796591 9754:0.088391971 
0.6141848958227469 2:0.15172902 42:0.011978574 120:0.016339669 123:0.078336623 290:0.030179396 441:0.091130364 511:0.031663186 578:0.11126755 681:0.093804443 719:0.24290107 729:0.1342659 747:0.024692233 750:0.010353876 768:0.024692233 836:0.057052731 988:0.057052731 1048:0.073852902 1066:0.13538935 1146:0.041650448 1229:0.084206777 1231:0.013426874 1410:0.037864041 1411:0.1158226 1679:0.063929639 1758:0.057052731 2021:0.13538935 2137:0.03125359 2151:0.18967552 2152:0.23829441 2173:0.026644426 2219:0.018581591 2251:0.078336623 2556:0.034077637 2603:0.057052731 2676:0.018155188 2731:0.064210514 2822:0.11126755 3002:0.091130364 3062:0.057052731 3255:0.087243072 3464:0.11619758 3576:0.10971195 3593:0.33966127 3840:0.037971402 3873:0.058769872 3985:0.074724752 4114:0.13538935 4115:0.11636156 4181:0.063391925 4359:0.052755852 4469:0.044471142 4671:0.098545147 4755:0.064640032 4871:0.010353876 5068:0.057052731 5093:0.091130364 5130:0.10747003 5275:0.14243779 5686:0.060598649 5700:0.058769872 5722:0.027060772 5868:0.29714555 5985:0.060598649 6019:0.024692233 6024:0.016339669 6097:0.050032517 6314:0.083027504 6356:0.15172902 6363:0.18872111 6588:0.18967552 6779:0.12748062 6857:0.011302062 7020:0.026644426 7096:0.12006583 7100:0.024692233 7104:0.09945369 7205:0.060598649 7354:0.1110819 7371:0.0049633404 7403:0.13538935 7539:0.074724752 7552:0.057052731 7556:0.0080599446 7607:0.10342865 7627:0.044258983 7976:0.015703339 8036:0.014126109 8129:0.054094309 8237:0.090734954 8291:0.010157199 8297:0.06255085 8372:0.063391925 8457:0.12748062 8601:0.024062147 8647:0.034077637 8940:0.034077637 9009:0.014126109 9053:0.034077637 9237:0.0077092838 9352:0.063391925 9588:0.050032517 9615:0.047760111 9693:0.030933565 9716:0.12869177 9890:0.057052731 9893:0.021655932 9901:0.12869177 9916:0.024692233 
0.9554871185848127 3:0.033776071 73:0.020209193 85:0.027602344 105:0.10370518 113:0.033901377 157:0.033901377 259:0.018913691 262:0.056864389 284:0.069803796 443:0.018245873 449:0.057237465 681:0.07185207 693:0.043701095 721:0.11622099 729:0.10284464 744:0.088717489 748:0.083414174 776:0.043701095 779:0.029066148 805:0.043701095 815:0.069803796 936:0.018245873 1002:0.11622099 1043:0.13024482 1099:0.15215127 1106:0.043701095 1151:0.019632687 1183:0.069803796 1217:0.075483341 1229:0.06450048 1343:0.047912531 1360:0.043701095 1378:0.043701095 1379:0.069803796 1382:0.020409027 1447:0.020409027 1474:0.054514271 1488:0.0056795426 1498:0.027225438 1555:0.11622099 1574:0.049183797 1621:0.083414174 1727:0.072519892 1746:0.014233077 1769:0.043701095 1770:0.1075008 1799:0.043976156 1859:0.093071722 1933:0.018318015 1936:0.030539494 1951:0.069803796 2021:0.10370518 2149:0.012078868 2216:0.069803796 2226:0.12704128 2249:0.043701095 2260:0.021669355 2267:0.026102698 2270:0.033528295 2290:0.11851703 2300:0.032202733 2384:0.018245873 2424:0.026901673 2426:0.043701095 2514:0.069803796 2516:0.020578635 2635:0.022163913 2830:0.079596418 3111:0.092687767 3133:0.049183797 3186:0.076414469 3221:0.069803796 3234:0.092928917 3435:0.088717489 3459:0.10841707 3793:0.12704128 3933:0.0095887548 3982:0.043976156 4046:0.043701095 4060:0.10907044 4077:0.072519892 4101:0.012515815 4133:0.092928917 4324:0.088717489 4359:0.040409786 4400:0.14528715 4436:0.12908954 4467:0.046417191 4469:0.045418513 4478:0.029066148 4565:0.069803796 4629:0.0048128669 4671:0.075483341 4698:0.013376354 4875:0.043701095 4925:0.046417191 5009:0.041581962 5084:0.069803796 5165:0.026102698 5171:0.043701095 5280:0.043701095 5283:0.093071722 5315:0.015282421 5348:0.028578694 5399:0.04501639 5615:0.042614153 5620:0.037315897 5631:0.021104958 5687:0.041581962 5740:0.060848393 5790:0.034832508 5842:0.010820279 5868:0.30347567 5889:0.069803796 5905:0.035481389 5912:0.010085037 5932:0.043701095 6019:0.018913691 6043:0.10370518 6094:0.15060446 6106:0.036323894 6151:0.13641855 6173:0.026102698 6223:0.018245873 6390:0.04501639 6408:0.10370518 6420:0.15060446 6455:0.034803595 6467:0.069803796 6502:0.0051973807 6510:0.069803796 6527:0.035247846 6627:0.043701095 6664:0.053078383 6682:0.014987683 6779:0.097647254 6819:0.041581962 7006:0.060004076 7015:0.043701095 7123:0.043701095 7199:0.13634653 7295:0.040409786 7298:0.0053304755 7371:0.0034216257 7407:0.043701095 7437:0.1190045 7473:0.10370518 7539:0.057237465 7541:0.043701095 7563:0.036996985 7727:0.069803796 7795:0.012078868 7930:0.043701095 7949:0.043701095 8016:0.044348574 8049:0.018913691 8074:0.053078383 8081:0.016941221 8187:0.067522147 8246:0.10370518 8291:0.0053862809 8297:0.047912531 8414:0.088717489 8467:0.029066148 8604:0.069803796 8618:0.04501639 8766:0.020952891 8780:0.043701095 8798:0.026102698 8846:0.069803796 9006:0.040409786 9013:0.069803796 9018:0.10951687 9064:0.10370518 9114:0.072519892 9136:0.072524942 9150:0.069803796 9222:0.07185207 9299:0.041581962 9329:0.023336091 9441:0.069803796 9455:0.27159317 9462:0.0068893257 9507:0.069803796 9556:0.069803796 9564:0.043701095 9587:0.020409027 9588:0.038323774 9694:0.043701095 9769:0.083340164 9787:0.088717489 9820:0.054153387 9855:0.069803796 9895:0.012515815 9928:0.069803796 
0.6999548215816288 2:0.139483 16:0.052448011 58:0.057502381 61:0.12498651 171:0.052448011 413:0.018341246 434:0.012103589 569:0.022699326 692:0.031327237 747:0.022699326 750:0.0095182159 790:0.053347728 849:0.090591581 914:0.061483923 964:0.052448011 983:0.050808474 1082:0.040686844 1117:0.022699326 1151:0.023562233 1172:0.13143703 1200:0.052448011 1247:0.090591581 1314:0.082067277 1380:0.017987516 1391:0.10647458 1403:0.039514863 1438:0.090591581 1606:0.10647458 1666:0.067892246 1690:0.046642004 1716:0.030550169 1737:0.049904728 1754:0.017987516 1802:0.010389874 1898:0.059429217 1919:0.087034979 1933:0.029678972 2004:0.069278757 2112:0.015020897 2149:0.014496494 2336:0.045994402 2424:0.03228613 2500:0.059880521 2516:0.029637017 2565:0.08377525 2604:0.056590145 2607:0.053846287 2690:0.031327237 2822:0.10228717 2897:0.052448011 3005:0.052448011 3075:0.10002097 3111:0.083429647 3186:0.09170908 3308:0.040686844 3343:0.045994402 3399:0.022699326 3589:0.092152772 3626:0.018341246 3671:0.024876701 3768:0.052448011 3806:0.040688953 3809:0.052448011 3846:0.022699326 4014:0.090591581 4060:0.1570815 4114:0.1369083 4125:0.054026565 4205:0.069278757 4310:0.031327237 4408:0.08377525 4436:0.15492722 4503:0.024087628 4637:0.052448011 4663:0.056292766 4744:0.0058030078 4771:0.057502381 4945:0.13143703 5086:0.054026565 5130:0.098796139 5157:0.10002097 5177:0.22984916 5275:0.15713 5317:0.23778829 5467:0.1244621 5551:0.018016471 5597:0.016522986 5615:0.051143515 5735:0.066849294 5778:0.024493961 5790:0.041804351 5905:0.036499807 5947:0.021897845 6034:0.052448011 6037:0.040686844 6060:0.10647458 6094:0.15492722 6101:0.08377525 6151:0.16372317 6210:0.040686844 6408:0.1244621 6423:0.040686844 6502:0.0062376534 6514:0.052448011 6745:0.066097614 6819:0.049904728 6912:0.052790442 7008:0.031327237 7020:0.024493961 7096:0.11037534 7250:0.014284592 7371:0.0049277702 7373:0.03551474 7431:0.072832175 7437:0.15710598 7464:0.052448011 7698:0.049904728 7701:0.040686844 7829:0.072014086 7932:0.08822187 7976:0.015354575 8052:0.021897845 8074:0.063702199 8075:0.052448011 8291:0.0077572354 8328:0.098796139 8357:0.031416064 8366:0.08377525 8403:0.0058482867 8436:0.057692809 8518:0.040239093 8577:0.10647458 8616:0.10192529 8766:0.023470237 8859:0.11002306 8937:0.0082588395 8944:0.057692809 8956:0.040686844 9013:0.08377525 9114:0.087034979 9259:0.024969258 9279:0.017987516 9280:0.02334036 9296:0.32595341 9338:0.057502381 9384:0.1244621 9411:0.16397696 9413:0.052448011 9414:0.08377525 9417:0.10647458 9587:0.024493961 9615:0.039514863 9701:0.052448011 9716:0.11712203 9741:0.024493961 
0.8874142711027758 282:0.040236042 357:0.12110893 391:0.077617165 392:0.14290132 497:0.016532912 621:0.040084527 719:0.28871873 911:0.027745385 964:0.075349341 1100:0.1529665 1231:0.017732826 1258:0.056768953 1286:0.11522163 1379:0.12035556 1726:0.1034589 1933:0.0270719 1974:0.024662565 2156:0.016896664 2193:0.12503865 2424:0.046383806 2564:0.1034589 2731:0.084802604 2773:0.047421479 2819:0.045006219 3077:0.019258168 3186:0.13175367 3258:0.18422111 3559:0.030114195 3705:0.075349341 3840:0.045133832 4210:0.040084527 4306:0.032610946 4649:0.18852293 4871:0.013674327 5096:0.12503865 5246:0.1529665 5576:0.23557719 5700:0.077617165 5733:0.075349341 5847:0.075349341 5868:0.3924391 5912:0.017388599 6019:0.032610946 6112:0.045006219 6527:0.060774262 6664:0.09151764 6725:0.17880824 6749:0.02132149 6905:0.21580431 7006:0.1034589 7371:0.0058995597 7403:0.22989631 7431:0.095122013 7507:0.063790125 7730:0.045984048 7812:0.035953713 7849:0.020826361 8004:0.2190443 8036:0.018656302 8081:0.025037159 8211:0.06607777 8250:0.13719845 8291:0.010613732 8357:0.045133832 8384:0.12035556 8467:0.050115793 8529:0.045006219 8632:0.077617165 8763:0.1112116 8766:0.024084623 8828:0.075349341 8997:0.080032427 9046:0.012675596 9236:0.2190443 9293:0.072338802 9524:0.1683632 9582:0.077617165 9623:0.045133832 9743:0.06607777 9775:0.021579743 
2.392904446160755 68:0.026930334 238:0.10605139 392:0.12844449 412:0.015970391 434:0.014885196 449:0.084480696 790:0.059643565 900:0.14993779 911:0.01847295 1081:0.0087261057 1285:0.084480696 1690:0.057361114 1754:0.022121347 1758:0.064501445 1868:0.050037364 1933:0.02433313 2035:0.056564681 2085:0.13094421 2167:0.0071036397 2363:0.038526758 2830:0.11748181 2859:0.038526758 3046:0.042900721 3111:0.10260316 3186:0.11278535 3225:0.07740173 3420:0.034443334 3459:0.13716016 3559:0.02255637 3659:0.022121347 3905:0.17249415 3933:0.0141527 3972:0.032316399 3985:0.084480696 4115:0.18417494 4155:0.1231167 4210:0.034313635 4288:0.049852415 4455:0.038526758 5130:0.12150115 5131:0.027656973 5584:0.064501445 5672:0.0405943 5868:0.33594039 5935:0.059822905 6094:0.19053211 6135:0.01847295 6274:0.061373665 6307:0.064501445 6527:0.052024706 6883:0.056564681 7015:0.064501445 7020:0.03012308 7273:0.060044833 7298:0.0078676136 7334:0.066442773 7371:0.0050502115 7683:0.050037364 7685:0.30808642 7729:0.066442773 8016:0.065457097 8403:0.0071923209 8448:0.0405943 8601:0.024483296 8766:0.024740649 8818:0.15306557 8828:0.064501445 9064:0.15306557 9199:0.20584621 9296:0.40086295 9329:0.034443334 9372:0.034443334 9455:0.40086295 9583:0.064501445 9693:0.041966639 9923:0.064501445 
0.0658038127564647 2:0.11461065 61:0.1213717 68:0.019628794 91:0.055785825 94:0.025741023 100:0.025104818 103:0.060857268 157:0.033431644 191:0.028081115 218:0.048826757 235:0.071515066 287:0.10226825 309:0.041005808 356:0.011640387 363:0.017467291 434:0.010849418 443:0.017993062 462:0.095959021 468:0.014780015 542:0.025741023 578:0.084047512 668:0.023012749 681:0.070856495 731:0.012342398 745:0.025741023 784:0.043095583 790:0.039849871 868:0.0094850594 914:0.050520223 1002:0.11461065 1048:0.055785825 1082:0.033431644 1143:0.037792764 1151:0.019360659 1175:0.1241346 1202:0.11461065 1231:0.010142178 1321:0.018651625 1347:0.038324884 1402:0.043095583 1438:0.074437455 1474:0.058646105 1513:0.014035865 1677:0.081352346 1726:0.059172667 1754:0.014780015 1760:0.12203529 1802:0.0093132777 1830:0.043095583 1896:0.019279203 1933:0.016011451 1954:0.025104818 2002:0.065900283 2012:0.025741023 2021:0.10226825 2028:0.034349873 2035:0.041228472 2062:0.018651625 2071:0.016123654 2094:0.074437455 2219:0.015311854 2270:0.033063729 2300:0.029694425 2424:0.026528927 2516:0.023983226 2558:0.04724866 2591:0.091641303 2607:0.044244515 2652:0.048461409 2664:0.025741023 2731:0.052911615 2773:0.027122416 2812:0.0078209453 2822:0.084047512 2894:0.032468644 2915:0.044919373 2957:0.044392647 2966:0.025741023 2979:0.043095583 3008:0.044392647 3077:0.011014588 3111:0.068552622 3118:0.056925096 3133:0.048502311 3186:0.082206198 3220:0.14327406 3234:0.099972335 3299:0.043095583 3437:0.025741023 3464:0.065828608 3492:0.026983211 3510:0.016837903 3526:0.012610418 3540:0.043095583 3555:0.087488227 3576:0.10547405 3585:0.021856811 3629:0.10226825 3642:0.06369411 3772:0.091641303 3806:0.030393979 3817:0.22047853 3820:0.059172667 3840:0.02581401 3867:0.043095583 3933:0.0094558942 3958:0.043095583 3981:0.018651625 4052:0.017512358 4210:0.022926091 4222:0.043095583 4243:0.020126242 4293:0.032352247 4403:0.071515066 4429:0.033431644 4436:0.12730089 4464:0.028261683 4469:0.033591899 4488:0.014780015 4629:0.0047461809 4644:0.059172667 4744:0.0047682264 4747:0.042532259 4750:0.033431644 4773:0.12884189 4899:0.016358113 4977:0.0093132777 5009:0.044733609 5040:0.068509258 5075:0.017993062 5090:0.047013359 5108:0.11501316 5130:0.081178994 5133:0.025741023 5177:0.17169354 5222:0.02866341 5275:0.10759238 5284:0.0688366 5285:0.043095583 5362:0.041005808 5375:0.15944854 5513:0.0615757 5535:0.018651625 5584:0.043095583 5600:0.052464035 5647:0.014780015 5683:0.044392647 5731:0.048826757 5824:0.012342398 5868:0.24485788 5882:0.028081115 5912:0.010849418 5935:0.036336081 6004:0.02360784 6047:0.02958809 6094:0.1388737 6128:0.026413381 6148:0.081352346 6251:0.037792764 6280:0.14327406 6420:0.12730089 6445:0.091641303 6536:0.089656817 6673:0.027122416 6682:0.014780015 6725:0.11156537 6749:0.010670354 6873:0.0060881925 6886:0.044392647 6905:0.10799942 6912:0.063093743 7025:0.087488227 7036:0.043095583 7104:0.081953175 7282:0.028261683 7295:0.039849871 7354:0.083907267 7371:0.0033742159 7373:0.026528927 7380:0.014780015 7533:0.0688366 7556:0.007195136 7620:0.041005808 7649:0.02581401 7671:0.087488227 7698:0.044733609 7720:0.043095583 7769:0.018651625 7772:0.025741023 7831:0.0056008473 7849:0.011911505 7877:0.056444391 7918:0.025741023 7937:0.074437455 7976:0.010587337 8074:0.057101386 8126:0.018651625 8135:0.13544893 8139:0.043095583 8149:0.053086527 8151:0.125281 8187:0.066586573 8256:0.043095583 8291:0.0082089132 8320:0.025741023 8322:0.04625474 8414:0.087488227 8448:0.02958809 8464:0.023012749 8467:0.02866341 8601:0.016358113 8625:0.079851195 8766:0.013775049 8816:0.016123654 8903:0.043095583 8982:0.0688366 9018:0.10799942 9034:0.071515066 9040:0.052342939 9053:0.025741023 9136:0.066875889 9167:0.018651625 9202:0.014780015 9237:0.0058233157 9259:0.018651625 9286:0.059172667 9339:0.096294272 9462:0.0058233157 9538:0.1469857 9556:0.0688366 9568:0.0688366 9588:0.037792764 9635:0.025741023 9639:0.0069871379 9703:0.15834473 9727:0.016358113 9787:0.087488227 9816:0.13473688 9908:0.021856811 
0.7406273654133316 23:0.050998907 48:0.029571653 51:0.11329893 53:0.064844117 85:0.031270597 200:0.024142137 238:0.081400958 284:0.079080471 287:0.11748723 448:0.033695833 455:0.026437376 475:0.067978404 512:0.12407127 668:0.026437376 681:0.081400958 837:0.021427252 868:0.010896571 1043:0.22133082 1049:0.005763386 1143:0.043416868 1175:0.12066798 1202:0.13166635 1231:0.012816626 1352:0.10050773 1447:0.023121315 1543:0.17116624 1545:0.027347417 1611:0.01303568 1666:0.064087553 1757:0.049508815 1799:0.049820429 1879:0.038406746 1933:0.021790035 2050:0.03115862 2149:0.013684108 2156:0.011102073 2219:0.016124603 2260:0.023146328 2300:0.034397656 2304:0.049508815 2335:0.014179123 2374:0.050998907 2384:0.020670686 2512:0.021894935 2556:0.029571653 2604:0.058760704 2830:0.1082094 2915:0.051604019 3111:0.078754235 3186:0.09522665 3467:0.1439246 3585:0.025109417 3610:0.049508815 3615:0.029571653 3626:0.0173134 3860:0.10050773 4060:0.10591331 4115:0.12117049 4135:0.026437376 4208:0.037300443 4395:0.086988515 4409:0.082157524 4464:0.032467424 4465:0.16700925 4469:0.038590855 4636:0.03047681 4663:0.05313811 4773:0.14801541 4871:0.0089848135 4874:0.10050773 4905:0.079080471 4912:0.049508815 4965:0.039734706 4966:0.079080471 4973:0.094415778 4975:0.049508815 4997:0.037984087 5040:0.066596047 5064:0.094415778 5133:0.029571653 5177:0.19724398 5198:0.014179123 5235:0.081574084 5268:0.021427252 5275:0.12360367 5631:0.023909733 5681:0.094415778 5687:0.047108059 5778:0.023121315 5868:0.30942584 5912:0.011425302 5917:0.082157524 6038:0.043416868 6094:0.16086957 6128:0.033378476 6250:0.094415778 6274:0.070662084 6346:0.021427252 6502:0.0058880942 6527:0.039932159 6684:0.079080471 6698:0.022032362 6795:0.018792434 6834:0.049508815 6905:0.12407127 6912:0.049832056 6999:0.1974995 7033:0.13166635 7104:0.086303229 7202:0.050998907 7298:0.0060388771 7354:0.096393869 7365:0.049508815 7371:0.0050392516 7385:0.04191376 7431:0.068750648 7556:0.006994203 7585:0.019044739 7680:0.050998907 7831:0.0064343337 7963:0.010863067 7971:0.010863067 7976:0.01226424 8149:0.051604019 8235:0.027855425 8291:0.010983778 8308:0.099693925 8357:0.029655503 8384:0.079080471 8467:0.032928937 8484:0.016979493 8577:0.10050773 8616:0.096213376 8766:0.018989967 8771:0.049508815 8997:0.052585872 8998:0.10050773 9018:0.12407127 9026:0.029571653 9152:0.029655503 9280:0.022032362 9455:0.33845559 9576:0.0098076236 9816:0.17026642 9841:0.03115862 
0.9948218049709826 61:0.17199179 73:0.033375692 102:0.072172811 113:0.055988476 212:0.045422316 277:0.14075563 325:0.15095162 338:0.068673041 448:0.049121009 613:0.043108876 868:0.015884771 908:0.084201609 936:0.030133249 973:0.17127017 983:0.063560612 1089:0.043108876 1175:0.17590702 1231:0.016985258 1314:0.13688651 1498:0.038539796 1545:0.039866434 1555:0.19194017 1574:0.081227551 1714:0.074345035 1925:0.093425363 1933:0.026470839 2005:0.086735865 2018:0.072172811 2035:0.073840791 2050:0.045422316 2090:0.090374093 2112:0.024114998 2167:0.0092732489 2173:0.033705719 2300:0.045585557 2329:0.012514066 2495:0.074345035 2534:0.055988476 2687:0.20980999 2878:0.0365269 3042:0.052992697 3133:0.081227551 3164:0.020669999 3186:0.14723251 3210:0.018446296 3308:0.065319882 3404:0.043108876 3560:0.043108876 3585:0.036603933 3842:0.072172811 3939:0.14651785 4065:0.074345035 4133:0.15347307 4210:0.038394672 4278:0.072172811 4481:0.074345035 4744:0.0079854204 4773:0.25173567 5131:0.025788594 5317:0.29746947 5451:0.027395178 5615:0.070377716 5631:0.034855057 5868:0.3758949 6072:0.043108876 6094:0.21319271 6190:0.031236157 6380:0.1103642 6727:0.17093748 6796:0.031236157 7298:0.0088033356 7585:0.025239077 7795:0.019948376 7831:0.0093798236 7976:0.018962074 8124:0.072172811 8187:0.11151353 8281:0.07787273 8291:0.013343248 8322:0.077463515 8457:0.16126545 8467:0.056003552 8518:0.055372328 8594:0.14651785 8766:0.030759039 9046:0.012141228 9227:0.014297329 9280:0.032118273 9366:0.1055293 9417:0.14651785 9424:0.015835928 9524:0.16126545 9547:0.038539796 9676:0.040372086 9806:0.12603768 
0.9834299474119228 28:0.091120063 46:0.12671208 85:0.037636834 119:0.014753858 171:0.059588095 200:0.026904746 325:0.12463029 338:0.056698574 352:0.097973015 357:0.095775899 511:0.033070265 681:0.097973015 729:0.14023254 731:0.017065787 750:0.010813991 941:0.031819639 983:0.052477597 1049:0.0069367278 1099:0.20746399 1231:0.017139896 1403:0.044894271 1488:0.0077442704 1507:0.11621217 1799:0.059963145 1898:0.061381543 1919:0.098883605 1933:0.018732978 2002:0.091120063 2021:0.14140592 2062:0.02578953 2065:0.02578953 2066:0.13314572 2101:0.098883605 2102:0.095180103 2149:0.018299992 2156:0.013362293 2260:0.025325987 2267:0.039546679 2329:0.0088559974 2401:0.095180103 2498:0.11633125 2558:0.065330545 2574:0.059588095 2629:0.078710112 2693:0.095180103 2830:0.12059191 2865:0.15558218 2878:0.025131444 3042:0.037502058 3077:0.015229829 3210:0.016922031 3407:0.095180103 3642:0.088069605 3703:0.095180103 3982:0.059963145 4014:0.10292439 4053:0.068201717 4115:0.13503616 4210:0.038744226 4333:0.090908689 4429:0.046225806 4464:0.043419244 4465:0.18273629 4535:0.031819639 4871:0.010813991 4961:0.010813991 5021:0.11999016 5059:0.14785178 5198:0.017065787 5275:0.14876758 5362:0.056698574 5498:0.037502058 5551:0.020469167 5592:0.10575568 5722:0.031403695 5790:0.047495437 5905:0.041468754 6060:0.12096963 6097:0.05225591 6106:0.042453432 6128:0.036521682 6169:0.095180103 6297:0.12671208 6411:0.059588095 6420:0.17601845 6439:0.14785178 6527:0.048061765 6570:0.18630017 6586:0.098883605 6664:0.072374382 6951:0.039546679 7020:0.027828476 7064:0.078045442 7111:0.095180103 7250:0.014753858 7295:0.055100267 7385:0.050446787 7437:0.16226711 7556:0.0084181202 7585:0.020838157 7706:0.059588095 7831:0.0077442704 7849:0.016469993 7976:0.016401179 8016:0.060470953 8074:0.072374382 8107:0.078045442 8248:0.035692932 8291:0.0097925297 8616:0.11580102 8717:0.11928465 8766:0.021163007 8774:0.040269161 8879:0.091120063 9040:0.072374382 9051:0.035592012 9073:0.080426251 9136:0.084763283 9202:0.020436271 9271:0.1981045 9286:0.081817821 9346:0.056698574 9438:0.02578953 9541:0.37141065 9639:0.0088559974 9673:0.043288742 9693:0.03230822 
1.488322552294156 27:0.073384162 103:0.073384162 120:0.016235962 277:0.11056135 282:0.03027241 289:0.090551967 494:0.090551967 511:0.031462222 666:0.056690617 719:0.21722344 729:0.13341372 750:0.011316975 946:0.033861349 961:0.33924898 983:0.049925873 1079:0.11508748 1117:0.024535512 1172:0.14206919 1175:0.15198942 1188:0.058396863 1231:0.013341655 1285:0.074250473 1352:0.11508748 1479:0.058396863 1507:0.12161748 1513:0.018463654 1549:0.024535512 1660:0.056690617 1903:0.058396863 1933:0.023168708 1942:0.01467582 1954:0.03027241 2021:0.13453005 2028:0.045185974 2292:0.090551967 2378:0.056690617 2450:0.043494099 2457:0.039246371 2512:0.025071037 3051:0.034897808 3111:0.090178408 3133:0.063802975 3186:0.10904033 3210:0.014489277 3237:0.086689348 3537:0.058396863 3559:0.0198249 3563:0.090551967 3626:0.0198249 3633:0.090551967 3791:0.014036451 3957:0.062359676 3985:0.074250473 4145:0.086689348 4151:0.099127578 4208:0.042711285 4288:0.043815521 4306:0.024535512 4436:0.16745954 4480:0.033861349 4525:0.015440096 4614:0.082396741 4744:0.0062724226 4773:0.16948668 4921:0.062359676 4949:0.20829656 5285:0.056690617 5722:0.029577923 5744:0.099607161 6002:0.11508748 6165:0.094075381 6527:0.050297232 6698:0.0252284 6774:0.13453005 6905:0.14206919 6912:0.057060747 6989:0.033861349 7322:0.086689348 7354:0.12141455 7358:0.17172677 7371:0.0048825198 7385:0.047993814 7417:0.04397807 7431:0.071566994 7442:0.13453005 7507:0.047993814 7539:0.074250473 7563:0.047993814 7687:0.04063362 7701:0.04397807 7792:0.03027241 7849:0.017236051 7950:0.058396863 7976:0.012766641 8135:0.150766 8137:0.016235962 8149:0.059089752 8151:0.16480245 8173:0.28270747 8291:0.0083847309 8293:0.024535512 8303:0.13453005 8308:0.11415563 8322:0.066931014 8352:0.092039545 8616:0.1211872 8618:0.058396863 8625:0.10504125 8711:0.090551967 8897:0.056690617 9046:0.0095367449 9073:0.076515522 9167:0.024535512 9222:0.093209067 9227:0.011230328 9351:0.039982137 9373:0.056690617 9439:0.016235962 9635:0.033861349 9676:0.031711642 9727:0.021518484 9743:0.059657955 9802:0.077839424 9893:0.021518484 
1.253457590183499 3:0.064332882 27:0.092355039 212:0.044901937 276:0.036108431 309:0.067886291 443:0.029788028 497:0.015654504 509:0.060400904 703:0.071345966 726:0.017665078 745:0.042615001 935:0.015654504 1043:0.21263638 1052:0.13606031 1135:0.073796056 1432:0.097962048 1500:0.11396097 1703:0.071345966 1726:0.097962048 1766:0.14483928 1936:0.042735834 2014:0.20740631 2094:0.12323334 2151:0.23719433 2156:0.018665417 2216:0.11396097 2329:0.010603457 2607:0.073248064 2830:0.12994831 3133:0.08029697 3300:0.071795028 3305:0.042615001 3343:0.062567007 3464:0.10898115 3933:0.015654504 3972:0.029788028 4077:0.11839524 4129:0.015654504 4135:0.038098266 4213:0.024468741 4313:0.024468741 4637:0.071345966 4744:0.0078939357 4997:0.054737957 5040:0.12795994 5108:0.11023598 5177:0.28424358 5275:0.17812229 5334:0.024468741 5362:0.067886291 5563:0.020433194 5615:0.069571436 5620:0.060921557 5687:0.067886291 5935:0.055142472 6094:0.21075028 6097:0.062567007 6106:0.05083031 6128:0.043728113 6588:0.23719433 7242:0.073493304 7295:0.065972609 7371:0.0055861116 7431:0.10507945 7486:0.20203294 7556:0.010079178 7585:0.024949927 7620:0.067886291 7772:0.042615001 8036:0.017665078 8256:0.071345966 8291:0.0087935879 8357:0.042735834 8457:0.15941792 8466:0.060921557 8467:0.0474531 8616:0.16175924 8766:0.030406649 8903:0.071345966 8934:0.024949927 9167:0.030878301 9296:0.44340027 9346:0.067886291 9547:0.038098266 9576:0.014133532 9676:0.046561155 9868:0.033652403 9928:0.11396097 
1.894443357169744 72:0.089638014 94:0.028075229 155:0.029581887 191:0.028075229 200:0.019100386 238:0.084307411 262:0.061161516 266:0.036463239 357:0.075548699 408:0.035412913 434:0.010847143 1002:0.12500359 1081:0.005299075 1099:0.26778934 1100:0.095421695 1151:0.021116292 1172:0.11779285 1217:0.081187473 1258:0.035412913 1342:0.030627522 1438:0.081187473 1488:0.0072194136 1503:0.007907136 1507:0.091668974 1574:0.05290052 1666:0.060844506 1672:0.041219827 1684:0.047003507 1746:0.016700339 1770:0.075681446 1805:0.047003507 1933:0.016120041 1942:0.013073124 2004:0.062087086 2066:0.10502627 2260:0.019977316 2270:0.036061961 2424:0.02893458 2512:0.020786978 2604:0.050715648 2607:0.048256625 2669:0.064538468 2716:0.064538468 2722:0.075078731 2731:0.05290052 2865:0.12272432 2890:0.020342962 2928:0.044724232 3042:0.029581887 3186:0.082188973 3280:0.17082547 3399:0.020342962 3464:0.071797972 3510:0.01836477 3515:0.075078731 3579:0.16479636 3672:0.095421695 3689:0.04841819 3875:0.041219827 4014:0.081187473 4053:0.04841819 4155:0.089717632 4279:0.21209571 4356:0.028075229 4436:0.13884458 4503:0.01962468 4548:0.11154197 4561:0.04841819 4582:0.017841474 4747:0.04252334 4770:0.030627522 4977:0.0093113251 4997:0.036061961 5020:0.095421695 5075:0.01962468 5130:0.088540338 5177:0.18726278 5178:0.075078731 5211:0.020342962 5332:0.075078731 5334:0.016120273 5361:0.089638014 5535:0.020342962 5551:0.016146222 5600:0.04841819 5672:0.029581887 5721:0.075078731 5775:0.047003507 6004:0.025748608 6037:0.036463239 6151:0.16006629 6280:0.15626621 6284:0.047003507 6298:0.036463239 6380:0.071876147 6445:0.099951373 6633:0.19373096 6749:0.011637946 6812:0.047003507 6816:0.013073124 6819:0.04879007 6872:0.089717632 6873:0.0066402723 6955:0.075078731 7258:0.033150117 7289:0.041219827 7371:0.0040147543 7431:0.05933785 7509:0.12500359 7513:0.095421695 7547:0.041219827 7556:0.0066402723 7642:0.047003507 7795:0.012991645 7910:0.038632269 7911:0.03126262 7960:0.30614837 7976:0.018283383 8037:0.13664153 8113:0.059533156 8142:0.028089391 8149:0.04899268 8186:0.047003507 8279:0.04841819 8291:0.010533295 8403:0.0057176616 8558:0.041219827 8647:0.028075229 8763:0.069374659 8766:0.01639001 8774:0.031764597 8812:0.013461612 8893:0.047003507 9064:0.11154197 9070:0.12500359 9093:0.064538468 9136:0.066861869 9156:0.075078731 9202:0.016120273 9223:0.075078731 9272:0.070405603 9280:0.022819039 9293:0.045125507 9339:0.12412195 9419:0.028075229 9424:0.010313358 9455:0.31867304 9462:0.0063513764 9623:0.028154835 9628:0.047003507 9676:0.026292856 9788:0.064538468 9818:0.036463239 9847:0.047003507 
1.815958244954605 61:0.13780461 212:0.036393623 338:0.055022753 420:0.058683634 434:0.014827649 455:0.030879157 621:0.030762879 745:0.03454003 914:0.067789461 1002:0.1537878 1081:0.0065192777 1088:0.030006622 1143:0.0507114 1229:0.085349364 1381:0.044859525 1503:0.0097278895 1582:0.03454003 1810:0.015983195 1933:0.018179294 2156:0.012967349 2197:0.092366896 2251:0.079399559 2300:0.036524415 2339:0.092366896 2450:0.04436585 2457:0.036393623 2500:0.060019658 2512:0.028415041 2516:0.03025599 2559:0.038461375 2855:0.02022225 2861:0.05956731 2911:0.049843917 2915:0.10045681 2928:0.055022753 3051:0.035597264 3077:0.014779686 3102:0.057826869 3111:0.091985845 3159:0.10111439 3186:0.11234932 3193:0.16810559 3210:0.016421873 3404:0.03454003 3492:0.033189597 3510:0.022593572 3570:0.036393623 3576:0.11120062 3630:0.15652557 3642:0.094962847 3755:0.05956731 4333:0.079399559 4346:0.05956731 4503:0.024143597 4535:0.030879157 4663:0.06206592 4667:0.057826869 4744:0.0063981409 4747:0.052315071 5040:0.077784943 5145:0.19584322 5177:0.25598139 5296:0.057826869 5362:0.055022753 5620:0.049377744 5665:0.057826869 6131:0.014317784 6151:0.18051395 6496:0.1775685 6502:0.0084056643 6539:0.088426858 6549:0.092366896 6578:0.05956731 6656:0.21247144 6749:0.014317784 6795:0.021949777 6873:0.0081693086 6883:0.067615198 7096:0.12169498 7202:0.05956731 7278:0.1537878 7371:0.0055337557 7373:0.035597264 7396:0.019832243 7486:0.1637504 7556:0.00907701 7581:0.010494366 7688:0.085349364 7795:0.015983195 7911:0.038461375 7929:0.11027871 8064:0.057826869 8081:0.021349749 8149:0.060274082 8281:0.062393798 8291:0.0079192465 8357:0.034637968 8467:0.042734865 8517:0.11027871 8616:0.11237833 8625:0.10714659 8766:0.022591249 8937:0.0091058321 9040:0.070235236 9053:0.03454003 9073:0.078049119 9075:0.057826869 9222:0.09507726 9279:0.019832243 9296:0.35938184 9455:0.35938184 9538:0.18079375 9571:0.061420902 9591:0.057826869 9623:0.038486629 9676:0.032347238 9679:0.025027277 9775:0.016561379 9802:0.079399559 
0.2793648702413842 61:0.12228566 68:0.021424654 130:0.081964942 155:0.032295133 295:0.039170395 357:0.08247801 424:0.081964942 434:0.011842042 448:0.037419528 449:0.072009982 469:0.0086323776 521:0.012705378 567:0.081964942 594:0.032839588 620:0.017598823 629:0.039807642 731:0.014696309 790:0.047449938 885:0.017598823 983:0.045191413 1099:0.17865891 1175:0.169737 1231:0.013801678 1348:0.081964942 1380:0.017598823 1474:0.064011696 1545:0.030369553 1660:0.051314662 1690:0.045634112 1760:0.15568881 1794:0.097859603 1810:0.015196326 1829:0.039369563 1933:0.018436596 2005:0.052859102 2050:0.032295133 2219:0.01671275 2260:0.023367462 2264:0.23131473 2354:0.048214824 2378:0.051314662 2384:0.021424654 2392:0.048214824 2512:0.022693556 2516:0.025889811 2545:0.081964942 2607:0.052682715 2675:0.051314662 2731:0.057752549 2851:0.030650283 2865:0.13398057 2909:0.097859603 3036:0.056259805 3075:0.097859603 3077:0.013115263 3234:0.1091189 3237:0.078468614 3324:0.017598823 3420:0.027401683 3485:0.022208815 3492:0.029451929 3642:0.07584169 3784:0.081964942 3905:0.13722917 4052:0.020852272 4293:0.038522388 4313:0.01885588 4462:0.051429145 4563:0.011259299 4744:0.0056776107 4961:0.0093125356 4997:0.039369563 5021:0.10333028 5039:0.022208815 5064:0.097859603 5177:0.20443849 5252:0.022208815 5275:0.12811213 5474:0.10417376 5551:0.017627152 5631:0.024781843 5647:0.017598823 5731:0.058138876 5790:0.040900997 5828:0.070457929 5842:0.012705378 5868:0.28635018 5888:0.12737535 5912:0.011842042 5922:0.081964942 5932:0.051314662 5950:0.10417376 5999:0.12177259 6038:0.045000504 6047:0.032295133 6135:0.014696309 6151:0.16018525 6163:0.081964942 6223:0.021424654 6247:0.081964942 6408:0.13047062 6502:0.0065387818 6576:0.052859102 6718:0.081964942 6805:0.032295133 6836:0.054503952 6850:0.054503952 6873:0.007767125 6905:0.13778227 6912:0.051649688 7023:0.060155312 7220:0.030650283 7334:0.052859102 7354:0.099909854 7358:0.12953498 7371:0.004304719 7373:0.031588456 7437:0.13973735 7473:0.12177259 7507:0.043442563 7543:0.030650283 7556:0.0072493172 7581:0.0093125356 7607:0.093026336 7730:0.029358945 7772:0.030650283 7795:0.017222501 7971:0.011259299 7976:0.014032264 8004:0.14917428 8016:0.05207494 8132:0.051314662 8139:0.051314662 8149:0.053486281 8267:0.051314662 8281:0.055367282 8291:0.010842297 8297:0.056259805 8352:0.075737693 8403:0.0061306181 8446:0.051314662 8604:0.081964942 8616:0.099722776 8786:0.081964942 9040:0.062325648 9136:0.072994431 9175:0.035128218 9293:0.04926441 9296:0.31890987 9329:0.027401683 9338:0.056259805 9438:0.022208815 9462:0.0069339239 9485:0.081964942 9510:0.05497999 9518:0.051314662 9667:0.056634748 9693:0.031797058 9713:0.023964669 9716:0.10417376 9802:0.070457929 9868:0.025932912 9886:0.030650283 
0.8823030581048229 7:0.085539035 23:0.051445705 91:0.084541017 154:0.064649019 200:0.020294704 212:0.031431596 238:0.082114102 263:0.075475629 288:0.026668989 352:0.082114102 392:0.082877301 411:0.049942557 448:0.033991039 455:0.026668989 468:0.017128248 594:0.029830727 601:0.010958237 620:0.017128248 621:0.030656035 674:0.049942557 681:0.082114102 814:0.05304657 868:0.010992035 903:0.12763316 910:0.026668989 938:0.020851779 983:0.047366345 1066:0.11851652 1070:0.017128248 1099:0.17388176 1151:0.02243666 1172:0.12515825 1247:0.092899687 1314:0.071042637 1382:0.023323876 1447:0.023323876 1555:0.13281985 1559:0.051445705 1574:0.06053202 1641:0.029830727 1716:0.02909078 1766:0.10138826 1790:0.05378429 1796:0.049942557 1799:0.05798873 1896:0.02234226 1933:0.020531641 2066:0.11159339 2149:0.013803992 2156:0.011199337 2167:0.0055002482 2178:0.079773284 2276:0.049942557 2277:0.049942557 2335:0.014303344 2363:0.029830727 2366:0.082877301 2500:0.051836378 2516:0.027135816 2562:0.05378429 2588:0.049942557 2629:0.065969292 2635:0.02727781 2812:0.0090635281 2865:0.14042867 2894:0.037627225 2909:0.095242942 3046:0.035772607 3077:0.012764574 3098:0.049942557 3111:0.079444187 3125:0.064038612 3156:0.021614974 3164:0.014303344 3186:0.1007632 3222:0.049942557 3300:0.050256899 3308:0.038743222 3343:0.043797237 3443:0.014303344 3510:0.019513089 3559:0.017465081 3576:0.096039152 3678:0.051445705 3791:0.012365649 4060:0.1068412 4115:0.10186004 4133:0.10620117 4135:0.026668989 4260:0.082877301 4469:0.038928948 4514:0.079773284 4563:0.010958237 4649:0.14417947 4744:0.0063759192 4746:0.10918735 4747:0.045182253 4773:0.16079769 4965:0.04008282 4977:0.011415631 5093:0.079773284 5108:0.089037427 5131:0.017845338 5207:0.051445705 5223:0.029830727 5273:0.3532923 5324:0.021614974 5375:0.1451855 5474:0.10138826 5571:0.051445705 5618:0.029830727 5620:0.042645416 5631:0.024119202 5665:0.049942557 5695:0.012365649 5731:0.056584298 5740:0.085586284 5790:0.039807343 5831:0.092046097 5868:0.26011392 5912:0.011525398 5935:0.038600023 5985:0.05304657 6024:0.014303344 6055:0.029830727 6128:0.030609911 6135:0.014303344 6141:0.021614974 6210:0.038743222 6223:0.020851779 6274:0.047520765 6393:0.13449261 6426:0.026668989 6497:0.049942557 6540:0.049942557 6618:0.049942557 6642:0.079773284 6698:0.022225387 6873:0.0070554778 6912:0.050268631 6948:0.021614974 6967:0.014303344 6980:0.11851652 7243:0.12763316 7273:0.038743222 7279:0.043797237 7354:0.097238362 7358:0.16486252 7371:0.0039103075 7389:0.017465081 7613:0.038743222 7627:0.038743222 7715:0.017128248 7778:0.049942557 7849:0.013803992 7960:0.19878915 8036:0.012365649 8081:0.016594968 8149:0.052056112 8274:0.038743222 8281:0.058031953 8352:0.073712543 8466:0.042645416 8601:0.020415305 8625:0.092537861 8716:0.089978413 8792:0.073848868 8896:0.055403061 8897:0.049942557 9018:0.12515825 9034:0.082877301 9040:0.060659125 9152:0.032216488 9203:0.079773284 9209:0.049942557 9227:0.010654588 9280:0.022225387 9351:0.048770221 9424:0.010958237 9439:0.0154036 9499:0.076370444 9540:0.049942557 9587:0.02511802 9639:0.0074224759 9646:0.029830727 9713:0.023323876 9716:0.10138826 9732:0.058546817 9774:0.054755479 9787:0.10138826 9893:0.018957071 9908:0.025329396 
0.3919979960386117 23:0.061855009 49:0.017197422 91:0.077729827 212:0.03779133 288:0.032065079 407:0.060047721 434:0.013857398 469:0.010101492 601:0.013175479 779:0.039938495 868:0.013216117 973:0.14249665 1043:0.2386181 1049:0.006990234 1055:0.060047721 1081:0.0067696525 1151:0.026976398 1231:0.014131721 1291:0.060047721 1503:0.010101492 1545:0.033168841 1549:0.025988458 1574:0.078844795 1672:0.052658985 1776:0.025988458 1802:0.011895366 1811:0.11189999 1933:0.028316208 1942:0.016487006 2004:0.07931724 2102:0.095914276 2149:0.022129377 2207:0.060047721 2219:0.019557035 2221:0.061855009 2366:0.099646343 2512:0.030981643 2534:0.046582367 2606:0.03586655 2617:0.060047721 2645:0.03779133 2731:0.09010834 2830:0.10936988 2865:0.15678226 2897:0.060047721 2925:0.15969407 2942:0.061855009 3133:0.067581257 3155:0.091822922 3186:0.15749656 3210:0.015347303 3748:0.03779133 4114:0.14249665 4133:0.12768947 4156:0.025988458 4288:0.054145219 4293:0.052591434 4296:0.032065079 4464:0.039378742 4469:0.046805663 4565:0.095914276 4629:0.0066131453 4725:0.061855009 4871:0.010897403 4899:0.022792766 4997:0.046069732 5008:0.095914276 5177:0.23923117 5222:0.039938495 5615:0.078072267 5661:0.060047721 5695:0.014867661 5912:0.013857398 6043:0.14249665 6094:0.17737616 6274:0.095226524 6280:0.19963258 6527:0.04843249 6536:0.11451399 6663:0.061855009 6670:0.028043131 6745:0.07567515 6873:0.0084830539 6905:0.15048224 6933:0.082448918 7023:0.070392933 7170:0.095914276 7351:0.14221985 7373:0.043125111 7423:0.025988458 7431:0.088439217 7437:0.16351876 7509:0.15969407 7698:0.057135915 7765:0.095914276 7784:0.030319865 7849:0.016597033 7937:0.10371828 7976:0.018030206 8004:0.17456174 8081:0.019952722 8253:0.052658985 8275:0.11189999 8291:0.01233508 8467:0.039938495 8601:0.026591557 8792:0.082448918 9007:0.095914276 9121:0.025988458 9141:0.095914276 9199:0.15969407 9299:0.057135915 9351:0.042349799 9366:0.087800292 9455:0.37318404 9484:0.061855009 9816:0.1877372 
0.0410945636253487 3:0.034327621 33:0.044414714 36:0.044414714 55:0.026528944 61:0.10584271 73:0.022821333 85:0.029611581 113:0.03445497 288:0.023717158 325:0.092894714 352:0.089253247 391:0.048293233 408:0.037180549 413:0.015531976 506:0.015232425 521:0.010996969 621:0.023627849 726:0.011607912 747:0.019222543 779:0.029540785 792:0.015232425 837:0.019222543 910:0.026352399 936:0.018543819 983:0.045633955 1052:0.084701069 1098:0.070943661 1100:0.09016621 1151:0.019953281 1170:0.015232425 1231:0.011033327 1322:0.084701069 1323:0.026528944 1343:0.048694922 1366:0.060983916 1474:0.055404466 1555:0.11811883 1643:0.10539863 1663:0.044414714 1666:0.057493406 1690:0.04388666 1726:0.060983916 1760:0.13275799 1836:0.026528944 1896:0.019869331 1898:0.045751487 1933:0.017065711 1942:0.010452625 1974:0.012720193 2006:0.09016621 2049:0.044414714 2066:0.099241797 2077:0.16406624 2086:0.11811883 2156:0.010513069 2184:0.13628888 2195:0.026528944 2270:0.034075797 2384:0.018543819 2388:0.060983916 2434:0.028002773 2450:0.034075797 2456:0.044414714 2516:0.023238528 2548:0.061403908 2564:0.060983916 2603:0.044414714 2650:0.026528944 2652:0.054000134 2676:0.012720193 2731:0.052763995 2812:0.0080603409 2822:0.086620167 2859:0.026528944 2882:0.047175167 2957:0.045751487 3046:0.029540785 3112:0.044608809 3118:0.058667548 3156:0.019222543 3186:0.081976854 3258:0.10029423 3280:0.17038461 3324:0.01607867 3414:0.074884975 3437:0.026528944 3446:0.070943661 3467:0.143462 3492:0.025491726 3559:0.017257751 3576:0.10913392 3626:0.016394862 3642:0.065643764 3645:0.15092961 3741:0.044414714 3801:0.070943661 3860:0.095175434 3905:0.12537558 3985:0.058172125 4065:0.045751487 4101:0.012720193 4115:0.090585774 4129:0.0097453351 4133:0.094446406 4143:0.044414714 4213:0.015232425 4275:0.044414714 4288:0.034327621 4296:0.023717158 4349:0.044414714 4403:0.081893456 4439:0.066979622 4465:0.14377167 4469:0.036543474 4535:0.023717158 4649:0.11729857 4663:0.04767058 4747:0.040181304 4755:0.050321324 4831:0.053376731 4965:0.035646294 4973:0.084701069 5040:0.07302019 5092:0.015531976 5096:0.073704111 5177:0.17694901 5193:0.044414714 5252:0.019222543 5334:0.015232425 5362:0.042260977 5375:0.1291158 5451:0.017795429 5563:0.01342687 5573:0.046882199 5595:0.020290462 5631:0.021449594 5695:0.011607912 5731:0.053116946 5740:0.06184202 5744:0.070943661 5790:0.03540131 5804:0.078826288 5905:0.030909245 5912:0.010249721 5935:0.034327621 5950:0.095175434 6024:0.012720193 6128:0.027221882 6141:0.019222543 6280:0.14765962 6284:0.044414714 6428:0.037601132 6536:0.089406684 6672:0.049796008 6784:0.074884975 6795:0.017795429 6812:0.044414714 6836:0.047175167 6850:0.047175167 6873:0.0066231351 7040:0.015232425 7158:0.026528944 7250:0.010996969 7295:0.043351304 7354:0.10088824 7358:0.12457474 7361:0.11811883 7371:0.0036706935 7417:0.036369134 7437:0.12094779 7539:0.058172125 7541:0.044414714 7556:0.0069717217 7607:0.084990896 7620:0.042260977 7649:0.03103819 7671:0.09016621 7727:0.070943661 7730:0.02503478 7769:0.019222543 7784:0.019222543 7795:0.012958116 7812:0.018543819 7874:0.045751487 7937:0.076715952 7950:0.048293233 8004:0.1291158 8052:0.018543819 8081:0.01475817 8113:0.044199792 8194:0.01607867 8233:0.070943661 8248:0.028082171 8253:0.038949584 8281:0.047922409 8291:0.010340225 8308:0.089436137 8320:0.026528944 8345:0.029476605 8395:0.070943661 8403:0.0049525233 8440:0.044414714 8544:0.070943661 8706:0.061003671 8763:0.065553745 8766:0.014196696 8774:0.036685139 8786:0.074884975 8812:0.012720193 8836:0.019574032 8998:0.09016621 9009:0.010996969 9086:0.077082351 9136:0.063179353 9147:0.13124314 9223:0.070943661 9296:0.27602817 9327:0.045751487 9338:0.048694922 9484:0.048293233 9568:0.070943661 9592:0.044414714 9623:0.026604164 9636:0.044414714 9661:0.044414714 9693:0.024081328 9716:0.10018467 9743:0.038949584 9764:0.048293233 9816:0.13886112 9818:0.03445497 9825:0.044414714 9881:0.044414714 
1.716294477472032 23:0.05045898 42:0.007713476 93:0.09349916 98:0.12350859 144:0.048984665 238:0.080539166 384:0.022876527 391:0.05045898 469:0.0082404158 497:0.010748059 509:0.041470014 511:0.027185562 552:0.048984665 569:0.022525426 629:0.038000135 726:0.012886506 729:0.11527881 750:0.0088896909 837:0.021200403 868:0.01078121 874:0.067258716 911:0.014029009 1048:0.063409058 1066:0.11624338 1151:0.02338172 1170:0.016799731 1217:0.095185644 1322:0.093416194 1328:0.048984665 1330:0.07824324 1342:0.029258578 1348:0.07824324 1432:0.067258716 1474:0.061105184 1488:0.0063662133 1507:0.095532749 1574:0.055130237 1611:0.010748059 1663:0.048984665 1672:0.042957214 1687:0.085572861 1690:0.043562051 1707:0.038000135 1754:0.016799731 1803:0.05045898 1829:0.039930817 1925:0.067372123 1933:0.018286942 2004:0.064704014 2023:0.07824324 2048:0.099443645 2049:0.048984665 2105:0.081287724 2110:0.048984665 2167:0.0053947546 2336:0.042957214 2388:0.067258716 2397:0.029258578 2458:0.048984665 2516:0.024508305 2540:0.07824324 2607:0.050290605 2650:0.029258578 2731:0.055130237 2822:0.10150354 2830:0.089219819 2886:0.029258578 2925:0.13841441 2962:0.048984665 2964:0.05045898 3061:0.048984665 3111:0.07792046 3125:0.06281036 3133:0.055130237 3155:0.074905673 3156:0.021200403 3164:0.014029009 3186:0.091006488 3258:0.11134149 3280:0.17802564 3295:0.11624338 3436:0.048984665 3492:0.0298718 3507:0.27715276 3510:0.019138831 3585:0.026396305 3610:0.048984665 3615:0.029258578 3626:0.017130102 3642:0.072398023 3719:0.029258578 3772:0.10416425 3873:0.05045898 3875:0.042957214 3933:0.010748059 3982:0.04929298 4065:0.05045898 4080:0.012128477 4107:0.029258578 4135:0.026157481 4205:0.064704014 4239:0.048984665 4261:0.053705274 4278:0.048984665 4326:0.048984665 4329:0.048984665 4427:0.012886506 4439:0.069983372 4465:0.1783853 4469:0.038182295 4488:0.016799731 4629:0.0053947546 4635:0.05045898 4681:0.11624338 4698:0.017804885 4749:0.048984665 4819:0.029258578 5040:0.065890992 5064:0.093416194 5075:0.020451844 5131:0.017503067 5247:0.24426072 5270:0.031087238 5315:0.018200733 5348:0.032033929 5597:0.01490582 5778:0.022876527 5836:0.0574239 5917:0.086368204 5985:0.052029149 6050:0.077201323 6079:0.048984665 6101:0.07824324 6106:0.034899041 6107:0.023850453 6165:0.081287724 6210:0.038000135 6301:0.029258578 6306:0.07824324 6423:0.038000135 6429:0.038000135 6445:0.11067451 6664:0.063214167 6673:0.030828741 6711:0.048984665 6795:0.018593478 6796:0.021200403 6816:0.011528125 6873:0.0077851745 7023:0.0574239 7298:0.0059749428 7354:0.11921667 7371:0.0040750148 7380:0.017849713 7419:0.029258578 7547:0.048326864 7556:0.0073526645 7603:0.048984665 7688:0.072298749 7713:0.07824324 7769:0.021200403 7829:0.067258716 7877:0.064157613 7971:0.010748059 7976:0.013099634 7981:0.093416194 8036:0.012128477 8074:0.059495692 8187:0.07568574 8253:0.042957214 8278:0.099443645 8291:0.010188274 8360:0.048984665 8403:0.0058034827 8467:0.032580317 8484:0.016799731 8518:0.037581949 8526:0.029258578 8542:0.099443645 8633:0.09349916 8673:0.048984665 8706:0.06373943 8716:0.088252644 8766:0.019571791 8812:0.014029009 8856:0.030828741 9018:0.12275773 9064:0.11624338 9086:0.09564025 9222:0.080539166 9227:0.0097037905 9237:0.0066190819 9293:0.052905952 9296:0.32345629 9445:0.076817418 9476:0.047500166 9499:0.074905673 9534:0.048984665 9544:0.11624338 9588:0.042957214 9621:0.099443645 9676:0.029113645 9693:0.031538954 9716:0.10565887 9868:0.023105043 
2.441929016285344 68:0.018589892 200:0.018093244 258:0.045865158 287:0.10566049 288:0.023776084 301:0.044525066 309:0.042365977 325:0.093125514 389:0.026594855 413:0.015570564 420:0.045184747 449:0.058316654 462:0.099141991 485:0.026594855 519:0.044525066 521:0.011024291 729:0.10478373 983:0.039212 1081:0.0050196605 1098:0.071119916 1170:0.01527027 1175:0.10852107 1217:0.076906549 1314:0.063336323 1361:0.090390219 1382:0.02079383 1438:0.076906549 1498:0.023776084 1574:0.050111139 1587:0.044525066 1643:0.10566049 1690:0.039596127 1805:0.044525066 1810:0.01230661 1817:0.073887228 1933:0.01749693 1936:0.026670262 2004:0.058813308 2053:0.11841229 2086:0.11841229 2110:0.044525066 2112:0.012751796 2150:0.034540572 2173:0.023393059 2253:0.044525066 2300:0.028122775 2374:0.045865158 2450:0.034160457 2500:0.04621345 2503:0.10566049 2512:0.022152266 2564:0.061135427 2604:0.054046653 2629:0.058813308 2637:0.044525066 2645:0.028022069 2733:0.061135427 2787:0.034540572 2911:0.034540572 2928:0.042365977 3044:0.071119916 3111:0.07082652 3118:0.058813308 3133:0.068902811 3159:0.077855235 3186:0.087587138 3210:0.011379943 3220:0.14802647 3238:0.12419892 3299:0.044525066 3300:0.056006633 3443:0.012751796 3485:0.019270301 3576:0.085621359 3638:0.071119916 3642:0.065806853 3740:0.044525066 3784:0.071119916 3809:0.044525066 4080:0.011024291 4109:0.045865158 4205:0.058813308 4208:0.03354563 4243:0.02079383 4269:0.044525066 4348:0.044525066 4359:0.041171695 4504:0.084911509 4525:0.011024291 4614:0.049780592 4755:0.050446344 4771:0.048815904 4773:0.13311559 4821:0.080009903 4906:0.044525066 4973:0.084911509 5009:0.047661719 5021:0.089658337 5040:0.059892224 5177:0.17738863 5315:0.015570564 5348:0.029117534 5451:0.016900712 5514:0.044525066 5516:0.071119916 5551:0.01529485 5626:0.044525066 5790:0.035489264 5888:0.12433716 5905:0.030986038 5999:0.10566049 6102:0.026594855 6112:0.026594855 6128:0.030700705 6135:0.012751796 6165:0.073887228 6194:0.019270301 6250:0.084911509 6298:0.034540572 6341:0.044525066 6375:0.044525066 6390:0.045865158 6456:0.026594855 6496:0.076906549 6497:0.044525066 6527:0.03591243 6543:0.01527027 6672:0.047292371 6698:0.019814498 6750:0.044525066 6952:0.071119916 6989:0.026594855 7020:0.02079383 7064:0.058316654 7172:0.03354563 7258:0.035327414 7354:0.086690478 7371:0.003921906 7423:0.019270301 7556:0.0062901386 7585:0.015570564 7613:0.034540572 7632:0.045865158 7715:0.01527027 7762:0.044525066 7816:0.240543 7830:0.01527027 7831:0.0057866279 7835:0.071119916 7930:0.044525066 7932:0.068086205 7976:0.013787092 8042:0.14802647 8081:0.014794836 8135:0.11841229 8149:0.046409351 8233:0.071119916 8265:0.028022069 8280:0.041171695 8291:0.0054878375 8297:0.048815904 8333:0.08312312 8401:0.22651401 8446:0.044525066 8459:0.044525066 8467:0.029614179 8478:0.061135427 8517:0.084911509 8518:0.034160457 8588:0.044525066 8669:0.061135427 8763:0.065716616 8766:0.014231968 8774:0.030089686 8792:0.061135427 8879:0.068086205 9136:0.063336323 9209:0.044525066 9296:0.27671397 9329:0.023776084 9339:0.099488351 9365:0.026594855 9417:0.090390219 9436:0.044525066 9455:0.31130317 9477:0.11841229 9524:0.099488351 9639:0.0066173263 9676:0.028019771 9716:0.10168899 9727:0.019013301 9741:0.02079383 9774:0.048815904 9777:0.065606236 9816:0.15660687 9821:0.061135427 9868:0.021001542 9880:0.045865158 9908:0.022581803 
0.05767955033776089 46:0.092229269 48:0.025906176 61:0.12215042 72:0.082712707 73:0.020057042 85:0.027394531 89:0.036704881 130:0.069278253 144:0.043372082 200:0.017624716 413:0.015167362 473:0.023160398 475:0.059552316 542:0.028261283 590:0.043372082 679:0.043372082 719:0.16619034 744:0.088049548 745:0.025906176 772:0.043372082 805:0.043372082 878:0.082712707 938:0.019754731 983:0.041669016 1098:0.069278253 1099:0.17846133 1151:0.021256229 1175:0.11532098 1217:0.074915043 1291:0.043372082 1314:0.067304962 1347:0.038570775 1361:0.088049548 1362:0.081874299 1447:0.020255371 1474:0.059022376 1479:0.044677469 1545:0.028313571 1549:0.018771293 1574:0.0488135 1603:0.043372082 1746:0.015410094 1760:0.12281827 1807:0.025906176 1817:0.071973904 1820:0.043372082 1933:0.024791047 1955:0.025906176 2028:0.037713012 2066:0.096912092 2085:0.088049548 2105:0.085060064 2112:0.012421586 2150:0.03364614 2156:0.010610121 2190:0.047314995 2217:0.082712707 2260:0.020109704 2300:0.029884943 2424:0.026699135 2512:0.022668459 2516:0.022280403 2584:0.069278253 2591:0.092229269 2607:0.052624453 2676:0.012421586 2731:0.0488135 2733:0.059552316 2830:0.12208651 2865:0.12353761 2882:0.046067725 2912:0.15728997 2915:0.045207574 2942:0.044677469 3051:0.02912633 3111:0.068992452 3186:0.09652257 3233:0.056806536 3237:0.066323096 3258:0.092785094 3272:0.032676961 3324:0.014874843 3390:0.088049548 3459:0.10061375 3502:0.069278253 3510:0.016945934 3570:0.027296432 3576:0.083404177 3584:0.088049548 3593:0.1950148 3642:0.069930297 3807:0.069278253 3885:0.088049548 3939:0.088049548 3996:0.047314995 4014:0.074915043 4052:0.017624716 4053:0.044677469 4060:0.092785094 4101:0.012421586 4109:0.044677469 4139:0.025906176 4144:0.059552316 4205:0.057290325 4288:0.033521778 4306:0.018771293 4310:0.025906176 4436:0.15141175 4469:0.039954228 4503:0.018108504 4547:0.075576281 4582:0.016463066 4614:0.057308148 4649:0.1085163 4663:0.046551509 4768:0.049140028 4770:0.025906176 4871:0.0078711242 4885:0.069834403 4899:0.016463066 4925:0.046067725 4961:0.0078711242 4997:0.036300947 5009:0.0412689 5039:0.018771293 5075:0.018108504 5092:0.015167362 5096:0.071973904 5130:0.081699835 5131:0.019724208 5177:0.18850377 5200:0.018771293 5275:0.10828269 5551:0.014898787 5561:0.075576281 5574:0.088049548 5576:0.13560135 5620:0.037034954 5647:0.014874843 5790:0.03457026 5888:0.10765994 5891:0.11534599 5912:0.010919028 5999:0.1029244 6004:0.023759307 6097:0.041492992 6106:0.030900362 6234:0.096054059 6404:0.025906176 6428:0.036718443 6447:0.088049548 6623:0.056806536 6690:0.02912633 6767:0.025906176 6805:0.027296432 6816:0.012063112 6836:0.046067725 6873:0.0077983234 6933:0.064966165 6948:0.018771293 7172:0.032676961 7205:0.050255701 7282:0.028443008 7289:0.044950736 7322:0.066323096 7354:0.084445613 7361:0.11534599 7371:0.0043220095 7396:0.014874843 7403:0.1029244 7413:0.088049548 7431:0.059731084 7432:0.082712707 7437:0.11810854 7473:0.11228116 7486:0.15631414 7499:0.043372082 7507:0.036718443 7509:0.11534599 7527:0.025906176 7543:0.025906176 7547:0.03803524 7585:0.015167362 7637:0.043372082 7688:0.06401487 7700:0.010381705 7711:0.025906176 7754:0.044677469 7833:0.025906176 7911:0.031469798 7963:0.0095165628 7976:0.010655265 7981:0.090232051 8036:0.010738815 8081:0.014411721 8113:0.043162199 8137:0.013550821 8142:0.025919244 8149:0.045207574 8187:0.06701379 8265:0.027296432 8279:0.044677469 8291:0.0087475562 8322:0.046551509 8333:0.085060064 8502:0.043372082 8517:0.082712707 8533:0.043372082 8625:0.080363517 8711:0.069278253 8722:0.027296432 8760:0.03364614 8766:0.025206233 8836:0.023047185 8956:0.03364614 9006:0.040105546 9018:0.10869234 9046:0.0079595365 9141:0.069278253 9237:0.0058606779 9280:0.019301398 9293:0.041639173 9414:0.069278253 9445:0.06401487 9462:0.0058606779 9541:0.15206443 9576:0.0093730313 9583:0.043372082 9587:0.020255371 9639:0.0064459693 9676:0.028672689 9693:0.023516017 9716:0.10405855 9741:0.020255371 9743:0.03803524 9762:0.043372082 9820:0.046067725 9868:0.020457704 9895:0.012421586 9908:0.021997044 9922:0.043372082 
0.08271316482971754 61:0.12400786 107:0.10564088 130:0.083119283 295:0.037073915 449:0.068155853 469:0.0087539504 475:0.071450213 601:0.011417868 621:0.029413137 719:0.19939332 731:0.014903283 745:0.033024565 920:0.022521592 938:0.02308428 983:0.04582786 1007:0.053603535 1048:0.067360648 1147:0.031081944 1160:0.10564088 1171:0.071450213 1192:0.11884599 1474:0.073027344 1666:0.071570688 1690:0.046276796 1696:0.09549988 1716:0.034099831 1746:0.016948122 1794:0.10544016 1829:0.042419267 1933:0.02249392 2101:0.091750586 2184:0.16072985 2375:0.052037341 2495:0.053603535 2516:0.024504133 2595:0.052037341 2597:0.083119283 2676:0.014903283 2812:0.0094436877 2861:0.053603535 2865:0.13586746 3061:0.052037341 3077:0.01329997 3111:0.082776387 3133:0.058565899 3155:0.079573722 3186:0.090990996 3258:0.11132254 3399:0.022521592 3459:0.11065566 3464:0.079487173 3559:0.018197633 3567:0.055271555 3576:0.12508426 3671:0.027767157 3748:0.032749958 3905:0.15655705 4014:0.089882239 4060:0.11132254 4080:0.012884312 4137:0.052037341 4205:0.068736305 4288:0.04273275 4293:0.043948023 4321:0.071450213 4359:0.048118194 4427:0.012884312 4429:0.045414301 4436:0.15371414 4464:0.036258456 4465:0.15958072 4473:0.02533679 4561:0.053603535 4582:0.019752205 4649:0.13019666 4698:0.015927974 4737:0.083119283 4782:0.088314238 4871:0.0094436877 4906:0.052037341 5040:0.069997254 5108:0.08542755 5119:0.022521592 5130:0.098022568 5156:0.083119283 5222:0.038937026 5246:0.10564088 5348:0.040410922 5361:0.0992378 5451:0.019752205 5615:0.053914495 5687:0.049513973 5868:0.27102411 5888:0.12916921 5935:0.040219063 5947:0.021726383 5981:0.022521592 6004:0.030287789 6097:0.045634266 6128:0.03388717 6194:0.022521592 6294:0.086353496 6404:0.031081944 6501:0.052037341 6527:0.044594805 6664:0.071103828 6682:0.017846673 6684:0.083119283 6688:0.12348756 6690:0.032033328 6715:0.055289673 6745:0.065580068 6796:0.022521592 6805:0.032749958 6819:0.049513973 6912:0.055650652 6938:0.018197633 6980:0.12348756 7020:0.02430217 7242:0.053603535 7354:0.10131693 7361:0.14704026 7371:0.004074321 7373:0.032033328 7432:0.0992378 7437:0.14170532 7509:0.13839084 7556:0.0073514124 7607:0.10023248 7701:0.040368266 7719:0.031081944 7779:0.083119283 7831:0.0080310017 7929:0.0992378 7963:0.011417868 8037:0.15127515 8291:0.0092197601 8307:0.052037341 8320:0.031081944 8358:0.052037341 8420:0.12348756 8526:0.033024565 8577:0.10564088 8616:0.10112721 8669:0.071450213 8676:0.022521592 8756:0.042891279 8816:0.017846673 8836:0.021726383 8997:0.055271555 9020:0.12348756 9034:0.097147683 9136:0.074022442 9152:0.031170074 9268:0.083119283 9271:0.17300155 9293:0.049958222 9524:0.11627406 9576:0.010308521 9587:0.02430217 9661:0.052037341 9693:0.02821426 9716:0.11224343 9771:0.052037341 9810:0.052037341 
0.7431140530108111 3:0.03224259 61:0.11184065 85:0.029642798 93:0.079627055 97:0.041717005 98:0.1113714 100:0.022276598 105:0.098996805 113:0.032362202 119:0.010329022 120:0.011947579 187:0.046931625 261:0.041717005 276:0.01781419 293:0.041717005 356:0.010329022 357:0.067051709 384:0.021917729 434:0.010830556 719:0.15984852 792:0.01430722 885:0.016095621 1081:0.0047030856 1158:0.12127341 1175:0.12709621 1229:0.061572067 1247:0.081063319 1314:0.066759623 1498:0.025061172 1545:0.025923839 1574:0.046950781 1587:0.041717005 1593:0.041717005 1690:0.037098918 1707:0.032362202 1716:0.024299518 1776:0.018054981 1829:0.036006818 1830:0.041717005 1896:0.018662483 1903:0.042972581 1933:0.021311487 1942:0.0098177411 2050:0.026254801 2052:0.041717005 2077:0.13869089 2137:0.022852652 2156:0.010524152 2184:0.12127341 2251:0.0572798 2261:0.066634598 2299:0.041717005 2300:0.032936444 2316:0.14673014 2339:0.066634598 2363:0.024917598 2384:0.017417484 2388:0.0572798 2424:0.025680296 2512:0.020755189 2516:0.022099874 2559:0.027746502 2584:0.066634598 2591:0.088709811 2604:0.067517463 2631:0.089500941 2635:0.021157637 2697:0.011947579 2716:0.0572798 2722:0.066634598 2787:0.032362202 2815:0.041717005 2855:0.014588575 2915:0.043482453 3077:0.014660585 3099:0.066634598 3111:0.07465466 3125:0.053491431 3133:0.046950781 3168:0.009297085 3186:0.07294514 3207:0.069227384 3241:0.024917598 3272:0.031430008 3420:0.022276598 3443:0.011947579 3467:0.12127341 3549:0.041717005 3555:0.084689581 3561:0.095275773 3576:0.080221478 3671:0.01978686 3688:0.041717005 3755:0.042972581 3768:0.041717005 3885:0.084689581 4101:0.013441026 4109:0.042972581 4115:0.085083665 4210:0.022192712 4296:0.022276598 4313:0.01430722 4359:0.03857512 4408:0.066634598 4491:0.011947579 4504:0.089500941 4563:0.010297587 4565:0.066634598 4636:0.025680296 4649:0.10437532 4744:0.0057696202 4771:0.051454382 4819:0.024917598 4885:0.061572067 4905:0.07496392 4927:0.066634598 4961:0.0075707621 4965:0.041851456 5011:0.024917598 5040:0.063129372 5177:0.16620126 5252:0.018054981 5324:0.018054981 5361:0.079556396 5365:0.036583815 5451:0.015834835 5473:0.024917598 5551:0.01433025 5563:0.011947579 5631:0.022665107 5722:0.01978686 5740:0.058085788 5868:0.32590958 5905:0.039918782 5917:0.069227384 5981:0.018054981 6002:0.084689581 6004:0.025709232 6039:0.041717005 6044:0.028032295 6094:0.12322869 6128:0.031960559 6165:0.069227384 6346:0.018054981 6426:0.022276598 6445:0.088709811 6527:0.033647541 6536:0.079556396 6539:0.10366233 6576:0.042972581 6684:0.066634598 6690:0.025680296 6739:0.041717005 6819:0.039694082 6834:0.041717005 6836:0.044309783 6905:0.10454464 6912:0.047238036 7006:0.0572798 7050:0.041717005 7217:0.018054981 7282:0.027357622 7289:0.036583815 7354:0.081223171 7358:0.10530735 7371:0.0053077025 7389:0.016412147 7437:0.11360151 7506:0.041717005 7522:0.040452752 7527:0.024917598 7607:0.085080498 7671:0.084689581 7688:0.061572067 7700:0.0091534114 7701:0.036407475 7715:0.01430722 7788:0.041717005 7800:0.084689581 7849:0.01153047 7877:0.054638798 7932:0.07176623 7950:0.042972581 7976:0.011743255 8052:0.019594666 8156:0.041717005 8224:0.079556396 8248:0.028111779 8281:0.045011641 8291:0.0089980379 8302:0.042972581 8307:0.041717005 8340:0.028032295 8352:0.069268565 8357:0.024988249 8441:0.095275773 8466:0.062337973 8599:0.041717005 8616:0.091204972 8619:0.066634598 8625:0.077296847 8717:0.075158945 8763:0.069268565 8766:0.016668 8896:0.048344148 8980:0.041717005 9026:0.024917598 9114:0.069227384 9115:0.13868049 9136:0.059341892 9222:0.06858988 9237:0.0056370346 9296:0.25926245 9299:0.069464637 9346:0.039694082 9366:0.068622258 9455:0.25926245 9462:0.0063416637 9646:0.024917598 9676:0.023335688 9684:0.041717005 9693:0.025445978 9713:0.019482426 9716:0.11644817 9806:0.054638798 9841:0.026254801 9880:0.042972581 9893:0.015834835 9895:0.011947579 
0.2151973302594805 9:0.053347748 27:0.069056923 42:0.0084005177 49:0.020371436 51:0.11304089 130:0.085212393 218:0.060442333 287:0.12659722 295:0.038007508 325:0.11157841 468:0.018296088 475:0.073249473 498:0.12659722 570:0.10820095 745:0.031864648 835:0.19601394 936:0.022273495 941:0.031652596 983:0.052202104 1048:0.069056923 1049:0.0062102809 1070:0.018296088 1079:0.10830112 1151:0.026629375 1172:0.14854644 1231:0.013949931 1258:0.040192731 1352:0.10830112 1498:0.028487336 1545:0.029467943 1641:0.031864648 1829:0.040929385 1879:0.041384822 1921:0.053347748 1933:0.018634636 1942:0.013949931 1954:0.031652596 2149:0.014745177 2156:0.011962931 2167:0.0058752667 2184:0.15508456 2289:0.053347748 2300:0.041183179 2329:0.0079285556 2429:0.054953378 2500:0.05537069 2540:0.085212393 2558:0.064987579 2607:0.054770003 2687:0.15508456 3027:0.054953378 3036:0.058488822 3125:0.068404902 3186:0.10364703 3258:0.11412586 3280:0.19388246 3467:0.15508456 3504:0.020328986 3515:0.094680442 3555:0.10830112 3575:0.16340108 3626:0.018655886 3656:0.053347748 3806:0.041805016 3981:0.023088728 4014:0.092145663 4077:0.088528047 4115:0.12089454 4151:0.093282325 4288:0.041231857 4329:0.053347748 4333:0.073249473 4403:0.088528047 4417:0.053347748 4439:0.076216811 4465:0.16359929 4478:0.043367204 4568:0.085212393 4614:0.066271845 4649:0.14830586 4681:0.15472993 4747:0.04826288 4821:0.085212393 4871:0.0096814992 4961:0.0096814992 4965:0.042815749 5009:0.050760832 5130:0.11165664 5177:0.2597691 5194:0.031864648 5362:0.050760832 5397:0.10238407 5620:0.045553071 5631:0.025763701 5740:0.074280165 5824:0.015278577 5854:0.085212393 6025:0.12659722 6038:0.046783425 6151:0.1665318 6223:0.022273495 6297:0.1134422 6439:0.10830112 6502:0.0063446585 6546:0.031864648 6576:0.054953378 6588:0.17735807 6698:0.023740761 6873:0.0083739281 7040:0.018296088 7199:0.15851798 7371:0.0041769205 7385:0.045163761 7431:0.067346908 7509:0.1418758 7556:0.0075365349 7563:0.045163761 7581:0.011832944 7688:0.078738421 7795:0.01638353 7976:0.01201383 7981:0.1017368 8004:0.15508456 8149:0.055605406 8281:0.057560934 8291:0.0080364256 8293:0.028219558 8357:0.031955 8403:0.0059486125 8464:0.028487336 8467:0.035482256 8706:0.069416721 8766:0.022736062 8898:0.058056162 8937:0.0084005177 8952:0.053347748 8957:0.10830112 8999:0.018296088 9081:0.031864648 9136:0.075886472 9280:0.023740761 9293:0.056906966 9362:0.053347748 9511:0.040929385 9568:0.085212393 9615:0.040192731 9716:0.13236805 9769:0.1017368 9899:0.096113335 
1.017918761977006 51:0.1249879 212:0.041247875 259:0.028365464 284:0.10468697 291:0.13305244 295:0.046693807 325:0.1523097 384:0.030608067 562:0.06553993 578:0.12781978 729:0.15423938 790:0.060603845 792:0.022477506 868:0.014424917 935:0.014380562 936:0.027363917 983:0.057719215 1079:0.14783604 1151:0.032715296 1175:0.15974066 1188:0.067512514 1513:0.0213458 1545:0.036202595 1690:0.064760712 1716:0.042417789 1810:0.018115064 1919:0.10876039 1925:0.084839306 1933:0.020604084 2137:0.035902893 2173:0.030608067 2512:0.028984585 2597:0.10468697 2629:0.086571911 2669:0.089990028 2701:0.10468697 2925:0.19366702 3155:0.10022141 3186:0.11460122 3584:0.13305244 3585:0.033239925 3689:0.067512514 3719:0.039147047 4027:0.069290883 4288:0.061911728 4359:0.0673376 4491:0.018770368 4649:0.16397993 4663:0.070344394 4698:0.020060945 4747:0.059292958 4871:0.011894125 5020:0.13305244 5072:0.13305244 5131:0.023418548 5361:0.1249879 5362:0.062361796 5397:0.17609632 5416:0.089990028 5446:0.039147047 5618:0.039147047 5620:0.055963844 5672:0.041247875 5844:0.10468697 5868:0.3413491 6037:0.050842977 6128:0.040169576 6190:0.028365464 6539:0.10022141 6549:0.10468697 6663:0.067512514 6688:0.17281107 6690:0.040345296 6795:0.027641647 6845:0.085082977 6938:0.022919533 6980:0.15552996 7023:0.076831352 7117:0.072822147 7170:0.11631887 7199:0.17527136 7370:0.13305244 7371:0.00570169 7389:0.022919533 7556:0.011316492 7682:0.17430032 7688:0.096733429 7730:0.034997879 7795:0.018115064 7829:0.089990028 7849:0.018115064 7910:0.049378444 7918:0.039147047 7976:0.018039377 8156:0.06553993 8248:0.039258048 8291:0.0098730835 8377:0.096733429 8384:0.10468697 8395:0.11631887 8440:0.06553993 8441:0.13305244 8467:0.043591429 8517:0.1249879 8518:0.050283454 8544:0.10468697 8609:0.06553993 8766:0.02327683 8982:0.10468697 9175:0.039258048 9222:0.10775885 9237:0.0088561216 9339:0.14644471 9504:0.089990028 9511:0.050283454 9732:0.076831352 9759:0.072822147 
0.7565178930143396 100:0.03783044 109:0.070844413 119:0.017540895 324:0.070844413 338:0.067409058 384:0.033085338 729:0.16672278 780:0.054957963 783:0.070844413 815:0.11315984 983:0.062390728 1217:0.14276153 1347:0.063001919 1933:0.029695572 2028:0.056467431 2035:0.062127168 2077:0.23552688 2167:0.0078022011 2219:0.023073426 2251:0.097273387 2300:0.044746518 2336:0.062127168 2495:0.072976655 2617:0.070844413 2659:0.030661231 2664:0.042315422 2683:0.042315422 2687:0.24027294 2830:0.12903479 2855:0.024774532 2861:0.072976655 3267:0.075247512 3492:0.040660991 3570:0.044586281 3638:0.13201981 3792:0.11315984 3948:0.18840736 4145:0.10833285 4210:0.037687987 4409:0.11756294 4469:0.055221408 4535:0.03783044 4599:0.11315984 4649:0.17725169 4663:0.076037737 4744:0.0078384423 4747:0.064091845 4865:0.070844413 4885:0.10456257 4967:0.11315984 4997:0.054353155 5571:0.072976655 5576:0.22149269 5631:0.034213522 5686:0.075247512 5827:0.15087978 5847:0.070844413 5922:0.11315984 5933:0.070844413 6106:0.050472979 6151:0.22114988 6183:0.042315422 6233:0.11315984 6266:0.070844413 6468:0.070844413 6527:0.057140742 7354:0.13793436 7371:0.0064713148 7437:0.19291974 7507:0.059976293 7620:0.067409058 7830:0.024296728 7918:0.042315422 7963:0.015544455 8074:0.086046057 8113:0.070501602 8137:0.020289551 8187:0.10946103 8281:0.10191923 8291:0.00873177 8297:0.077671627 8308:0.16643265 8457:0.1846801 8616:0.1376761 8669:0.097273387 8924:0.042315422 9046:0.011917759 9175:0.042435406 9271:0.27478134 9452:0.070844413 9547:0.044135511 9576:0.014034175 9587:0.033085338 9696:0.16811781 9716:0.16779124 9788:0.097273387 9893:0.026890947 
1.434849422204642 40:0.082231666 42:0.0084678766 55:0.032120153 130:0.08589566 200:0.021852264 331:0.032120153 338:0.051167852 352:0.088416125 356:0.013314677 382:0.053775514 413:0.018805477 434:0.013538117 511:0.029844391 521:0.013314677 748:0.10264365 862:0.053775514 868:0.011835643 878:0.13052145 904:0.12815 920:0.025389671 936:0.022452095 1081:0.0060625365 1099:0.28935036 1175:0.1310672 1231:0.012655609 1243:0.053775514 1247:0.092884517 1361:0.10916953 1382:0.02511392 1437:0.025389671 1507:0.10487613 1574:0.060522136 1626:0.088416125 1666:0.069610647 1672:0.047158552 1807:0.032120153 1810:0.018917067 1933:0.021516279 1970:0.053775514 2065:0.023273863 2137:0.029458326 2156:0.012058855 2167:0.0064607751 2173:0.02511392 2217:0.10255257 2242:0.032120153 2270:0.04125757 2329:0.0079921298 2335:0.015401086 2397:0.032120153 2424:0.033103315 2450:0.04125757 2500:0.071036856 2516:0.034530852 2591:0.12474744 2635:0.027273358 2659:0.023273863 2724:0.10916953 2733:0.073836814 2830:0.10684994 2855:0.018805477 2873:0.053775514 2878:0.020411975 2912:0.14301342 3046:0.042269811 3125:0.075221888 3186:0.094030307 3188:0.08589566 3221:0.08589566 3258:0.11504096 3280:0.19543707 3300:0.05411398 3324:0.018442793 3420:0.031326284 3446:0.08589566 3459:0.11435182 3464:0.082142228 3492:0.03086433 3642:0.07947876 3689:0.055394016 3820:0.073836814 3875:0.047158552 4115:0.10967752 4129:0.01179925 4208:0.040515011 4243:0.02511392 4455:0.032120153 4465:0.16491109 4491:0.015401086 4525:0.013314677 4547:0.08589566 4568:0.093704363 4629:0.0059223776 4636:0.036112708 4663:0.057717573 4744:0.0059498864 4749:0.053775514 4782:0.08589566 4961:0.010646322 4965:0.047082619 5008:0.08589566 5040:0.072335323 5092:0.018805477 5223:0.032120153 5439:0.10255257 5520:0.053775514 5561:0.08589566 5572:0.032120153 5631:0.025970285 5647:0.018442793 5790:0.046759033 5868:0.28007694 5874:0.055394016 5883:0.053775514 5888:0.15775353 6037:0.041716661 6097:0.047158552 6107:0.023273863 6190:0.023273863 6234:0.11909404 6274:0.051167852 6502:0.006976945 6527:0.047316582 6690:0.033103315 6698:0.023931123 6725:0.12761232 6745:0.073931557 6757:0.055394016 6816:0.013806119 6948:0.023273863 6983:0.053775514 7060:0.018442793 7105:0.053775514 7172:0.040515011 7298:0.0065593103 7322:0.082231666 7371:0.0049759421 7507:0.045525901 7585:0.018805477 7626:0.053775514 7698:0.051167852 7784:0.023273863 7792:0.02871576 7812:0.022452095 7976:0.012110162 8037:0.15632809 8081:0.017868584 8107:0.070432418 8142:0.032136356 8149:0.056051276 8262:0.023273863 8291:0.0078330675 8292:0.055394016 8357:0.032211228 8403:0.0070865495 8448:0.033843883 8467:0.035766766 8518:0.04125757 8529:0.032120153 8542:0.10916953 8588:0.053775514 8625:0.099639888 8633:0.10264365 8722:0.033843883 8766:0.031252319 8768:0.041716661 8774:0.039644798 8798:0.032120153 8847:0.053775514 8997:0.057117746 9009:0.013314677 9141:0.08589566 9237:0.0072664476 9280:0.023931123 9293:0.051626941 9296:0.33420353 9329:0.02871576 9338:0.058957805 9372:0.02871576 9438:0.023273863 9462:0.0072664476 9576:0.011621291 9582:0.055394016 9600:0.032120153 9676:0.030080986 9693:0.031807289 9821:0.073836814 
0.5973029149866959 73:0.03562032 129:0.1468937 200:0.03130063 238:0.12664502 413:0.026936488 434:0.017775684 443:0.032159812 705:0.077026683 717:0.055209717 729:0.18127189 868:0.016953075 874:0.10576198 904:0.18355882 1002:0.20484878 1083:0.077026683 1143:0.067548716 1391:0.15637166 1537:0.079344989 2004:0.1017448 2149:0.021289972 2300:0.048651339 2325:0.12303477 2500:0.095937028 2516:0.036271489 2731:0.10402845 2733:0.10576198 2886:0.046008091 2991:0.22392039 3111:0.19604353 3191:0.02641699 3510:0.030095143 3555:0.15637166 3626:0.026936488 3642:0.11384337 3805:0.077026683 4014:0.13304543 4060:0.16478177 4302:0.12303477 4464:0.050513382 4465:0.23621447 4535:0.05758442 4635:0.079344989 4636:0.056899616 4961:0.013978729 5171:0.077026683 5177:0.30687563 5348:0.050372235 5513:0.10088561 5551:0.026459513 5740:0.10725016 6038:0.094568201 6128:0.047209831 6223:0.032159812 6502:0.0091607991 6623:0.10088561 6857:0.015258871 6905:0.19303225 7262:0.077026683 7431:0.1166874 7559:0.1468937 7688:0.11368726 7813:0.046008091 7877:0.12106273 7976:0.024284806 8081:0.030713409 8281:0.083109934 8291:0.013291252 8300:0.077026683 8403:0.010306757 8518:0.059096303 8670:0.187646 8747:0.077026683 8766:0.034469073 8924:0.046008091 9018:0.2316387 9156:0.12303477 9175:0.046138545 9286:0.10576198 9293:0.073949124 9392:0.14764172 9462:0.010408275 9524:0.1721111 9693:0.041763293 
0.5888145042038147 68:0.025362036 85:0.038367669 119:0.015040349 200:0.024684465 235:0.10080373 276:0.026900417 291:0.14387173 338:0.067432804 412:0.015040349 420:0.071919371 512:0.15223008 768:0.026290313 904:0.1447591 1043:0.18104224 1055:0.060745174 1081:0.007989661 1106:0.060745174 1143:0.053270618 1231:0.016678503 1242:0.060745174 1347:0.054020668 1438:0.10492297 1474:0.088404919 1507:0.11846878 1537:0.062573454 1543:0.16154891 1545:0.033554097 1574:0.068366212 1621:0.11594695 1735:0.062573454 1799:0.061127513 1802:0.01203353 1933:0.022279522 2004:0.080238508 2137:0.033276322 2189:0.032437514 2260:0.025817766 2299:0.060745174 2300:0.04476228 2329:0.0090279639 2335:0.01739717 2392:0.053270618 2558:0.066599134 2607:0.062364652 2701:0.1131997 2733:0.083406561 2822:0.13821357 2830:0.11064021 2865:0.15860328 2882:0.064520589 2915:0.0633159 2962:0.060745174 3111:0.096628035 3125:0.077890218 3133:0.068366212 3155:0.092889443 3168:0.01203353 3186:0.10621725 3191:0.020833104 3267:0.064520589 3303:0.12331863 3391:0.083406561 3433:0.097307648 3508:0.036283139 3560:0.036283139 3576:0.1168125 3806:0.064262536 3857:0.12331863 4313:0.020833104 4491:0.01739717 4514:0.097028318 4614:0.079234454 4636:0.037393726 4747:0.05495522 4805:0.062573454 4899:0.023057503 4973:0.13515141 5024:0.062573454 5067:0.036283139 5177:0.24200984 5211:0.026290313 5268:0.026290313 5275:0.15165636 5362:0.057799547 5473:0.036283139 5474:0.12331863 5484:0.070869366 5528:0.060745174 5722:0.028812144 5778:0.028368851 5888:0.15078415 5912:0.016354743 5985:0.064520589 5990:0.097028318 6037:0.04712342 6165:0.10080373 6274:0.067432804 6346:0.026290313 6390:0.062573454 6462:0.04712342 6527:0.048995033 6576:0.062573454 6642:0.097028318 6670:0.028368851 6690:0.037393726 6725:0.14415174 6819:0.057799547 6912:0.061141777 7016:0.060745174 7298:0.0074094405 7371:0.0047561108 7373:0.037393726 7385:0.051426361 7431:0.076685522 7507:0.068568484 7680:0.062573454 7688:0.08965663 7691:0.060745174 7849:0.016789807 7910:0.045766027 7963:0.013328512 7971:0.013328512 7976:0.022799532 8037:0.20602079 8224:0.13515141 8291:0.0099826809 8297:0.066599134 8352:0.08965663 8377:0.08965663 8448:0.038230276 8467:0.04040238 8517:0.11584407 8633:0.11594695 8676:0.03067203 8699:0.097028318 8999:0.020833104 9031:0.083406561 9136:0.086409216 9147:0.16154891 9288:0.062573454 9419:0.036283139 9524:0.13573114 9639:0.0090279639 9671:0.060745174 9713:0.028368851 9788:0.083406561 9816:0.18991776 9868:0.028652231 9922:0.060745174 
0.4664334862959131 61:0.12605982 113:0.041036242 338:0.050333279 357:0.092108857 509:0.044783355 590:0.052898406 664:0.0368623 681:0.086974022 719:0.20269269 729:0.13486336 748:0.10096948 779:0.035183395 780:0.041036242 868:0.011642598 914:0.077514889 935:0.0116068 983:0.046586172 1081:0.0064606239 1099:0.18417295 1165:0.031596259 1175:0.16116179 1199:0.084494667 1231:0.01244919 1322:0.10087989 1372:0.057306605 1380:0.018141982 1403:0.043175372 1443:0.052898406 1488:0.0068748559 1503:0.0088988025 1545:0.031654716 1574:0.064496234 1746:0.017228562 1933:0.018015736 2008:0.034229277 2066:0.11819805 2167:0.0058257805 2173:0.024704299 2300:0.033411518 2324:0.11704319 2500:0.059479668 2512:0.027292949 2606:0.031596259 2629:0.075696485 2631:0.10087989 2653:0.052898406 2670:0.052898406 2681:0.052898406 2731:0.059534991 2878:0.023425551 2928:0.050333279 3111:0.08414609 3133:0.059534991 3186:0.11562078 3210:0.013520045 3258:0.12259497 3300:0.053231353 3391:0.072632503 3492:0.030360919 3499:0.084494667 3526:0.013097509 3559:0.018498751 3561:0.10738892 3576:0.10172323 3642:0.07818243 3748:0.033291873 3840:0.031685849 3867:0.052898406 3905:0.14146454 4052:0.021495844 4109:0.054490515 4210:0.028141025 4436:0.15625766 4465:0.16222131 4636:0.035276997 4649:0.13235104 5034:0.12553091 5096:0.095097579 5200:0.022894257 5241:0.084494667 5275:0.15407713 5397:0.09136953 5551:0.018171186 5576:0.16538509 5773:0.052898406 5824:0.015149888 5840:0.052898406 5868:0.27550875 5950:0.10738892 6060:0.11633799 6128:0.032421557 6143:0.084494667 6424:0.052898406 6502:0.0068154863 6543:0.018141982 6673:0.033291873 6698:0.023540794 6707:0.10738892 6745:0.066665219 6819:0.050333279 6873:0.0080958101 6890:0.028247392 6912:0.057680754 6974:0.084494667 7182:0.024802108 7217:0.022894257 7243:0.12553091 7282:0.034690285 7283:0.057306605 7371:0.005522319 7373:0.032563384 7389:0.018498751 7396:0.019653814 7543:0.031596259 7563:0.052247243 7651:0.052898406 7855:0.052898406 7874:0.059031388 7976:0.016876239 8044:0.098577103 8052:0.022085889 8081:0.01757714 8149:0.064326561 8211:0.046389378 8265:0.033291873 8277:0.084494667 8297:0.057996174 8308:0.10651941 8403:0.0058985087 8464:0.028247392 8669:0.072632503 8766:0.022544558 8792:0.072632503 8937:0.0083297619 8998:0.10738892 9046:0.0096403683 9073:0.071397161 9227:0.010479096 9237:0.0071479287 9280:0.023540794 9286:0.072632503 9296:0.32875253 9327:0.054490515 9351:0.037307609 9362:0.052898406 9416:0.052898406 9417:0.10738892 9452:0.052898406 9458:0.084494667 9538:0.16538509 9547:0.028247392 9587:0.024704299 9639:0.0078617747 9713:0.024704299 9777:0.069283629 9788:0.072632503 9810:0.052898406 9893:0.021752297 
0.06885633979300047 53:0.063049479 73:0.028621641 89:0.042678621 276:0.018272328 295:0.039195728 325:0.10068333 357:0.077373129 412:0.013621707 493:0.048138599 511:0.030532586 601:0.010562417 729:0.1132877 731:0.013786697 745:0.028753222 868:0.010594995 874:0.066097015 904:0.11471693 1049:0.0056038772 1081:0.0062023347 1099:0.16760102 1175:0.11732835 1217:0.095026381 1343:0.060317344 1382:0.022481402 1488:0.0062562552 1549:0.020834226 1851:0.028753222 1879:0.037343793 1949:0.048138599 1956:0.028753222 2028:0.038369477 2086:0.18288902 2137:0.026370415 2149:0.013305383 2156:0.012336925 2260:0.023382572 2457:0.030296264 2512:0.024330247 2514:0.07689182 2558:0.052777672 2595:0.048138599 2645:0.030296264 2673:0.12802231 2773:0.030296264 2830:0.087678808 2865:0.12568799 2886:0.028753222 2909:0.10491738 2915:0.050175812 3050:0.048138599 3051:0.029633324 3070:0.020834226 3111:0.087513844 3155:0.073611893 3168:0.0095361853 3174:0.07689182 3186:0.1082234 3267:0.051130492 3420:0.025705688 3464:0.12605456 3502:0.07689182 3561:0.097726044 3567:0.051130492 3576:0.1454674 3623:0.07689182 3626:0.01683423 3671:0.026094513 3791:0.011918993 3959:0.048138599 3972:0.020098598 4027:0.045804284 4052:0.027945207 4115:0.098180796 4285:0.055015544 4288:0.037205764 4293:0.041300675 4301:0.048138599 4333:0.066097015 4412:0.048138599 4504:0.11803204 4582:0.018272328 4649:0.13764807 4698:0.016839562 4747:0.049771709 4773:0.14391889 4885:0.07105 5064:0.0918027 5131:0.017200752 5133:0.028753222 5177:0.27397859 5268:0.020834226 5292:0.13960864 5315:0.019239122 5348:0.031480634 5388:0.028753222 5592:0.07689182 5721:0.07689182 5868:0.25071842 5888:0.11949159 6123:0.048138599 6128:0.02950426 6131:0.013621707 6151:0.17173804 6173:0.028753222 6223:0.022969827 6347:0.048138599 6390:0.049587448 6690:0.029633324 6698:0.021422589 6795:0.018272328 6816:0.011329009 6872:0.091884226 6883:0.04221525 6912:0.055374737 7096:0.10130629 7105:0.048138599 7172:0.041449263 7262:0.048138599 7328:0.10756257 7371:0.0048459405 7380:0.016509564 7389:0.019239122 7423:0.020834226 7437:0.13108846 7524:0.097726044 7556:0.0068006292 7581:0.0099841696 7596:0.048138599 7619:0.048138599 7620:0.045804284 7685:0.27372676 7792:0.025705688 8016:0.04885182 8262:0.020834226 8281:0.051940388 8291:0.0093236244 8328:0.090678514 8366:0.087876374 8420:0.11423561 8467:0.041165469 8478:0.094424309 8542:0.097726044 8633:0.091884226 8766:0.024179566 8812:0.013786697 8932:0.016509564 8940:0.028753222 9009:0.011918993 9051:0.028753222 9057:0.055015544 9136:0.078258899 9296:0.29917129 9511:0.03693283 9538:0.15050371 9571:0.051130492 9615:0.036268105 9693:0.029829019 9908:0.024414481 
0.5119565481157545 3:0.038670649 28:0.076510179 61:0.11923363 85:0.031602271 200:0.020331836 218:0.056687828 238:0.082264344 258:0.051539832 309:0.061890022 408:0.037696074 441:0.079919245 443:0.020889931 668:0.032061342 681:0.082264344 729:0.14129775 784:0.050033935 814:0.058457991 878:0.095417207 904:0.11923363 910:0.029389564 936:0.020889931 938:0.020889931 946:0.029885308 983:0.052876216 1048:0.07124403 1100:0.10157377 1171:0.068699424 1183:0.079919245 1202:0.14636916 1231:0.011775062 1314:0.071172624 1380:0.017159587 1474:0.062414079 1545:0.02763748 1726:0.068699424 1744:0.050033935 1802:0.0099116491 1918:0.029885308 1933:0.018875273 1970:0.050033935 2004:0.066089996 2071:0.018875545 2100:0.03586237 2156:0.011219828 2167:0.0055103121 2325:0.079919245 2424:0.030800065 2450:0.038386969 2516:0.023560738 2556:0.029885308 2598:0.029885308 2604:0.053985416 2629:0.066089996 2645:0.031489106 2790:0.083028935 2851:0.029885308 2855:0.017497036 2861:0.051539832 2909:0.095417207 2928:0.047607715 3056:0.12793784 3125:0.064155783 3159:0.09623668 3168:0.0099116491 3186:0.11373425 3220:0.18297519 3435:0.10157377 3442:0.076510179 3464:0.10699775 3467:0.14545115 3510:0.019548794 3576:0.096214874 3678:0.051539832 3745:0.050033935 3791:0.013627101 3843:0.050033935 3860:0.10157377 3982:0.050348854 3985:0.065531892 4051:0.083028935 4129:0.012076116 4213:0.017159587 4261:0.054855663 4293:0.041317028 4436:0.14779624 4462:0.043877373 4469:0.039000173 4474:0.050033935 4504:0.095417207 4566:0.050033935 4582:0.018991758 4595:0.050033935 4629:0.0066123747 4649:0.150221 4650:0.050033935 4725:0.051539832 4744:0.0055359071 5029:0.050033935 5064:0.095417207 5075:0.022978924 5130:0.094248754 5177:0.23920329 5200:0.021654522 5207:0.051539832 5324:0.021654522 5332:0.079919245 5361:0.095417207 5439:0.095417207 5446:0.029885308 5631:0.024163334 5681:0.095417207 5722:0.023731677 5731:0.062356607 5740:0.069666091 5842:0.012388274 6043:0.11873336 6094:0.14779624 6165:0.083028935 6247:0.079919245 6274:0.047607715 6429:0.038814111 6549:0.079919245 6663:0.051539832 6672:0.053143629 6689:0.050033935 6779:0.11179757 6784:0.079919245 6816:0.012952567 6836:0.053143629 6857:0.0099116491 6873:0.0070683876 6948:0.021654522 7020:0.023366554 7104:0.10466233 7143:0.050033935 7199:0.13380417 7354:0.097416279 7371:0.0039174624 7431:0.06316351 7556:0.0077752259 7607:0.090704555 7711:0.029885308 7831:0.00650258 7911:0.0332782 7929:0.095417207 7937:0.086421835 7971:0.010978287 8074:0.060770116 8149:0.057366495 8187:0.07730696 8224:0.10495892 8237:0.071615223 8291:0.011100278 8314:0.079919245 8357:0.029970047 8403:0.0055791019 8420:0.11873336 8421:0.050033935 8574:0.029885308 8604:0.079919245 8631:0.029885308 8716:0.090143049 8766:0.017592102 8822:0.050033935 8999:0.017159587 9040:0.085078157 9136:0.071172624 9200:0.050033935 9237:0.0067608655 9271:0.16634109 9280:0.02226605 9441:0.087911167 9445:0.073847419 9447:0.14545115 9464:0.050033935 9499:0.076510179 9526:0.023819974 9538:0.17207236 9571:0.058457991 9623:0.032967049 9687:0.087911167 9693:0.027128029 9716:0.17267539 9727:0.018991758 9775:0.014329515 9806:0.065531892 9928:0.079919245 
